437 100
plane 2.786098 -0.12288 -1.216291 1.503508 -1.69627 1.389287 3.320132 -0.132234 1.039956 -0.663806 -4.523022 -3.024325 2.064465 0.006789 -3.522841 3.513253 2.089494 0.110389 -9.652283 4.552036 1.803565 5.794436 1.928997 5.755985 -5.304175 -0.537083 0.787687 2.282342 -4.682062 6.352855 8.672818 -1.606447 -4.925232 -5.734527 -3.56984 -1.086824 2.8083 -4.168799 5.314606 2.355352 -1.624315 3.068856 -1.219568 -3.010777 2.031167 0.052337 -5.184402 1.398784 1.544905 2.657873 0.371774 -0.704718 -0.34212 5.147713 0.384325 6.018939 1.613223 -1.7824 -5.017333 1.761449 4.217733 -2.780709 -3.549245 -9.960635 4.427474 -3.768184 -8.974749 7.896134 2.985096 4.983205 -1.752184 -1.078338 0.150103 -1.826613 3.451009 -1.47288 8.036873 -1.499353 3.896811 -3.059369 0.969052 5.219894 4.682895 -2.9167 -1.406523 3.514578 0.548932 -3.68891 -3.207668 3.509525 -0.214178 -0.075256 -8.041812 -0.417028 -1.365222 -5.560004 -3.532856 4.229181 -2.006207 4.448294
stupid 0.516471 1.921571 1.117025 1.430304 1.417707 -2.138535 -2.487099 -3.397619 1.180501 6.593317 -1.023037 -2.331481 0.634565 1.691777 -3.02635 4.827458 -4.608306 -0.143815 -2.56505 -3.58028 -0.253621 -5.444933 -2.608202 -4.180456 0.727631 -3.519131 5.054084 1.458442 3.140504 -6.185289 -3.626803 -0.68578 -2.42664 -2.464988 -1.382864 -0.025964 -2.889224 1.657898 1.599137 -2.206726 -3.021136 0.49404 -3.878332 -3.17133 2.619328 -0.622401 1.197453 -0.746591 0.973032 -1.065076 0.836391 -2.775511 0.927747 0.724997 -3.797309 -0.957581 -1.845346 -3.567435 -0.301567 2.549362 2.550339 0.608918 -6.10097 2.097308 1.782859 -2.51634 1.523201 3.290249 -3.940623 0.945466 0.366105 -0.076844 -1.642942 3.749919 1.202583 -1.752105 -2.222667 0.148477 -0.414019 0.156102 1.617138 -2.326528 1.407483 4.194485 -0.891373 2.94606 -0.595428 -2.611161 -3.722674 -3.395938 0.086331 1.647799 -1.291147 -3.622861 -5.063654 -2.427829 -0.274601 4.401181 -1.926276 -2.13361
egg -1.038532 4.933402 1.041724 -0.574012 -2.648704 -1.037302 3.478209 0.184547 1.292436 8.234008 0.273461 -3.151173 -0.363142 3.528429 0.684989 -1.481378 2.976237 -0.715354 -2.400362 1.06217 -3.255812 -7.601005 -0.897637 1.576037 0.914594 -6.887127 -3.042732 4.824326 1.936094 -2.253651 3.108693 4.069746 -1.868483 2.457246 -4.46033 3.976516 6.710289 0.908853 3.228611 -2.741516 -2.859909 -1.015559 -0.507722 0.453765 0.649359 0.275108 0.305145 3.616967 3.448377 3.398775 -3.405212 -3.702321 -1.810084 2.733608 2.368388 3.116445 -2.998891 -0.903189 1.727708 3.17736 -1.448958 -2.3393 -1.725066 -2.187284 2.523523 2.280957 -2.228356 -0.894925 -0.327576 -5.522149 -1.590941 1.549544 2.479453 -1.54011 2.899469 -0.057706 4.568261 -0.281161 -2.01195 2.977605 -1.38078 -6.628193 -2.535394 -4.263198 0.819635 -1.093066 -5.156456 -1.590257 4.369546 5.90426 2.090222 -1.570441 1.705787 -3.233471 -4.269656 -0.281181 -2.02872 -0.065948 1.038336 0.598633
year 2.114253 -3.807398 5.313714 -2.236763 2.14736 -0.926865 5.071644 2.452096 -3.890642 2.877616 -8.563052 -0.300976 11.365001 7.785301 4.267848 -1.357881 -0.145544 8.569215 -3.437435 3.318098 -0.83937 4.234262 4.963149 -7.114104 -12.443768 0.918993 -3.701447 -3.91686 5.611824 0.654526 6.330977 -0.487278 4.447614 0.154083 1.005436 -2.693009 2.255509 3.491491 0.819682 -10.552514 7.241253 -7.451223 -1.327406 8.463918 -8.185174 -12.012777 -6.503453 0.682555 -9.056867 -4.601869 1.398665 3.569082 -4.518265 1.33231 2.846053 3.642149 3.98142 -8.071157 -5.842383 4.952415 -13.001333 3.310169 -9.061456 -3.040462 -11.832709 -4.538306 -2.688311 -3.034417 1.385852 6.382234 -5.878429 0.027027 -3.351896 2.857021 6.328008 -4.741741 9.521726 -6.305471 2.82565 16.33074 -7.454308 -8.27839 -1.708751 -5.798453 0.390225 -9.640304 -0.454302 1.616833 3.591633 3.499846 -1.406949 -2.587957 3.102671 13.706674 -0.703089 6.959165 -6.642501 6.045805 1.368323 7.202397
psychiatry 0.812292 -2.63701 -1.656648 -0.616859 -1.972679 -1.255274 0.723266 -1.488742 3.157441 1.200038 -0.35043 -0.453188 -5.486431 0.953565 1.452366 -0.891531 -0.614687 1.420386 3.557711 3.222219 -0.209165 0.704653 -0.407024 0.873281 2.699687 -2.694934 -0.454347 4.28145 -1.594662 -2.814 -0.613712 4.419107 -1.013424 0.508201 -0.351392 2.06338 1.145413 2.860178 2.195884 0.673086 1.314254 -0.352276 1.745033 2.114134 -1.170964 -4.904435 -0.511555 2.888811 2.908395 -0.205072 -2.206528 -3.537228 0.421604 0.299579 -0.059861 -1.388181 3.453345 0.005947 -0.512043 -1.296325 1.043546 0.82108 -2.559608 3.010182 -0.88599 0.252904 -0.053573 -1.619447 1.242107 -0.387244 -0.906598 1.574573 2.41337 -0.72915 -3.588712 -1.027541 -4.41463 1.227373 -3.515449 -2.229346 -1.568 2.649052 -0.802479 -4.618169 -1.563575 1.875703 0.140251 -0.992014 -2.182219 -1.475451 -1.109758 -3.451699 0.211557 0.759524 1.089215 0.39018 1.336999 2.75061 0.981542 0.210254
asylum 6.905871 -4.466577 -4.964314 -0.682885 -0.100451 4.978359 0.112095 -0.936339 -0.429818 -2.932009 -6.220663 -4.630145 -5.039575 2.493049 4.631398 1.096735 -2.319323 4.931809 -6.372928 0.852315 2.989176 4.376446 -1.584792 -0.035741 -5.452008 -1.829278 0.280698 3.754626 3.458866 1.445117 -6.238056 -5.652307 0.215126 0.256384 -6.952216 8.332413 -1.671597 0.121176 -4.537329 -0.666596 2.035039 -5.531021 6.568757 0.355896 3.025118 1.466653 -4.022856 2.895635 -3.869843 -2.331615 7.517122 -7.52274 2.213263 6.060192 7.147209 -4.243499 1.472965 -2.631318 0.30056 3.859514 -1.905103 -0.089487 0.912783 -0.314633 6.176306 2.93365 -10.012591 3.187555 4.262 3.174013 0.278434 -0.478411 -0.105362 4.365383 -1.915339 -1.551285 1.551088 -0.080665 -3.472729 -5.679985 3.142047 4.313968 1.317523 -4.066738 5.797965 0.446224 -4.153296 1.084714 -1.859459 0.326473 0.887485 -2.508323 -0.774956 0.841221 -3.939282 -1.081889 -0.814969 1.552068 2.537062 -3.628282
manslaughter 1.134573 -1.76084 6.487681 9.255245 1.093407 -2.629885 -1.083138 -5.422441 3.498013 1.598045 1.781003 -2.862694 -2.716026 -3.224785 0.150107 -6.363689 -1.569739 6.42037 -4.525541 3.770828 -3.000821 0.50002 4.116126 -3.559765 -2.705837 1.626049 -0.675368 0.192446 -6.429863 1.986608 -0.801176 1.685558 0.028176 -3.030746 -2.625104 6.076102 -2.77415 -1.852612 -3.767714 -1.872769 -3.966477 -2.024792 3.897638 5.961329 -2.267905 -3.973298 3.624343 -1.052647 0.824448 5.670863 2.424178 -1.199502 -3.572242 -3.429589 -1.676455 0.261209 0.513956 -3.032725 -1.059939 -2.088365 -2.694474 0.983599 -6.885594 -5.185381 -0.738251 -5.661462 -3.273973 0.503204 2.677428 0.575616 -1.694268 0.954482 3.926113 -6.34066 0.31615 -0.817881 -7.629707 3.16649 -1.541937 -7.494293 -4.272375 0.186585 2.664495 -6.352046 -1.427717 1.028473 -0.251459 2.564197 -0.601375 -4.463957 -0.837558 0.957112 -2.02873 -0.218814 -0.634582 6.399456 1.359945 -0.707234 3.943132 -2.839427
music 1.332033 1.083964 -3.358576 0.178868 -0.755969 -6.341692 -0.316442 5.455658 4.106977 5.132309 -2.087111 -3.001813 -4.322483 6.389116 -3.528277 2.008748 3.122242 -3.556515 -3.704887 1.264191 -0.06387 6.047754 3.611385 3.314409 -1.199683 6.813702 0.799851 -0.431142 -0.66175 -0.630844 1.190546 -0.794666 -6.29815 -1.186507 -1.933727 3.431397 7.122266 -0.728569 0.303719 0.745079 -5.509578 -0.912126 5.252815 -0.728241 -0.072329 5.402562 4.420592 2.862605 -1.401759 0.066931 -5.14823 -1.609759 -0.29919 -4.245943 -1.488474 -1.964378 -2.506698 -4.881573 -0.125779 -4.852254 0.14096 0.765624 -2.325911 5.801156 0.58103 0.701347 4.685154 0.733675 7.478678 -4.307788 6.032063 -3.03904 -3.212524 -0.192149 -1.49992 -2.844295 -4.374724 0.931296 1.77108 8.173151 -9.250055 -4.468121 2.346971 2.436125 -2.887328 -0.025194 0.397172 0.889832 6.176816 -5.203094 -2.900342 -4.321848 1.903 3.757117 -1.941127 -2.839493 0.095854 -0.026879 1.184067 -2.296363
record -1.822678 3.912314 1.027699 2.942334 0.515723 -3.857707 -0.22164 1.343104 -0.253852 -0.254561 -1.51559 1.998614 0.340165 0.656807 -2.10573 -5.63784 2.772532 3.679349 -4.601777 3.880766 -1.634112 0.618358 1.966009 3.970116 -5.266848 5.47459 -1.552736 2.828117 -1.987431 -4.71849 1.665699 -4.556942 5.644522 -1.930437 1.750352 3.271544 -2.952478 1.090665 -5.164582 -4.628215 0.653065 2.020324 0.048379 1.840294 -2.570237 5.057429 1.311228 -6.181584 -8.422897 -3.228503 -2.617791 -2.530128 -0.192473 -1.955044 5.443977 1.641557 0.631679 -2.062772 -1.26531 -5.706077 -3.150557 1.591639 -0.556563 1.861325 -2.196957 2.590699 -0.468663 -2.784885 3.071791 3.629546 1.522071 4.508272 1.614006 2.749404 2.116212 2.306844 5.175478 -2.214058 2.089548 1.091827 1.12867 -8.206346 2.740475 1.746042 4.404242 -4.467541 2.462483 -2.558235 3.239589 0.525855 -4.521456 -10.509232 1.307359 -2.825541 -0.64286 1.314768 2.812247 -1.291425 -5.105359 -1.302393
energy 4.435596 -6.208347 3.460967 3.600416 -6.95718 -0.450993 1.908632 3.943998 2.76912 -1.787145 -5.499962 -1.201109 2.193857 2.952664 -5.165307 0.175243 0.69222 3.433099 0.074437 -2.425848 1.57824 3.630342 -2.750618 2.707338 -8.616786 -1.371407 -0.581348 3.60866 2.187686 -2.148178 3.726465 2.82796 1.798741 3.65051 -2.016038 1.245636 -0.153119 1.2148 3.121433 3.684061 -1.218091 4.032135 -3.319006 6.069396 -1.111696 5.280796 -0.346088 0.927678 1.366775 0.514615 -7.973104 -4.563457 -2.760994 1.069314 3.180354 0.810701 3.534388 -2.20572 6.819291 -1.888807 2.34142 -5.187589 0.406967 10.310185 1.837203 2.519273 0.831248 -2.724416 -5.823053 -8.670441 5.236061 2.428018 1.712529 4.050395 1.069993 -0.469517 2.689304 -0.319769 7.256793 2.637429 -1.313268 -2.113651 -2.284022 4.34095 1.635693 3.174165 1.957791 -3.110459 3.654213 9.04297 4.296564 4.838589 6.058961 -1.198365 0.575253 3.816203 3.283994 1.663984 1.023452 0.707121
announcement -1.73926 3.880391 2.096593 -2.864462 -5.912053 -3.313275 1.554277 -3.172639 1.950089 -1.422071 1.928193 3.597087 1.901477 -0.033605 5.376254 -0.507123 7.101686 0.594034 1.183471 7.488605 2.284838 -1.078126 3.279806 -3.182597 -3.816905 5.296049 0.663927 -2.466866 -1.476507 1.221491 1.067845 -3.837458 3.403358 0.674186 2.796307 -0.604519 -9.692193 -2.641339 -1.349628 -1.296217 -1.923623 5.228976 2.581899 -2.519935 -1.361256 -0.808941 -1.232399 4.418119 3.558285 -1.79122 2.847813 -0.066395 7.96275 7.717117 -1.742153 5.553111 2.907753 3.80738 -2.111131 0.091604 1.662207 1.438501 -2.762852 7.210458 -2.80033 -3.562057 -9.488306 3.805304 -0.071181 0.329219 -3.975111 0.23038 -5.982729 -1.939048 0.545434 4.480492 1.774701 2.688519 4.71402 -1.106954 -4.683235 -2.73043 2.295088 -0.115449 -1.943406 -2.009439 1.865263 -1.682487 11.106594 9.056953 1.270261 4.555571 -1.242121 -1.549911 -4.640734 0.931169 -3.842723 -1.267145 -0.306138 1.217149
mile -5.305633 0.315117 5.921419 1.234953 -0.387774 -2.279688 5.94795 2.125744 2.529973 0.862187 -0.874103 -4.643369 0.851855 0.626005 -1.795297 0.98127 5.722651 5.708283 -1.505356 -0.877504 -0.030747 -0.385865 -3.0814 6.382833 -3.775415 -6.871086 0.287466 0.173195 5.039595 8.611699 8.455585 6.70831 -0.865894 -4.60186 2.433358 -3.461315 0.75211 -0.547441 -0.525656 -7.794535 -6.74389 -2.138237 -1.682994 -0.240833 -9.658889 -0.892549 5.335457 -2.876448 -2.54622 -4.479702 0.72272 -1.420987 -3.927104 -2.568167 4.941071 6.994182 1.269177 -1.698688 -7.314821 -2.402615 -2.049245 3.091608 -2.498764 -6.126591 4.063568 -2.68677 1.920369 1.602231 -2.363785 3.808644 0.841676 -3.536066 -4.413882 -3.248757 -2.507988 -4.922567 5.552046 -1.804508 2.35551 4.960975 3.256802 -0.631664 -2.948144 -2.914107 0.077331 -1.805975 -3.891258 -2.486693 -1.768519 0.066958 -4.867866 5.787502 -2.359254 -2.017433 6.251204 -2.036289 -1.734371 4.872516 -2.32671 1.557992
airport -1.500737 -6.339027 -3.837916 3.995492 -5.905872 3.569041 7.281497 0.65567 4.095265 -5.74239 -3.595653 -0.880487 -1.975251 2.357862 -0.480501 0.174885 3.494771 -1.069717 -7.016014 3.569923 0.696589 1.323395 -0.270121 1.926292 -4.822895 -4.064093 -0.145998 1.738508 -8.309966 7.619788 7.149327 -4.52764 -4.446685 -2.625869 0.530982 2.130727 1.636837 -1.5565 -0.649814 2.622273 1.129121 -2.06759 3.455584 -1.940189 0.422227 0.262797 -4.205121 1.900841 2.052983 1.71072 2.348796 -5.824879 -0.641321 3.234263 -5.062055 5.346347 6.583432 -3.192996 -6.519264 0.70057 -0.941305 -4.336831 -3.329834 -3.532727 2.297779 0.820308 -7.011915 1.722259 -3.163045 -1.458822 1.479748 0.09982 -6.449335 -0.841481 3.397629 -3.576854 3.886987 -3.871881 5.839857 -5.455695 1.470346 8.91264 0.854294 -1.167971 0.326595 0.715156 -3.727892 -0.83256 -1.009263 -0.110942 -2.970402 2.374109 -6.186663 2.062549 -0.046722 -6.467811 -0.993843 -0.225284 -1.685915 4.742839
population 6.080137 -1.164373 -1.698567 4.192357 -5.026006 9.727657 4.805027 6.829957 -0.086422 1.780026 -7.483801 -1.950125 -0.014738 1.632689 -2.641389 -1.87755 1.677888 8.87674 0.021111 -7.947391 2.120264 -2.516243 -4.813558 -0.543864 0.561472 -4.229856 -5.971899 8.031586 0.970488 2.343771 3.985489 1.659205 -0.819903 -5.539965 3.978287 -0.409089 5.284479 6.559237 3.508424 2.365864 -0.418991 1.609775 7.502817 1.548411 -2.036992 0.960077 0.871072 2.18324 -3.923501 -6.789254 -6.109015 -1.775652 4.379285 -6.152883 1.639561 -0.183355 2.431196 -1.006513 1.322888 3.856918 -3.26935 5.587791 -5.63854 4.463869 7.501263 -0.395788 -5.023168 -7.40493 4.180294 5.949986 -4.727605 -5.208399 4.817985 2.841923 3.239689 -6.276404 3.43494 -0.161886 -1.751905 0.64296 5.486315 -2.309422 -3.24147 -5.295105 -6.392663 -6.121451 -5.074161 2.368855 4.225581 7.110305 -1.950318 -2.036718 3.192615 1.37918 3.532031 -0.958593 -3.661597 2.715704 7.024338 -1.677935
planning 0.034368 -3.628006 5.964294 0.76356 -1.261224 4.796708 -0.048787 -1.51722 1.046675 -3.722955 1.910459 -3.416118 2.270584 0.404816 0.1173 -1.885653 -4.399798 -2.164435 1.711461 -2.215041 -0.705232 0.827277 -0.522896 -1.851195 -4.411641 1.964157 -0.6039 1.908128 1.451627 -1.386508 -2.428751 0.029575 -4.236324 1.508852 1.817463 2.59632 -3.473059 0.378908 -0.483333 0.234535 -5.593818 3.199346 3.538752 -1.981956 -0.4922 -0.922107 -4.538355 2.310813 0.903073 0.50964 0.637472 1.882902 -3.186888 1.18448 -3.822819 1.940283 2.472413 -3.558709 -1.721181 2.302963 -5.41543 -1.652521 -1.629881 2.257022 -1.460832 2.587575 1.02465 -0.147528 0.528217 -6.188262 2.64287 -3.312824 -5.47269 -4.20807 -2.155565 -0.26728 0.160511 2.244648 2.52203 -1.199077 -2.041117 6.07949 -1.48182 0.071315 6.49238 4.27038 -0.965264 4.009449 -2.32773 0.817501 3.787218 2.963931 4.098203 -3.558899 3.101455 0.428193 -1.51296 -0.341827 -0.715138 -0.09994
canyon -0.281063 3.255874 2.035271 0.166097 1.39422 0.40609 3.273129 5.381047 1.887089 2.793681 0.077904 -0.959254 1.543905 -0.59386 -1.207304 3.177098 2.488329 2.126052 -1.908783 1.406215 0.932415 -0.744997 -4.883719 0.18611 -1.917685 0.524713 -3.13786 3.398685 0.897808 1.886692 4.290103 2.785574 -0.22672 -3.455797 -2.520852 -0.554585 0.873374 0.90912 0.323391 0.395957 -0.83466 0.387536 2.561951 -3.803447 -1.357813 0.521521 0.441891 -0.999889 0.972371 -1.238804 1.284904 -1.605129 -1.07849 -0.070239 2.218079 -0.718152 -1.248118 -2.08017 -4.733905 -0.977876 0.511276 1.444224 -0.088311 -3.562992 4.192879 -2.681759 1.990435 0.718765 3.503812 2.088545 1.651287 0.575985 -0.107916 1.119503 0.193479 -1.706227 2.957974 -1.818852 5.587081 2.998034 2.442305 3.345686 -1.15059 -2.46127 -0.057081 -2.779212 1.281118 -1.152109 0.732682 1.352288 -3.910401 0.877503 -4.397967 -1.763217 2.644107 -0.557158 2.475501 -3.077153 -0.455293 4.272528
delay 0.893311 -2.730946 2.744713 3.144939 -0.259254 -3.502214 -1.991846 -1.360224 2.305626 -2.020562 0.302005 2.756186 0.093162 -1.259416 -0.456537 2.897081 -0.220623 3.949254 0.476337 3.322211 1.659056 -1.790277 1.732127 -1.755731 -6.210223 4.749782 0.296797 -0.709541 0.580029 1.319279 -0.400959 0.682696 5.762936 1.288728 -3.497197 5.08405 -2.988594 1.260548 -2.232908 -1.298971 -6.069108 0.275064 1.295046 2.301728 -2.729512 -0.616748 -4.484392 4.398024 0.390766 2.057335 4.775077 -0.41655 2.846153 6.996482 0.249112 4.644758 3.634361 3.380584 -7.726729 -1.21519 0.883774 -6.174761 1.046992 2.573825 3.994022 -0.117122 -2.321218 0.43224 -0.806724 -0.025865 -2.940153 8.322142 1.43322 -3.244414 3.459166 -1.507799 -3.027093 1.756724 -2.908113 -2.299024 0.802263 -2.377892 2.499328 0.68276 -2.272158 -1.223501 0.058863 3.780829 0.654809 2.100604 3.328643 3.341926 -3.109091 -1.491027 3.035624 1.242636 -2.647413 -0.444127 -1.843133 -2.76139
size 2.46824 0.872311 2.603631 2.769274 -3.890454 3.309393 0.251595 4.83627 3.026524 -0.197717 -2.705511 -5.626757 1.440496 -5.94849 -6.840874 0.874182 2.161264 0.747127 3.293323 -0.196037 3.163139 -2.751515 -0.591363 -0.286114 -1.434676 -1.243817 -1.656064 1.588064 -2.112763 0.684446 8.077672 4.177542 -2.037441 -2.371523 -0.97826 -0.084131 0.094784 5.901369 -3.715929 -3.208667 0.445209 4.711479 0.460006 2.693952 -6.7346 0.676665 -1.221646 0.068286 2.320809 -2.72837 -7.217967 -0.177739 -4.431181 -4.892999 1.388071 2.122066 -3.462032 1.752205 -4.54418 -1.088768 -2.562215 1.473703 0.586082 0.568926 2.162021 -0.08402 0.408948 -1.68672 -2.102394 2.090325 -2.800585 -5.282082 0.74846 -1.790815 2.222452 -1.263238 2.250638 -0.532035 0.517428 3.085176 2.658605 -6.844007 -1.502112 -3.433005 -7.212934 -1.414286 -1.308545 1.582501 1.681871 3.931822 3.482003 -1.469418 4.130945 0.445423 -2.720347 -4.48432 -1.656178 0.861288 1.137515 1.281784
peace 2.189184 2.462324 0.442426 4.079521 1.69976 3.201088 5.12622 -5.123066 -6.717666 -1.243311 -1.588466 0.98507 5.690703 0.973827 -5.080988 -1.500998 6.775963 7.172047 -4.61829 -4.97723 -1.309572 7.798063 -7.720078 -4.908187 -5.829975 3.76048 -3.083683 4.00417 3.62247 -1.3983 -0.041139 -6.351754 -1.029676 -2.406168 -2.394001 -0.43492 -3.90624 0.570098 -1.679513 8.95673 -1.457875 -3.992357 9.006507 2.251473 -2.13454 -0.828934 -0.303378 7.139133 -0.9654 4.376021 7.289838 -1.328873 2.286246 2.851453 -2.68997 -1.005253 -2.333984 2.817408 6.369365 4.507556 -5.626499 -4.831721 2.891404 6.450161 0.898189 -1.231391 3.90233 7.094484 3.647316 -2.785092 -1.115163 5.433865 1.230094 2.393543 -5.326694 2.554925 -8.465137 3.421227 -1.563978 0.023554 1.359351 2.664683 -6.348293 -0.812054 2.690802 1.054172 -3.327194 -2.020188 5.070382 7.395002 -3.793684 2.915366 -0.328248 -3.409288 -1.360821 -0.145254 0.390628 4.16692 1.585657 -3.71447
science 2.807092 2.849153 -0.819393 -2.017191 -1.121922 -0.751807 -1.912287 -1.564152 4.921927 -0.94624 -1.439121 0.382383 -3.874679 3.302672 -3.599917 -1.628715 -1.527991 -2.142964 2.923917 0.831547 3.871361 4.548505 -0.053638 1.24914 -2.923176 -1.723715 0.826617 3.759129 1.67266 -5.596164 1.868178 9.72985 -1.621683 1.922135 -2.372584 -1.787104 -0.585464 -0.228867 2.537472 3.404157 0.040042 1.332451 -0.141029 -1.860879 -1.743667 -0.342 -2.663219 8.526752 -0.666608 -1.48135 -3.262392 -5.848449 -1.689494 -1.164995 -0.074806 -4.877551 3.756623 -2.741577 0.283405 -4.484145 -0.708721 0.875826 -4.977496 6.847645 4.534066 0.179828 2.135388 -1.085031 5.05233 -1.048761 2.510466 0.434369 2.311765 0.841949 -2.045084 1.422555 -1.928012 -0.721059 -3.051244 3.286695 0.19457 0.60195 -1.547955 -1.725498 -1.977308 5.568727 -2.313271 -2.500896 -3.106707 1.531073 -0.303272 -3.050419 6.828632 -1.442662 -1.896468 2.24279 1.896287 3.033013 -2.674397 -4.384692
dawn -3.900884 0.767936 -1.621544 -2.446045 1.697617 -6.63168 7.066736 3.246888 -1.528492 0.073931 0.775395 1.376478 -2.397234 2.841051 -3.941199 -2.552429 4.678906 0.395236 -3.067187 1.00673 0.649305 -1.76748 -1.455393 -0.803374 -2.102754 0.254589 -3.771106 -0.873238 -0.418091 -0.087406 5.752522 -1.554006 -6.52393 -1.713196 -1.58707 3.673434 -1.185477 -3.084042 2.719415 0.833875 2.981569 -1.338052 -0.338113 -0.360718 -3.421808 -6.887251 1.692164 2.005821 -5.055358 2.161467 2.041819 -0.826578 2.948965 -0.360042 -3.022328 2.132583 1.399918 -4.721103 -4.801662 -0.878395 0.190528 0.172571 -3.175782 -2.300002 1.765828 -1.794247 -1.649919 3.065065 2.474351 -1.307522 -2.777751 -2.685543 -0.380356 -1.100921 -1.491483 0.40901 0.497951 -2.66784 3.502058 -1.009637 -0.95067 7.292216 -6.331773 0.758213 -1.482548 -0.114699 1.076829 0.399276 4.262607 2.338194 -4.233801 5.211848 -5.649497 -2.784155 -2.168174 -1.738487 -3.862264 -2.724909 -0.246098 0.405201
brother 3.111856 3.374283 2.22871 4.911715 1.918968 -0.505373 1.46793 2.147896 1.440757 5.219903 -0.278506 -0.293979 -1.929148 -0.937296 0.03551 2.528135 -7.74661 3.300179 -9.672047 0.203804 -1.249968 9.289137 10.141069 -0.168356 6.037141 3.941786 3.535368 1.753317 -0.947112 -0.851219 6.819475 2.000679 -2.718289 -0.656769 6.525291 0.458495 4.14665 0.287527 4.436816 -0.29304 -2.649666 1.881311 2.585608 -1.084029 2.300102 -2.837033 0.968411 -2.787456 3.030627 2.422456 -1.397745 2.991442 2.742026 -0.311128 3.031336 -2.171663 -2.864355 -1.953474 -2.295947 3.02132 -2.156039 5.857201 1.04463 -2.487594 1.263309 -6.211704 -5.449019 -2.929491 -2.784541 1.805553 -1.387708 -0.71852 -0.387862 -2.385317 -1.356448 -2.339175 -2.699155 4.509187 -2.976676 -5.963066 -1.444155 4.533466 -1.127843 -5.715621 2.174148 4.371887 2.008518 1.724072 8.39963 -2.708773 -7.778093 -1.798291 -5.009531 -0.789482 -6.079193 3.125695 1.472719 7.959897 3.331621 2.819752
wine -2.169811 0.326744 -0.2806 1.096844 -0.350532 -5.127755 2.536109 5.207744 1.277846 2.318756 -2.801053 -10.025154 0.16632 5.388774 -1.068675 -1.616218 8.259286 -1.808008 -3.108443 -0.866248 -7.706213 -3.084742 -4.844422 1.465858 5.45808 3.040092 3.070272 3.395247 -2.57775 1.628345 2.379031 3.64069 0.51607 0.412686 -3.855954 0.990239 8.395904 2.844334 -3.446771 -2.171811 2.416025 -1.757413 0.657242 1.767231 -1.972222 3.145829 1.387041 -0.092122 -2.216726 3.208708 -4.417655 -0.102294 -0.785382 1.335748 1.864952 -3.250709 -2.749092 -2.230007 -0.617071 -1.229418 -0.541668 -1.934299 -4.31634 4.072501 3.790203 0.945756 -2.237998 -2.342124 -0.499165 -7.949456 2.497248 -2.981981 0.952782 2.003979 -1.484171 -1.046701 0.522423 0.960528 5.978441 1.417037 -4.834511 -6.68996 2.520689 -2.338229 0.454747 -0.474132 -1.798883 -1.330792 3.364475 -0.866007 0.363561 0.362123 2.350653 1.120311 0.090045 -1.310934 -1.788608 1.342223 4.63621 5.347772
object 0.936973 6.148414 0.033297 -0.57536 -0.219719 0.025674 -2.476871 1.300362 2.631297 4.124672 -3.439153 -1.853301 -1.552062 -1.654368 -5.566782 1.676649 1.798594 -1.983711 1.895299 3.806548 0.982506 -1.301084 0.091436 -2.580463 -0.050212 -1.750055 0.902435 1.970544 -0.559313 -1.142865 2.084085 1.507041 -3.082829 -1.9987 -3.809253 -0.407414 0.221425 -1.593691 -2.045794 2.231077 -3.407516 -0.214849 3.44136 -1.956181 0.306621 1.874294 -4.944243 4.914797 4.800695 -0.017817 2.720599 -3.860896 -0.308138 -3.122416 0.541878 2.992918 0.124247 -2.990687 -0.850051 1.931975 -0.080736 -1.784146 -2.922071 -1.013911 4.759219 -0.319764 -2.628823 2.77404 -1.594212 -1.555023 1.276536 0.438703 1.880138 -0.906666 2.611182 -0.458113 3.552165 -3.672473 -1.378346 1.042446 -0.063975 -1.268701 0.445507 -2.082542 -5.076489 1.215845 -0.825679 -1.782712 3.111263 0.321694 0.498043 -1.131282 -5.20648 -1.915971 -2.410377 -1.792916 -0.866076 2.012429 0.993487 -0.607417
attitude -3.435291 -1.270074 0.618899 -3.362075 -6.168861 -0.450174 -2.9386 0.432925 1.134132 1.778609 -7.38601 2.342725 2.041686 1.524533 -4.069932 4.547603 -2.077657 4.80624 1.850571 2.991814 -1.136447 2.055308 -3.821607 -4.156548 -1.650861 0.861446 1.876328 8.445919 0.847265 -6.082163 0.844975 0.725892 -3.423224 -0.122717 -3.738549 1.424884 -3.07414 1.427505 1.108779 -0.353875 0.379554 3.984557 2.448497 -1.482516 0.145056 4.701448 0.671267 3.348099 1.538589 -5.928375 0.160832 -3.495826 2.762268 -0.432278 -3.114506 2.627407 -1.661384 -1.535043 1.032097 -0.342897 -0.146785 2.676815 -2.127481 2.747962 0.11565 -1.808914 -3.828076 4.630623 -3.128396 -0.403754 0.786187 -1.711934 2.093918 3.698668 -1.321087 -1.898248 -3.320602 -1.403348 -3.160319 -0.362876 -7.7599 -0.678004 -1.739067 -6.551081 -1.696188 1.0547 -3.357476 0.038781 3.852644 -3.390212 -2.853042 -2.205814 -2.208338 -5.226944 -4.544002 -1.453315 1.620028 3.553412 3.95188 3.024843
treatment 0.500648 -7.151783 0.231521 2.631881 -4.092563 -1.287575 0.298928 -1.324075 1.569969 0.223742 -5.93079 -4.497651 -2.210246 -2.2211 4.870077 0.091267 2.837086 7.025163 -3.049527 3.601944 5.810097 0.29934 1.253111 1.68109 3.420033 0.412777 -4.04864 2.715562 -2.290827 -5.387037 -3.432745 2.143163 2.739855 2.777272 0.329905 5.983628 2.447644 2.024347 2.105628 -1.777689 0.552568 -2.405378 0.526228 0.952727 -0.501528 -5.893073 -3.248193 7.858288 3.606104 -0.886636 1.223788 -5.644948 -4.745393 2.589391 2.86209 4.789996 1.81732 0.8349 -2.390768 0.838262 -0.394919 -0.202759 0.134825 2.04996 0.558319 0.828022 -7.402986 3.985377 1.896336 -0.971684 -3.832632 -2.192325 6.843297 0.554103 -6.883975 -5.057765 -7.500168 2.492059 -1.461859 -0.287562 -0.069866 4.075529 4.027419 -6.240148 -1.404731 -2.497661 -0.947124 7.136968 -1.121546 5.043736 0.461042 -1.077014 4.618045 3.350807 2.341055 -1.561729 2.543579 7.705321 1.979188 -0.682329
flight -0.111402 -5.274008 -2.890505 -1.521535 -4.394466 -2.092513 2.206207 -2.77114 1.705349 -4.951782 -0.717136 -0.998277 1.973912 1.208227 -3.379719 0.889362 3.571857 1.343716 -7.003009 4.864746 3.448491 8.055295 1.585791 2.613439 -2.673582 2.611829 0.005659 0.703652 -8.544327 5.162579 4.946876 -1.772033 -1.6827 -2.887522 -2.465366 5.605303 5.42354 -2.918727 4.489342 -1.688756 -2.361401 0.594797 0.55767 -1.425566 -1.431962 -1.504213 -5.650796 4.158225 0.11703 -1.659666 0.61968 -1.387617 -2.799434 3.256574 2.207197 8.718156 2.005857 -0.244958 -6.782896 1.257951 -0.168819 -3.035915 -4.036317 -8.075659 3.403429 -2.55678 -5.821096 3.847814 1.835421 2.699285 -2.029661 0.663227 -2.185013 -1.828631 4.828783 -3.492816 5.802296 -0.312909 3.020834 -3.866051 -3.778518 -0.367914 2.679775 -5.074525 1.315475 3.322123 -4.092177 -5.821029 -6.069889 2.057434 0.679512 -0.681416 -2.594925 2.148443 0.17302 -7.483036 -2.005932 1.584835 -5.747689 3.505669
forest 1.15351 2.885672 3.466181 0.782576 0.012043 1.08202 4.810954 9.068293 4.118282 0.260342 0.119459 -1.903059 1.155246 -1.466187 -4.499869 0.998489 1.012337 3.258459 -2.037715 -1.703053 0.301752 -2.686968 -4.523824 -1.228247 -2.875505 -0.416851 -6.715452 8.946427 3.153906 4.698309 2.738077 -1.216975 -2.601023 -3.406727 -2.94447 2.762546 2.31969 2.852029 3.911551 2.60299 -0.985123 -0.669209 1.311522 -0.764603 -2.766244 2.522588 2.683782 -0.058867 2.081484 1.902091 -0.507874 -0.316088 -2.50628 0.690184 -0.48073 -4.275802 0.064446 -3.965003 -0.414217 0.258413 -0.257083 0.95138 -4.371643 -0.24909 5.913611 0.023027 1.835016 -1.270172 2.578425 0.910717 1.350568 0.455148 2.46833 -2.247156 -0.215875 -0.401486 4.536476 -3.112927 7.331173 2.884153 1.97853 2.346673 -0.060257 -1.854215 2.765883 -4.740524 -2.248249 0.726436 2.576525 6.024258 -1.14339 0.939958 -1.017003 -3.394383 2.048102 3.404424 2.190069 0.525707 -0.389378 2.194345
abuse 2.862019 1.741349 6.583886 1.520694 -2.900056 -1.814289 -1.471255 -5.808698 0.449589 -3.535598 -5.800797 3.678767 -2.027351 -1.791586 3.886251 -4.853033 1.259091 7.069346 2.593312 -1.148484 0.214488 -4.253898 3.788145 -2.284911 5.370273 -2.509129 -2.055909 5.337151 -3.12468 -4.345499 -3.823019 -4.451801 -1.592105 -4.162274 -5.134219 8.010533 -0.791841 5.113882 -2.268429 -0.971142 -0.846087 -3.18267 1.731632 0.15085 0.16822 -5.24207 4.682526 1.272439 4.26617 -1.316677 5.456526 -11.921974 0.124355 -5.256814 -4.222456 -3.235141 4.556851 -2.493756 -0.26147 1.488748 2.802278 4.257981 -1.739583 -0.370488 2.412403 -1.232583 0.271043 -5.948814 4.678347 0.664108 -1.774537 -5.259853 4.285356 -7.124344 1.756583 -2.377092 -5.919265 -1.158118 -6.849652 -2.979716 -1.282702 -0.268754 1.349498 -0.761845 -1.846159 1.46396 -0.324197 6.57271 2.011094 -2.072282 -2.005972 3.534547 1.661299 5.650055 -0.572247 -1.036654 0.80072 3.76657 4.43314 -6.641721
criterion 1.314456 -0.774665 1.107751 -0.44809 -2.097858 2.995196 -1.767684 -1.739444 -0.154604 3.474456 -0.644244 -3.121471 -0.288828 0.118618 -0.658333 -2.239832 -0.599805 -0.644949 0.081043 1.696902 0.551935 0.888254 -1.168927 -2.042468 -1.620534 -0.100679 0.966493 0.823484 0.118132 -1.841711 0.009073 1.366414 1.755507 3.174039 0.580188 -1.951503 0.613534 1.432318 -0.63409 1.462943 0.529868 -0.868469 -1.117207 -1.266362 -0.825154 1.093609 -1.418095 2.042042 0.23437 0.06721 0.734342 0.987632 -1.852754 -2.305972 -0.022736 2.556624 0.439499 1.860488 -2.12284 0.784535 -2.078425 -1.831227 -1.496753 0.707742 0.917411 0.048086 -2.525253 0.209833 0.458854 0.091832 0.068761 -1.40331 -0.304822 2.229234 0.263965 -1.524214 -0.58109 0.123972 -1.592997 1.295665 -0.28648 -2.403344 0.791184 -1.716647 0.517246 0.093301 -0.365093 -0.501252 -0.505814 -0.723225 -1.990626 -0.670153 0.837125 -0.28988 0.372004 1.195927 0.840544 -0.916357 -0.36948 -1.984259
sea 0.615725 0.119937 0.2282 -1.050836 0.774859 -4.248568 -3.554285 7.995918 0.931965 -1.450867 0.96343 -1.790967 1.528883 2.110547 -5.655915 0.073809 4.000605 3.563165 -5.409544 -2.389098 1.056231 -5.868173 -3.987562 5.18271 -2.492001 -0.053514 -8.210919 6.880931 -1.248099 5.609658 9.554429 -0.196659 -2.72951 -1.592084 -4.523252 2.64728 -0.466038 4.244972 2.321611 3.178141 0.226846 -0.056844 1.723632 0.544188 -1.693951 1.453342 0.676786 2.514715 1.702651 2.601297 -1.682857 -2.75385 -0.570315 -0.710252 0.464109 -2.540359 2.401404 -5.513262 -2.710772 1.799542 -0.750967 -1.969205 -1.341434 -3.909026 8.708125 -4.014234 0.429235 3.386931 0.709339 -0.062344 3.051203 -1.051808 2.438886 0.763307 0.438573 -1.795825 8.241261 -1.682223 3.588287 4.679708 1.248061 2.507375 -1.309513 -1.88205 -1.052338 -1.98845 -3.29873 -0.12106 -3.232108 4.916272 -1.953644 1.202705 -0.427144 -3.423936 1.523398 -1.798037 5.097949 -1.278571 0.648775 1.865809
dollar -0.596356 -1.288859 1.259286 5.052375 -3.825808 -2.543627 -4.642643 -0.030744 -6.456661 -0.910122 -3.703491 3.275373 -1.423832 -5.201757 -2.797751 -8.173735 6.822635 8.073936 -10.631433 -1.515991 0.350643 -0.058164 -3.265073 8.89368 -5.623457 2.044099 -0.329699 5.237891 1.217513 1.52842 5.215679 -3.601757 8.290758 0.803849 -2.244302 -5.89901 -0.979744 1.596462 -1.743357 -0.605849 -0.291662 6.089951 0.759404 9.886189 8.927025 -1.793447 2.717976 -2.614564 -3.174159 -4.251646 -0.119685 5.143692 -3.568645 -4.176479 5.14211 2.24782 2.405303 -3.802431 -0.80951 1.936754 -1.163037 0.885868 -6.229091 10.619489 -2.94246 3.499516 -8.886631 1.214261 2.788101 -3.24506 -0.274704 -2.282722 3.774559 -2.664902 -0.498008 1.519547 7.820881 -7.674858 -4.528895 6.108114 -6.014148 -3.841869 0.518729 2.278613 -6.776983 -3.467072 0.657721 -5.266053 1.464438 4.588602 3.269245 -4.096993 -2.473982 -4.859653 4.827397 -4.90361 -5.4791 -0.043137 4.398211 5.943788
example 7.414936 1.047908 -2.395482 -2.026216 -3.547791 3.191882 -0.913392 1.115924 -0.680391 2.746804 -4.373064 -2.571286 -0.669502 -0.263822 -3.989958 0.457809 3.160682 0.475232 -3.731101 0.22909 -1.264287 0.777579 0.928807 0.375218 1.349155 -4.150719 0.106844 2.2015 1.593904 -6.213336 -4.775826 6.347547 -3.893221 2.942194 1.099752 -1.841409 -0.950489 0.725469 -4.075504 -1.64041 1.377508 1.996369 4.409634 -2.29663 1.073717 0.674556 -2.131058 4.077299 2.151103 0.509221 0.73289 -4.665418 0.114007 -3.490877 4.131072 3.339714 6.516336 -0.602168 -2.607312 -3.560702 -1.312617 -4.072623 -10.068502 3.715555 -1.879855 -0.954117 -4.176146 2.472441 -2.376935 0.082232 -3.793559 -5.327609 2.050071 -0.181269 -5.9603 -1.63116 -0.678051 1.065539 5.290909 3.102602 -2.532791 -5.458282 -3.570591 -3.010131 3.292709 -3.565908 1.035882 -0.548466 4.236037 0.804059 0.853708 -1.222742 -0.058873 2.431576 -4.649383 2.614168 -0.933309 1.800198 -2.630364 3.545444
journal -1.648428 10.270326 -1.298071 -3.174356 -3.234702 -1.318682 -0.846 4.340734 -0.473606 1.02112 1.469097 3.382095 5.727705 -4.287892 4.415899 1.820246 -4.605814 -0.932024 4.62102 4.921697 -3.099523 1.668215 1.847248 0.414203 -0.867269 -0.125224 -6.424817 -2.408914 -6.068245 -3.66228 -3.067112 8.134995 2.203625 1.129408 -0.273642 3.581527 0.85712 -2.742296 -2.0984 0.832192 1.275682 0.619004 -3.582929 -1.122687 8.223654 -4.417218 -2.787194 5.920308 -0.771551 3.213404 -4.735738 2.417186 6.512043 5.266455 4.283999 -3.256721 3.207765 0.381208 0.978567 -5.885189 -2.086819 7.050667 -6.267707 3.504956 9.482813 -3.326992 -1.145901 -2.330946 6.735264 -4.096495 -8.758666 -0.518999 0.009258 -5.032469 -5.589595 2.013216 0.954266 -5.072511 -9.936264 3.120314 0.63658 1.999253 3.137464 -4.095013 -1.59054 2.011405 -6.791673 -4.137228 -6.275838 2.041024 6.87049 -8.902229 3.396774 -0.638119 0.498401 3.359977 -0.423933 2.176389 6.571054 -3.039791
laundering 3.507169 1.333273 3.936427 9.201682 -2.244938 2.225314 3.176301 -1.342077 1.308845 -5.519969 0.181945 3.949556 1.256788 -8.79215 -5.74828 -10.724819 -0.417915 1.250893 -0.809828 -4.009544 -4.168554 -1.540504 5.520273 0.596679 2.341257 -0.313743 -4.74669 2.805647 2.250601 1.30067 -1.785112 2.206915 3.135373 -5.773079 -7.804783 0.110569 5.738807 -9.139497 -2.337127 -2.598859 -1.830329 -5.442171 -0.810156 2.188982 7.439427 -7.821155 -2.324192 0.876728 4.436615 0.065681 0.098139 0.76576 -5.498774 -5.38633 -4.521845 -2.183339 -1.646842 1.181042 -2.260828 -1.473296 0.076695 6.732759 -1.397051 -0.486653 -0.616963 2.199115 2.611478 -3.718596 -0.241356 -2.973334 0.075705 0.37792 -0.3878 -4.471788 1.401279 -1.112349 -3.718799 -0.736632 2.329838 -11.313287 -3.972322 1.93149 -0.24068 7.532321 4.264257 -0.335791 1.504725 -1.629434 -3.520145 -5.886259 7.514738 2.629847 0.446204 6.972741 -3.301438 1.931715 -1.793544 1.914988 1.174055 -4.432117
hotel -0.834038 -2.006145 -1.583032 3.307083 2.019993 1.711304 4.484071 4.165823 2.180438 -1.675673 0.024581 -6.896475 -0.373871 0.12138 0.565975 1.924074 5.463912 -2.450605 -6.551988 7.53165 -0.377621 1.401922 -4.055989 2.46962 3.958753 -1.943025 0.633048 -3.219064 -6.454734 4.400405 3.452824 0.310332 -3.971792 -2.509621 -0.872115 4.500097 4.763485 1.139969 -0.572396 -0.841639 5.785937 -0.891817 5.450574 1.018212 0.245022 -1.178812 -1.25191 -0.625599 -1.600849 0.184672 -2.813739 -4.717389 -4.967614 6.0163 -3.057727 2.424303 -1.7045 -4.247205 -6.109325 -0.197148 -3.886554 0.459005 1.805778 -0.924926 -0.259139 0.583646 -1.377514 0.002783 -4.454626 -5.464181 1.175772 1.093315 -9.102015 3.33314 -0.083013 -2.801818 1.54803 -0.259675 6.63897 1.73327 0.649846 7.253771 2.70847 -1.571226 5.600369 1.99446 -2.335559 -0.840058 2.084827 -1.746137 -1.962998 -1.066337 -6.644102 -0.609793 1.315397 -5.124761 -2.156074 -1.039332 0.855395 6.06737
term -2.133673 -4.137032 -2.654677 5.366815 -2.39077 1.424225 -5.994546 1.844651 1.830005 5.692786 -2.611289 -2.391028 0.811192 2.997194 -7.276229 -1.376107 0.626883 11.390236 2.684964 0.828359 2.503715 -2.136427 -1.808674 -0.04757 -9.494668 3.10693 1.8659 6.685837 -1.029525 -2.603456 0.908676 -0.182886 11.117105 8.069966 -1.046238 -2.341532 1.980072 1.287054 -0.975442 -2.389118 0.911566 -5.114973 7.887754 -1.84085 -1.282576 -8.082901 -1.265031 2.845803 -2.208359 -4.893202 8.187345 3.02483 -2.998749 2.648904 6.142142 5.281598 0.222239 2.551261 -10.712738 0.837115 -1.452955 -0.173373 0.214509 -4.112854 -0.517588 -1.513359 -0.644608 -3.742079 -1.251498 -3.1164 -7.375363 8.443187 -0.557224 9.619228 -1.723646 -1.647913 0.748879 -1.447541 -3.961867 -4.868532 -7.084704 -1.004888 -5.410701 -1.946695 1.768633 2.823068 2.791161 3.195137 5.246562 3.633953 0.022812 -1.527596 4.947051 -5.173819 -2.32632 5.530179 2.208243 2.294655 -0.247209 5.031136
listing 3.814905 2.353766 -0.333978 2.318893 1.023342 2.372658 0.234167 -4.481259 1.718697 -0.676797 -0.432355 -4.039401 -0.158996 -3.91048 -1.39458 1.758686 5.428916 2.744601 -1.406146 5.295144 0.232867 1.282071 0.898907 -0.321342 -0.705061 3.703142 -0.177829 1.097612 -3.593474 0.36328 -3.439679 1.568387 3.273877 1.687791 -0.999646 1.967984 0.781125 -1.911886 -2.013964 -4.585161 1.637108 -0.001861 0.180378 -0.040423 -0.530282 -0.554379 -4.340726 2.559303 -0.811239 -1.163083 0.258875 -0.224474 2.332716 0.375432 3.687639 -0.141415 0.139566 2.363543 -4.491244 -1.070764 -0.974789 -1.856152 -1.975232 2.07093 -1.023194 2.969317 -0.836113 -0.934076 2.9399 -0.364953 -0.380398 -2.360585 -5.894019 -1.147682 0.413237 -0.172261 4.186877 0.752105 1.478883 2.474097 -3.731263 0.14932 -0.455111 0.053565 3.04036 -1.782588 0.937716 -1.345354 0.814259 1.030746 1.920109 1.351911 2.406317 0.46064 1.013718 -1.496664 0.829506 -6.021691 -1.411655 -0.246024
chemistry -1.46189 1.270131 0.975875 -1.032945 -0.204303 -1.896919 1.594265 0.173566 1.415032 0.772485 -1.802639 0.746946 -1.205116 -0.14787 -2.471031 0.576518 -0.095722 -1.717599 -0.099567 2.116802 0.026279 2.576665 2.807019 1.256351 0.975928 -0.143224 -1.900215 2.189191 0.023643 -5.518754 2.290765 6.875805 1.78005 0.754464 -2.548627 -0.558328 3.261801 0.929573 3.218246 1.710987 0.721941 2.244563 -0.320265 -1.506237 -2.75004 1.825336 -1.376115 3.293901 0.852746 0.798978 -4.066062 -1.760122 -2.468805 -0.526392 1.931714 -2.045256 1.093331 -2.32986 1.097527 -2.936052 -0.747536 -2.111885 -0.13385 0.96566 1.341117 -0.322815 -0.181387 -1.446104 5.385984 -2.693247 3.064998 0.437078 1.334224 1.607179 -2.151889 -0.622077 -4.460052 -0.839752 -1.374735 1.165334 0.295704 -1.942734 -0.22338 -7.767086 -3.787614 5.350789 -2.952392 -1.335974 0.10914 0.072258 -1.524042 -2.788721 5.491333 -1.578006 -3.218745 1.356881 3.499616 3.274351 -0.872348 -1.795615
seafood -0.135199 -0.447434 -0.198149 -1.164805 -2.48475 -3.565974 2.840053 1.983145 0.954629 0.911476 -0.002351 -4.710177 0.004446 2.351365 -1.657064 -2.932158 2.392811 0.648513 -4.063288 -0.273264 -3.503485 -3.247727 -4.202194 0.990407 2.783456 2.593576 -1.058694 4.191369 -1.197799 2.443564 2.216926 6.096753 -0.288955 1.650023 -3.708176 2.520971 3.726354 3.349608 3.342194 -1.675361 2.169567 -1.663583 0.535394 0.239078 1.921704 4.052595 1.164973 0.942897 -2.150848 3.543013 -4.508198 -1.747872 -1.43835 0.308075 1.027877 -2.580064 -1.511173 -0.785261 -1.207162 -1.068035 0.568366 -2.371054 -4.565104 5.54984 2.10378 3.707328 -0.976373 2.352057 -0.600911 -3.642869 0.520695 -0.680659 -0.709799 1.250499 -1.957809 -1.074248 2.500421 -1.060511 4.69679 0.428643 -1.649781 -4.115246 -0.10813 -4.206576 0.686258 0.874701 -1.668258 0.493868 1.315775 0.206918 1.671187 -0.644651 2.133569 -1.23123 3.936568 -1.329249 -3.991431 -0.771477 0.180844 3.747353
CD -0.598453 2.150499 -1.67687 2.549369 1.553807 -2.498075 -1.725384 3.296767 -3.431566 6.465735 -1.966217 -4.193276 -0.807174 -0.455028 2.082708 -0.848561 -0.489624 -2.811766 -5.580217 5.050203 -1.591743 1.160688 8.489074 1.68016 -5.22766 4.220024 -0.178684 -1.644879 -1.241968 -2.580902 0.739424 -3.345092 -0.379385 0.3327 -2.207366 1.523062 5.403275 0.561938 -0.624036 -3.617712 -4.588105 -0.147659 3.793541 -0.20497 -3.448457 2.168927 2.084088 0.668346 0.418451 -0.576955 -4.495893 -0.024705 -0.517515 -1.798005 2.225452 1.827803 -3.803055 -1.975311 -2.898337 -2.079601 -1.00991 0.134551 -1.376575 2.685423 0.598792 0.569347 1.298341 -0.457177 4.447195 -1.59695 1.927925 -0.959167 -1.476163 -0.527793 -6.082807 -4.379278 1.267881 -2.131212 -1.460868 5.999998 -9.762777 -1.602764 1.763056 4.461305 0.884358 -1.274728 1.465748 -1.644287 5.75181 -2.207321 1.041186 -3.503591 1.3492 1.729479 -1.334217 1.34965 -3.626848 -1.733656 -0.643861 1.880064
mind 1.45683 4.288213 0.280805 1.690507 -6.944569 1.004058 -1.810397 2.820971 0.861631 6.498961 -3.172735 0.019715 3.755269 -2.743368 -3.165945 1.495165 -1.88344 1.601758 -1.755712 1.7719 -2.781172 -0.090092 1.404516 -1.194808 0.411144 2.878855 4.145344 3.229615 2.060664 -7.75636 3.413209 -0.458255 0.00945 -1.611658 -3.194342 3.579413 3.009687 -0.451809 3.440952 1.623127 -1.257119 3.324289 4.500595 -4.563304 -4.604856 1.901135 0.528907 2.285003 -1.36501 -0.909176 0.263818 0.288894 -0.520025 3.289616 0.730618 -1.779128 -1.637203 -0.380406 -3.029201 0.075637 1.875071 0.37857 -0.063975 1.713609 4.01317 -2.25794 -1.471162 9.570437 -0.127615 -0.068571 1.042471 -0.64821 -2.891622 2.672354 0.157188 0.649952 -1.992478 -0.719519 -3.110311 3.700737 -4.811053 -0.330382 -2.580899 -4.459784 -1.287269 2.986931 -2.689373 -1.053295 1.641727 0.078526 -0.011983 -4.934287 -2.430784 -7.262259 -6.856746 -2.039261 4.2616 3.080542 4.457849 3.273121
sex 3.84487 -3.285728 4.855131 2.023032 1.133241 1.157924 -4.510016 -1.708236 1.43785 5.70959 -5.884513 1.514958 3.278752 2.991306 -2.727777 1.442534 3.232949 1.982804 -2.096884 -0.718064 -1.616008 -2.174992 0.378986 6.904047 6.183412 -4.107586 0.823455 2.626331 -5.919161 -6.699622 -6.584752 -0.447635 2.961344 -4.941814 -5.769559 9.691835 4.763391 2.369801 3.594127 -4.309759 -0.338777 -2.498348 3.75923 2.196732 0.828763 -2.000422 4.1934 3.916445 -1.794908 0.171109 1.304081 -7.299731 0.512566 -1.632732 1.637876 -0.407464 -3.70278 -4.693933 -2.207612 0.644673 -3.444549 1.481931 -4.453888 -4.770731 0.71756 2.456575 0.452009 0.653166 3.560904 -1.893205 1.883687 -4.638438 4.634274 -2.4001 -0.986457 0.271019 -7.276799 2.877874 -3.773939 -1.487779 -5.323654 0.266484 -0.432216 -2.224543 1.134974 2.075231 -6.159817 1.598034 3.637328 -6.110904 -3.826632 -1.732819 -1.221983 1.92855 0.410048 -2.3238 1.589181 2.381866 5.329848 -9.367043
food 2.541058 -5.434737 0.165853 1.381526 -5.503324 -3.289706 3.371972 1.436301 -2.25831 0.266633 -6.443495 -5.87306 1.643928 0.718789 -0.087083 -0.851926 1.057811 2.247893 -3.938956 -0.969034 0.209359 -4.096675 -3.619607 3.398288 2.997869 2.369931 -2.214714 6.073933 -1.656743 -0.372217 0.551786 2.843566 -0.491579 6.234388 -3.535245 3.16958 3.87433 3.50071 6.972215 2.770815 1.289964 -1.731139 -2.261233 -0.37103 2.410651 2.778868 1.979228 1.647176 -1.235779 7.871125 -5.956673 -4.498345 -4.008181 3.03935 -0.592818 -0.172178 -1.252694 -5.346529 -0.195186 -3.823163 1.061047 -5.587112 -1.200433 11.688762 4.238067 4.701066 0.213169 -3.550779 -3.520371 -3.454923 1.402578 -2.478158 5.595738 -0.186194 0.714565 -3.701197 4.698734 0.851623 5.016833 1.92783 -0.518968 -3.337431 -1.385056 0.58703 1.548906 0.453563 -2.971211 2.7322 0.543459 3.33857 -1.508811 0.059549 5.346898 1.618273 3.678703 -2.995596 -6.154418 2.547569 5.002719 2.110907
precedent 1.732612 6.463006 0.370345 1.660852 -1.545263 -2.478773 -1.801485 -5.510624 4.653988 3.33903 -1.711971 2.484801 -7.04177 0.22047 -6.001744 -2.883763 -3.35866 0.716274 -3.67841 1.817778 -2.330919 2.970294 -1.118029 -2.788474 -2.61809 2.063078 -3.78077 1.497675 3.887437 -0.410998 1.301767 -6.426071 6.439005 -0.164647 -0.267537 2.811646 -1.770163 5.436557 -4.931019 1.140344 2.112013 -0.300443 0.753608 -3.253654 0.295314 1.905734 -4.333768 4.19436 -1.614186 1.373946 6.076048 -4.490963 1.881475 -0.515393 -0.609635 5.072111 4.363154 4.474434 -1.715176 -3.00883 -2.533574 -1.038256 -6.102101 4.840523 2.235932 3.574829 -2.804899 5.173627 0.441544 -2.821822 0.627182 -0.218243 4.182746 6.102943 -1.354914 1.881139 -2.22596 0.985979 2.554086 1.745345 -0.856774 -3.844538 0.438773 -6.436164 1.632445 -3.579851 -0.746267 -0.293584 4.203238 -0.591747 2.659067 -2.824629 -3.617883 -0.99139 0.215438 1.661008 0.302593 0.625961 0.707157 -5.535129
series 4.727649 7.651396 5.217707 -2.809976 4.481062 0.860685 -1.83106 3.113966 -3.608711 -3.237241 3.772293 7.73363 4.217312 3.408652 -5.491758 2.69539 3.180829 -3.221383 -1.814886 4.87961 0.388229 2.474996 1.370769 2.31955 -3.932704 1.544014 -4.54409 0.411947 -3.885479 -3.956889 -0.036822 0.436625 -2.461045 -2.865059 -0.054744 4.339811 -4.300559 1.559965 0.577128 -3.045911 -3.596663 -3.041654 -0.820214 -4.450336 0.955815 -4.312682 1.423046 4.637796 -4.077149 -0.032983 -1.352044 1.243503 -4.759103 4.663309 -2.715793 0.172763 6.488703 -2.121669 -4.039603 -2.661567 -1.531082 4.189018 4.036035 -2.12866 -4.896994 -1.897389 0.468139 -0.741373 3.319091 3.712834 -8.037126 4.541725 0.219442 4.296961 -4.8395 -2.754739 -5.697902 -3.502429 1.308233 0.61765 -9.819261 -5.309738 1.673066 2.651676 -1.163358 -2.701782 2.40082 0.62335 3.100849 1.059129 0.224843 -5.210389 1.299749 2.806301 3.471994 -0.754178 0.177902 -2.217842 -4.27502 0.620363
kilometer -3.073256 -0.50917 2.335906 0.927179 -0.941789 -2.025485 4.57124 3.218248 -0.006697 -1.474148 0.456488 -4.359073 2.451632 3.438824 -2.440534 1.197899 2.688961 3.231013 1.23214 -0.21522 2.27532 -0.085638 -2.559051 5.937503 -3.732194 -4.120338 -2.223666 3.110193 3.355437 3.916097 4.05441 2.650968 -1.257467 -0.771586 1.754706 -1.590772 0.023328 -0.436626 -1.046415 -2.571625 -1.981328 -1.415779 -2.228808 -1.555257 -5.431715 -0.289838 0.392974 -2.12656 -0.929243 -1.975013 0.378009 0.834307 -2.294572 -3.225949 2.377605 2.99569 1.140655 -0.423211 -4.26923 -1.952054 -1.220268 0.295692 -1.931299 -6.058114 1.434206 -2.664868 0.879038 0.905933 -2.167195 4.702744 1.645594 -1.239613 -2.574067 0.003813 -2.236069 -0.245858 2.719194 -0.849653 0.385528 2.303538 1.674701 1.736629 1.9156 -0.814911 -0.674365 -1.036366 -5.115396 0.89306 1.765577 -0.066521 0.615128 2.84798 -2.950732 -0.018381 4.514651 0.48893 0.133663 2.655685 -1.82597 -0.29057
grocery -0.379731 -2.189219 -0.220413 2.774552 -1.265472 0.879162 6.382096 -1.674076 -0.282446 5.031223 -2.467179 -2.916342 -1.685299 1.105445 2.621169 0.243274 0.394619 -1.587403 -2.415666 4.977496 -1.783227 -4.448884 -0.384054 1.576417 0.716474 -0.093314 1.860984 -2.898594 -3.136727 2.130095 0.975616 5.969233 -2.778195 -0.092974 0.489413 0.557251 3.579649 4.301044 0.199245 -3.690274 -1.266523 -1.70157 -0.189901 0.357057 2.539748 1.871439 3.829729 -2.743311 -0.96674 3.268008 -3.980314 -3.493028 0.029419 0.980053 -0.488511 0.5761 -3.629548 -2.87475 -2.030179 -2.798258 1.588239 -1.783684 -2.089452 4.243148 -1.819126 6.558806 2.756719 -4.153038 -1.456601 -2.439404 0.847634 -1.6861 -0.371006 -5.014481 -0.620554 -1.623362 3.557293 0.120895 3.225668 1.321798 -0.560533 -0.495052 -7.657435 0.335072 -0.630402 0.860994 0.23663 0.939701 1.122071 -0.562433 -1.150492 0.052262 -1.192474 2.626103 1.560652 -2.810051 -5.76807 -0.198614 3.674617 5.127839
wizard 3.165963 1.371917 2.328589 -1.644383 3.772477 -0.03026 -1.652098 1.825403 1.307828 3.07354 1.10415 -0.461064 -3.021796 1.865433 -1.58989 -3.863892 -0.349782 -3.710948 -0.346232 -1.899576 0.602087 0.610539 4.702629 1.982049 3.713954 -0.634397 1.456597 2.508122 0.112211 -2.427662 1.028022 -0.455062 -2.82896 0.054384 -0.288935 -0.600693 1.907529 -0.219122 0.382823 -1.777061 -1.964189 3.181645 2.620387 -1.533601 -0.539005 -2.741468 3.311538 0.802416 1.697938 -2.017932 1.316847 -0.073349 1.482652 -1.036027 1.099464 -2.361257 -1.443397 -1.49831 2.560941 0.146334 0.832289 1.144915 1.477491 -1.220192 2.144301 -2.188183 1.875911 1.855665 1.155087 -0.554332 -0.996545 1.513797 0.418789 3.014601 -2.832358 -0.213581 -0.40337 -2.024975 -1.582589 1.749432 -2.156536 -1.156191 -0.321975 -2.18396 -0.96974 1.360039 1.666919 0.298461 5.205492 -3.345474 -1.181655 -3.232278 0.968942 0.12215 -2.350299 0.206613 -2.694351 0.047892 -1.958562 -0.528541
information 7.512743 1.674487 5.263918 -1.288629 -5.605525 2.649412 -7.6574 -5.195693 0.812846 0.479882 -1.978393 -5.958262 0.747764 -3.94567 5.862266 0.293095 2.288792 2.095573 -0.586195 8.704114 -1.031416 7.141819 3.420785 5.586247 -6.405378 -0.079567 7.506915 4.631149 -2.120945 -6.039035 -7.445591 1.918495 2.400462 0.753301 -5.092248 4.629047 -1.576947 1.699491 6.865756 0.375695 4.664086 -6.846988 3.965521 0.365185 -7.0362 -0.480501 -0.143616 5.671332 4.274178 2.629668 -4.184708 -4.714122 4.995214 -3.8319 -2.008337 4.383847 0.554016 1.359231 -1.965258 0.33465 7.237351 -3.935559 -2.259837 4.644627 2.38498 9.375387 -7.793762 -0.051755 5.780917 -0.205451 10.511493 -2.805494 -1.586939 -0.917327 -9.949307 -7.227959 6.121048 -4.56314 5.488798 7.111906 3.566875 1.757384 -0.169317 -2.469749 2.297774 2.217561 0.05421 1.972031 -3.064354 1.637641 4.498855 7.991714 5.238352 4.233667 -3.28611 -2.942978 -2.746778 3.790024 2.758652 -3.636333
Israel 5.110435 1.940455 -1.355545 3.369182 -5.489631 1.439828 -1.326851 -4.337817 -5.803251 -1.627062 0.540034 1.420067 7.713289 3.475437 -3.891898 -2.968535 1.359854 5.787051 0.100712 -1.23381 -3.026056 5.939614 -2.345207 0.075871 -8.184227 -2.115567 0.804835 3.080608 0.136874 2.802291 1.619171 -3.156468 -1.160127 0.473611 -2.680852 -3.366438 0.071146 3.100278 2.008068 5.205118 -3.457537 -9.249744 4.607748 2.679796 1.550235 1.893405 0.555906 8.414922 6.962007 3.71292 7.138049 -5.007471 2.85191 2.042893 -5.526689 1.429211 -0.883602 -0.922629 -0.039949 4.104984 -2.09075 -2.562949 -3.50245 5.403174 -0.113045 -3.48474 -0.18255 1.29649 4.672496 3.234761 -5.30019 3.667909 4.324198 5.530431 -3.80778 5.344488 -4.943587 4.052302 -0.906025 -0.870643 5.887496 6.65513 -1.581366 -0.017554 -1.666685 1.100552 -4.577804 -1.586855 7.941451 6.880305 -1.500379 0.152784 -4.267038 -4.959573 2.451381 -5.396334 -3.462803 -0.76846 5.930469 0.251142
brandy -1.948237 2.401521 0.558087 0.619275 -0.743826 -2.079322 0.924777 2.758262 -0.829942 2.552773 -0.900688 -3.980914 0.365102 2.146958 -1.140787 0.026774 1.422567 -0.137385 -2.83973 -0.629706 -2.679893 -3.127945 0.009396 1.553194 4.421229 2.501064 -0.434074 1.819053 -0.509475 -0.84532 1.867111 2.158408 0.556876 0.147787 -4.136242 0.626551 4.404791 1.298456 -1.720618 -0.605151 -1.022335 -1.896444 -1.027578 0.093623 -0.996407 0.303071 2.087859 -0.668445 1.05172 3.389317 -1.861065 -0.00253 0.084081 1.132885 -0.409758 -2.065184 -2.333339 -1.875652 -0.476866 0.322744 -0.192955 -1.66644 -0.842587 -0.659285 1.200489 -0.396489 -2.17505 0.635748 0.902531 -3.389334 -0.892106 -1.703557 0.063119 1.481571 -0.329763 0.982287 0.101437 1.466046 2.800272 0.160041 -2.678243 -2.23403 1.141674 -2.635993 -0.187553 0.007602 -0.938018 0.25412 1.632507 1.080819 -0.562842 2.1692 -0.249173 -0.253175 -0.601826 -0.370151 -1.214435 2.526662 0.143984 3.162601
interview -1.841459 11.770407 -5.048034 -7.158969 -4.117374 3.106223 -1.745665 1.777705 5.716581 -9.522313 -3.716964 5.333027 0.789338 5.397909 3.046823 7.78717 5.284628 -3.944837 -5.948123 17.16663 3.683435 1.074353 2.108748 -3.155678 1.658086 1.272508 3.957197 0.806991 -2.06789 -1.970062 -4.140263 -1.49319 5.167043 5.613456 0.153783 5.767377 -3.384492 -5.978752 9.32477 -9.768243 1.180653 -0.945816 9.98262 -4.931205 5.714866 -2.750306 3.174886 3.365719 7.035591 1.366358 4.228313 -5.229892 10.809541 2.834121 9.905953 5.439748 5.479249 -0.514732 -0.421281 -1.034439 -0.890993 1.215157 0.313416 -4.394224 -6.678133 -8.115708 -4.599512 1.067134 -0.665886 0.56099 -7.425778 1.670209 -9.699629 1.908875 -3.27096 2.434228 -4.875946 0.256867 -0.852992 -1.025644 -0.06889 1.35126 3.368134 2.400984 -0.076044 5.923035 2.710643 -5.917263 5.10313 6.141695 7.188836 -1.397852 0.465915 -0.980706 -9.124197 4.618512 2.186149 2.117777 6.404564 7.025149
prominence -0.482993 1.218536 -3.541391 -4.260529 -2.106621 4.60522 -1.525882 1.013128 1.779753 3.075102 0.432888 -0.6742 -0.604609 3.693558 -4.161193 2.069031 -0.116273 4.726418 -2.335897 3.100378 0.509102 3.770794 3.099041 4.631203 -3.035429 1.768507 1.807857 0.037348 -0.313781 -5.66989 -1.11104 -0.481641 0.112885 -1.717635 -1.610408 2.724039 -1.62915 0.634531 -2.906785 0.822793 2.636197 3.092904 2.392164 0.756188 -1.196295 0.492947 0.315205 -1.357674 -2.999526 -2.586442 1.300683 -0.355243 2.624166 -2.492227 -1.587841 -3.991554 3.807255 -4.171007 4.396533 0.205259 0.357193 0.4905 3.454392 2.986216 -4.408859 -2.564484 -4.095707 4.520833 7.33848 -2.541115 3.870283 -4.835523 2.563788 3.423295 4.148638 2.394104 2.930218 -0.584177 -1.937003 -1.216075 -0.760631 0.938085 -5.603475 -0.148177 -1.88392 -1.946227 1.334197 3.696504 5.056976 3.583846 -3.070502 -5.207523 2.71526 1.044129 -1.800719 0.422106 -2.072766 3.740845 0.75321 -0.742846
bed -4.003124 2.726448 0.164611 4.652864 2.662295 -2.448456 2.348922 3.938019 -0.431463 3.46248 -3.61096 -3.023553 0.133227 -2.542909 2.043537 3.031389 0.778486 2.744145 -7.763368 3.193206 1.331034 -2.891277 2.22498 2.862668 5.776459 -2.64709 3.430278 -0.23637 -0.871491 -4.611845 5.508003 0.423453 -2.112108 -2.928407 -3.492992 5.570979 4.730082 1.060246 4.79883 -0.460712 -0.286054 0.529604 -1.002952 -2.111097 -2.29824 -2.785153 3.675221 -0.660988 2.022355 6.885767 -1.905555 -4.742342 -3.687371 3.032253 4.460286 3.705049 -1.488369 -2.886878 -6.192765 0.718614 -4.976428 2.010051 2.792065 -3.884817 5.117585 -1.641633 0.711849 2.68321 -1.752404 -2.871635 -1.853371 -2.289983 -1.185023 -0.248222 -1.834702 -0.127836 2.498042 1.755643 2.846139 1.307786 -2.418326 5.580834 -0.337378 -3.813263 -2.827567 1.332045 -2.155498 -4.786368 -0.717143 4.024928 -2.094996 -2.614435 -4.816968 -5.170932 -0.363358 1.37874 -0.600087 3.183696 4.914688 2.288278
furnace -0.719279 1.728473 -0.254157 3.393191 2.298125 -1.231896 3.807467 0.375437 -0.662045 2.873183 -3.659987 -3.804004 0.700059 -0.072465 -0.205278 -0.517757 -1.185955 -0.669748 -2.313274 -0.050256 1.776769 -0.404436 2.170824 0.139791 -2.02426 -1.857556 -0.878787 -0.184099 -0.382704 -0.013932 5.014338 1.202336 -0.727119 -0.201312 -1.383304 -0.844091 3.37784 -0.425857 3.023392 2.604328 -1.864225 2.249362 -1.303829 -0.904339 -2.968631 0.684845 -0.331466 0.697831 1.602656 2.628374 -2.786814 -0.170461 -2.695374 1.64772 -1.124642 0.412329 1.924051 -2.578044 -1.595764 -3.62915 -0.618176 -2.832338 -1.310099 -0.377031 2.539709 -1.65079 0.994849 -3.199873 0.69551 -1.992967 0.130014 2.264495 -0.378306 2.1935 1.034486 -1.745492 0.957964 -0.21929 1.612858 1.5677 1.099305 0.532135 0.778426 -1.658188 -0.809593 1.212502 0.492111 0.907346 1.209579 2.97567 -0.897323 0.874851 -1.206096 -1.245209 0.432987 0.248619 1.372247 1.329397 0.593145 2.882241
evidence 1.648657 3.986119 3.726255 2.443396 0.019268 0.540364 -7.970093 -0.05443 2.734676 2.813308 -1.678192 4.133811 -1.647309 -6.47167 3.439537 -4.78275 -2.937963 2.46926 0.693679 9.971888 0.272776 6.508282 2.416142 0.645361 -2.376705 -2.271755 0.247136 5.598222 0.58247 -4.215335 -5.330276 2.0524 1.08453 0.758888 -6.734956 6.024557 -5.672129 4.262013 -0.986612 2.459272 -1.044311 -0.327127 0.818795 -3.247121 -4.987947 1.344887 5.539965 2.87437 1.938948 4.653761 3.018727 -3.773801 -2.487277 1.730814 -2.096253 2.797761 3.531105 -0.908863 -2.709874 -2.451283 -2.217947 -1.259112 -5.387555 -0.594437 2.76735 6.124096 -10.890044 5.378371 10.185685 1.403736 6.727893 -0.97849 5.762304 1.370618 -4.026674 -5.408637 2.542984 -2.454956 -0.974004 0.050239 1.112285 -1.013282 2.030101 0.052154 -4.353972 5.209986 -6.006144 1.417764 3.055127 6.742505 3.967579 1.634846 2.358617 1.863189 -3.71491 1.397044 0.962966 3.45917 10.178075 -5.141271
sprint -6.407026 -5.112869 2.626816 3.608865 -2.19381 -4.059731 3.323935 2.163375 1.435324 -2.305467 3.11592 2.165932 0.814105 6.722651 -3.35124 2.21243 1.070847 -0.99161 -3.838251 4.883976 3.410079 2.465781 -1.122695 3.756005 0.565501 -0.081812 0.516403 2.149634 -0.559549 -1.563308 4.23074 2.74373 1.990807 -2.682688 -2.07815 -1.133201 -0.57349 -5.809405 -6.628417 -1.589592 3.373315 0.885019 -1.479927 -1.512807 -1.525025 -0.390456 0.399494 0.035324 -0.947733 1.086272 4.889126 -0.049503 -3.115089 0.768046 2.024679 3.669908 3.733439 -3.028232 1.210174 1.123135 -3.66351 2.821084 0.470188 -5.098918 -0.763172 -4.440358 -3.223177 1.181999 3.71582 5.171909 4.028038 0.352499 -0.790015 1.044202 0.31159 -4.065288 -0.999743 -1.92207 1.455752 1.413975 -0.979041 -3.1905 -3.659344 -0.657994 3.875462 -4.569629 -1.679771 -1.417963 0.060796 0.228678 -2.34797 -3.559184 0.579867 -6.117993 0.752178 0.54202 4.922003 3.783651 -4.614663 -2.244754
emergency 5.570208 -5.23283 -2.798109 -0.409699 -2.656045 4.479262 3.056261 -6.771999 3.376958 -3.393721 -0.161102 -1.814459 -2.182504 -3.605121 6.097882 -4.729848 6.553199 1.858364 -0.983555 0.687166 5.71748 -6.105052 -2.838758 -4.522647 -3.898423 2.06966 -1.438594 3.221071 0.782889 3.36468 -0.837417 -1.175917 -5.847207 -0.565583 -4.243142 4.710975 -0.658329 2.114681 5.877417 0.973175 0.856656 -3.054746 -0.039005 -2.706926 1.914007 -4.351537 -2.056647 0.06648 4.311061 5.632524 -2.301792 -5.539465 -0.967148 3.361654 3.781275 6.933905 7.72901 -4.5096 -2.135262 1.241105 0.06898 -3.34957 5.742415 -1.398775 -1.78334 1.633106 -1.116704 1.808643 -5.706821 -1.367312 0.188959 1.75599 -0.85215 -5.706429 4.592427 2.169551 -2.340728 4.898753 2.541611 -2.533152 1.36657 4.156574 6.204751 3.038839 -1.14844 -2.884633 -0.682957 3.822591 4.065347 7.02032 1.797286 5.641031 -4.353554 1.414528 4.536999 -2.140202 -7.062043 1.62514 -4.120268 0.592951
Jackson 2.509657 0.361004 5.345501 4.578964 2.141129 -4.593825 -3.581656 1.966718 2.350032 5.096399 5.68889 -1.392363 -3.927473 0.353376 5.912977 -0.370553 2.495763 -0.743562 -1.701893 7.292695 0.364141 4.583869 7.600801 2.161966 4.685806 1.378912 2.774313 -1.170192 -1.90239 0.680245 -0.477872 -2.149542 -0.259259 -2.344649 1.655765 -0.73533 6.743511 0.363061 4.586196 -0.673564 0.067125 1.959632 5.506362 -3.983216 0.402322 -0.290852 -1.31499 -2.554769 6.254338 6.236123 2.311469 -4.073466 0.682367 0.221045 -0.620863 -1.048744 0.327723 -2.543764 -3.733771 1.135748 -2.206812 5.781228 -0.232515 -0.278374 0.97589 -5.300661 -1.351385 0.379969 8.071807 2.96137 -0.573984 1.603169 1.604197 -3.597691 1.384605 2.298037 -4.870768 4.297586 -0.509351 1.14141 -0.506434 1.363114 2.491559 6.206555 -0.250286 -3.527439 -1.366675 3.257586 3.666054 -1.515789 -7.995208 -1.911765 -1.202656 6.325072 0.415592 6.319734 2.655885 -0.20901 -1.829737 1.545795
institution 2.245137 3.451274 -3.321898 -2.760349 -4.016768 7.868155 -0.3844 -3.510727 3.342081 4.938227 -2.085998 -1.536431 -2.908689 0.636514 -4.015357 -5.695222 1.734017 -0.211549 0.130032 3.967612 0.0301 0.353124 -5.689171 -5.356624 -2.621864 -5.319193 2.72159 5.225368 -0.642899 -0.956329 0.64357 2.148964 -0.628612 2.118011 -1.330481 -2.49737 2.152027 -1.999674 -0.370381 2.49352 1.810502 -0.478801 5.455687 1.049227 3.024604 -4.674415 -0.822395 2.561318 2.394952 -4.524961 -2.367602 -4.761356 0.697494 -2.262781 0.719739 2.145315 1.831007 -0.846342 -4.710073 0.552698 -3.466103 3.024735 0.316619 4.497281 2.664193 0.029363 -3.399062 -0.699866 2.208682 -1.584836 0.857376 4.151472 -1.388091 1.118918 -0.224191 -0.812953 1.884878 -1.61134 -1.058895 3.451801 -7.063678 0.132023 5.688782 -6.081474 -0.675678 -1.84031 0.800749 4.645528 1.945819 -0.222409 -1.149489 -2.480877 -1.668277 -0.041246 0.031785 3.538842 -0.558312 0.367899 2.714062 -0.297362
bird 2.368511 3.125504 0.593993 -1.878022 0.031119 -2.729365 0.565765 1.180626 1.019077 3.318457 0.317234 -2.124194 2.718975 0.384962 -0.447895 -1.194846 2.550641 -1.538108 -2.165696 -0.099006 0.097753 -5.739606 -0.945527 2.715936 2.595117 -1.127172 -5.847864 7.730037 -1.944898 2.539183 4.21076 2.738276 -4.107493 -1.679145 -4.165405 2.160475 3.050412 4.137662 4.660764 -0.624638 0.561391 -2.85625 0.727103 -1.355408 -1.218429 1.295805 -0.321017 3.6319 2.391555 -1.208321 -0.931394 1.054987 0.500984 2.469355 -0.335234 -0.234817 -2.350909 -1.915253 1.200551 0.853629 -0.957439 -0.295719 -8.060522 -1.031991 4.796985 0.644653 0.56827 4.080945 3.319601 3.324676 0.617697 -1.994968 3.810931 -2.826936 0.105549 -0.283972 7.649252 -1.895173 -1.643228 0.532778 0.893757 -0.70657 -2.325931 -3.307553 -1.397101 -3.955157 -2.596483 0.816329 2.325072 3.230509 -1.515098 -5.551987 -3.01766 -0.342402 1.821727 -1.748183 -2.492185 1.281317 -1.792781 0.9437
Brazil 0.315506 -3.576504 1.856857 -1.81164 -2.336882 -3.289949 2.866225 5.123449 -0.184856 -8.36967 -1.007693 0.378761 5.437223 3.298425 -2.934771 -0.239242 -0.305345 1.214908 -4.678102 -1.64 -4.842585 0.801719 -0.047773 0.88026 -4.8045 -2.176973 -0.490431 4.220932 -0.37189 1.272651 3.014001 -2.779211 0.338314 -1.904798 0.075757 -2.60923 4.825861 1.359156 -1.964804 2.788752 -1.382519 -0.919256 -4.045256 -1.148664 4.089636 0.090905 1.112476 -2.148471 1.927003 0.685862 -1.770677 -0.674199 1.039551 0.344755 4.06266 -2.054283 -0.291238 2.366144 0.023188 4.611115 -3.255607 -1.049248 -4.44933 6.250973 -0.169203 -1.537233 -5.172192 -0.024908 3.494976 1.301329 4.504938 -0.235632 1.657079 2.587404 -0.77918 0.409456 -0.048016 0.682038 1.877985 -5.374061 -1.12688 -1.6525 -0.676955 -0.824123 0.246476 -2.547781 -1.59693 1.267402 4.958216 3.745423 1.407098 -2.760463 0.208063 0.806512 -0.116907 -0.021177 -0.579365 -0.308087 -3.43006 -0.620314
warning 1.751119 -2.266302 -0.641131 -3.303489 -1.763429 -2.729453 -8.463019 -4.458401 0.061509 -0.435323 -2.205832 3.386707 2.65286 -1.094666 0.951517 1.235862 3.691955 1.287105 0.370786 3.944881 -1.166442 -3.828081 0.390387 -2.608274 -0.632456 7.162711 -0.338143 2.986856 0.031862 -0.148219 -0.270132 -5.392884 -1.139663 4.790884 0.301136 4.508445 -9.371422 3.618706 -0.023036 1.93765 -4.440116 1.824663 -3.027884 -4.15008 -2.224489 -3.889836 1.725179 0.99598 0.420737 -2.862501 -1.674652 0.509294 -0.06431 5.429628 0.378158 2.366946 4.510024 -1.369394 -1.615634 -0.697041 1.416016 -3.978422 -5.563162 -0.546916 4.257613 1.854784 -3.898872 5.080865 0.920131 1.159885 -1.657561 -4.079477 4.467983 1.50961 -0.885809 2.083387 4.370901 0.347271 6.142854 2.602146 1.32753 -0.214551 0.892087 1.555501 3.485593 -0.767321 4.055413 2.45474 3.629175 2.603714 6.194501 5.407789 -3.443287 0.71202 0.359017 -4.96764 -3.058539 1.093243 4.912105 0.542042
implement 2.33816 -5.511266 -1.723189 1.487747 -0.753992 5.06042 2.183051 -7.405808 1.989292 -2.154421 -0.203476 3.51545 2.741737 -2.397935 -8.657772 2.1733 0.146295 0.68308 5.098403 -0.422699 0.24764 -1.588699 1.701314 -7.596189 -3.742982 4.011189 2.73265 3.584753 6.833215 -1.948398 0.10562 0.093468 2.255721 0.428519 0.200904 8.418233 0.73709 -1.145681 -2.326054 -0.878223 0.853797 1.730979 1.889073 5.439167 0.699304 0.258862 -9.097708 7.156268 -0.132302 2.100402 0.333667 -2.00139 0.152462 1.469091 1.596048 -0.25876 0.799359 2.953909 -1.469658 1.566759 -2.667365 -3.426189 4.769388 6.842975 1.437999 2.749892 2.640147 -1.025406 -3.4899 2.044619 -0.235172 1.442841 2.011296 -0.841772 -2.31255 -3.326025 -3.227568 -3.543009 1.538068 0.027395 1.898794 0.582421 0.532312 2.689549 -0.650648 -0.700265 4.118737 1.35653 1.040356 0.260681 6.217739 3.840827 2.905715 -1.488402 3.492723 1.064592 4.234263 0.141086 -2.618554 -0.270501
train -0.175265 -0.617742 -2.505159 0.406686 -1.093844 2.618334 5.1336 -4.877193 2.94173 -1.308375 -3.081967 1.799706 0.998224 4.071623 -4.263217 4.427458 -0.31451 -0.347814 -6.603479 0.571087 1.86911 1.030987 -0.367791 4.474717 -4.15181 -0.282623 1.426747 1.918745 -4.845386 3.638764 3.894253 -3.830989 -6.373624 -5.840613 -2.692851 3.798776 2.565209 -4.848321 0.359485 1.988153 -3.861677 -0.038795 0.170914 -0.250447 -0.010675 1.362363 0.114085 2.880875 -0.803988 1.396536 -0.365257 -1.728375 -5.693179 -0.072641 0.914902 7.644068 3.424325 -6.186902 -4.647971 -2.458856 0.454546 -5.865464 -0.366962 -4.997435 2.067136 -2.488145 -2.686388 1.432877 -0.8521 4.488194 0.392054 -0.520747 -2.411972 -0.618787 1.58062 -4.999895 3.295805 0.868106 5.278499 2.573119 -0.685945 5.944075 -2.096748 -2.748478 -0.980347 1.990275 1.453145 -4.385552 -0.462299 -4.275531 -2.564866 2.057649 -2.073641 0.382626 4.614651 -2.558469 -2.73735 2.885545 -4.171425 1.359281
area 2.324038 1.848347 4.827918 -1.197144 -3.539551 7.717052 6.749458 6.448301 3.519888 -0.279209 -5.477601 -0.541902 0.023899 -2.342604 1.845244 -0.359084 2.044197 0.768176 0.493088 3.633745 1.262417 -1.939761 -4.846844 -5.112395 -0.81658 -0.974464 -6.934966 4.053406 -0.53274 5.815807 4.967945 4.068109 -0.644546 -4.181539 -0.247693 0.690636 2.799834 0.225921 2.528994 0.071693 -1.427385 -7.298881 5.226368 -3.622171 3.513681 1.552281 1.659862 0.247689 4.923815 -2.172541 -2.227361 -0.536754 -3.590049 1.497974 0.973498 4.6837 3.310229 -5.602475 -3.802341 -4.133732 -2.358326 2.10923 -2.47052 -2.069721 2.917272 -1.940349 -1.426559 1.111434 0.335188 1.733527 2.703873 0.747047 -1.63429 2.183289 -1.255412 -1.571596 5.016581 -7.053906 5.679733 1.424375 2.50529 8.783068 -0.710657 -4.876669 -4.301873 -0.44958 -1.848813 4.440705 1.44668 0.356829 -2.77079 1.586761 -2.854587 -0.087498 2.028925 -2.354675 -1.732978 -0.805564 1.264741 5.2095
image 3.907985 5.550767 -0.157951 -1.073866 -1.401332 3.786045 -3.523305 4.047899 2.401706 4.106389 -8.379333 -2.823749 0.786722 3.448916 -5.32591 1.032365 -0.913892 0.530821 -0.007538 6.479074 -0.171932 3.212978 1.895081 -0.813247 0.068052 -0.631862 3.955358 7.478994 -3.798653 -2.639155 -0.656122 -1.456853 -5.292586 -1.534125 -3.837453 0.276552 -2.827557 -3.583115 1.506858 3.03019 0.812136 1.675659 -0.179108 -3.384192 -2.820732 2.65747 2.170105 1.292215 1.675049 -3.38677 1.087364 -1.736289 1.742682 -2.136023 -1.055463 1.804237 -0.591851 -0.998929 3.967487 -1.075042 0.86831 5.705628 1.681713 2.061556 2.502521 -0.566561 0.76529 1.751638 -0.357022 0.270606 0.715712 -1.589959 0.507127 0.744533 -2.664976 -1.067525 -0.217062 -3.346559 0.066438 1.391015 -5.0267 -0.862151 -0.761344 -3.110983 -3.765931 -2.854661 -1.43577 -0.612522 7.898292 5.131523 4.309531 -6.529331 -4.442125 -0.804814 -3.730385 -2.371474 2.337731 4.821269 1.235384 3.825125
murder 4.233495 0.16544 7.744548 7.778769 2.807334 -0.272206 2.559914 -3.504275 2.274017 1.009333 1.846798 -2.606216 -2.655639 0.241686 0.974193 -9.795621 -2.222275 4.600684 -4.931109 5.578763 -2.659468 4.430939 5.188286 -1.555485 2.621968 0.245275 -2.794658 0.370081 -5.177823 1.636545 1.738734 4.453771 -0.465864 -7.088007 -2.351432 7.391668 -1.794579 -1.780615 -5.699687 1.457937 -4.378279 -5.423286 6.589951 3.335001 1.626874 -8.532381 6.012545 0.162612 -1.878754 4.225666 5.349979 -6.236717 -2.581522 -3.542604 -0.842319 -4.758497 -1.138917 -1.022771 0.807552 -2.892123 -1.558511 0.521892 -6.941054 -7.456983 2.502855 -10.042949 -3.531916 -1.376946 1.642817 3.091402 -2.404604 -0.275013 1.011486 -4.037035 -3.550467 -1.102185 -7.363947 1.661082 -1.192785 -8.880333 -1.793131 -0.16763 -2.446576 -1.348373 -1.049002 5.509122 -0.644119 -0.086388 3.169028 -5.368853 1.106755 0.338422 -2.440022 2.691054 -2.059842 -0.099742 -1.952134 2.604177 6.49549 -6.500927
journey -2.422978 -2.330222 0.286696 -2.206315 -4.079089 -4.790091 4.899259 0.363861 2.362719 -1.430906 -0.047461 0.898721 3.180255 4.686789 -4.389382 1.089936 0.40962 4.327452 -4.510367 0.879339 -0.932485 5.229451 1.166193 2.000915 -0.478006 3.8877 -3.680768 4.491237 -0.818618 -0.918973 3.361699 0.089171 -2.268609 -5.195103 0.447198 2.137915 3.433593 -4.107447 0.351612 -0.72048 -1.968608 -1.059965 8.418071 -4.851384 -2.939142 0.878333 -0.22298 2.595064 1.02312 -3.243644 7.122559 -2.862019 -0.1442 1.129027 0.34806 8.086672 -1.866578 0.039459 -5.440849 -2.957205 0.388595 1.831289 1.722666 -0.818359 4.5184 -9.750489 -3.723895 3.439687 0.425392 3.105059 -4.698504 -0.192234 -5.482248 0.708673 -3.224296 -6.530895 5.84453 1.456908 5.000313 2.234467 -8.802914 -2.656856 -3.718759 -8.932799 1.547678 1.325737 -2.754095 -3.077877 -1.069888 4.672521 -3.07741 0.086867 -0.683148 -1.747682 1.749018 -2.643203 2.488158 4.273364 -1.890142 0.025021
minister 8.940107 9.413587 -2.5295 -0.360438 6.852809 11.753802 -3.469998 -4.941553 -4.441459 -10.343749 1.235213 1.819559 0.522406 4.007084 3.715844 -5.134094 -2.542889 1.164067 -6.212155 -2.889026 -0.727132 5.151064 5.429722 -0.689119 1.655725 6.752529 9.639897 -1.78696 0.63652 1.542676 6.933349 1.027406 -3.132926 8.957744 3.166328 -4.85458 -1.217141 3.265082 -1.69333 5.033527 5.693758 -2.298819 5.018533 2.300712 8.807783 -8.892568 -0.159659 5.243113 -0.277866 2.302589 9.361949 1.198323 7.347094 -2.548456 -3.587453 2.331665 11.087529 -1.694312 0.297909 4.319823 -4.108576 -0.485227 0.395114 10.331224 8.49188 2.287937 -4.697946 -5.169152 -7.128504 -0.476689 -7.318452 -5.202476 0.238438 8.772705 -0.226593 9.701931 -0.594039 -0.581578 6.785315 -12.313211 -4.828728 -0.460115 5.364532 -0.037441 -3.243762 2.109468 -3.829732 -0.765281 7.14992 3.417417 -4.978242 1.855052 -2.914517 -5.414771 -0.545433 12.658524 -5.315809 12.721909 2.015925 -1.683814
planet 3.199206 3.221793 3.944072 0.105355 1.776905 -3.834516 -0.7457 4.922313 0.135848 3.411183 -4.332201 -5.413866 2.794607 2.576406 -6.803164 -1.678096 -0.258451 -0.101791 -2.800776 0.854837 1.651948 4.909267 -2.22355 -0.300393 -4.984999 -5.426578 -4.182391 7.27096 1.967801 -0.847493 7.658074 -0.237814 1.854891 -5.246975 -1.906337 0.460201 8.23986 2.102523 7.368703 5.136344 -0.358123 -2.786681 -0.301701 -4.395731 -1.685977 -1.678552 -3.499766 3.270111 1.480491 -4.196517 -3.745462 -1.536927 0.525354 -2.598889 -0.12327 4.002194 -2.344162 1.902189 1.199045 -1.846959 -0.386205 -0.723306 -3.771374 0.855027 11.31476 -4.276617 -1.892239 4.723985 -1.488047 3.511692 3.937173 0.765817 0.385335 -0.743606 3.291533 -2.355604 4.338843 -2.177707 3.340683 6.150942 -1.050495 -2.599008 -4.829476 0.44383 -2.077647 -3.533826 -4.274156 -1.599573 1.665095 3.948558 0.20587 -5.444987 1.278982 -4.102359 -2.533304 3.795223 1.878023 1.429806 0.713694 0.724384
article 3.529325 12.599156 0.786748 -6.452075 0.002127 0.661455 -6.346757 -4.17679 3.597423 4.652246 -6.328757 -3.750617 0.746728 3.755928 5.422253 2.861366 2.578598 -1.87648 -3.439133 6.173442 -7.000106 2.101936 1.635791 -0.710215 -5.929494 1.722641 0.666036 6.518789 -0.136459 -2.257238 -6.477304 3.9046 6.079384 0.431176 -1.817599 0.709004 -5.547045 1.203816 1.807867 -3.449189 4.17324 -3.729587 -0.100269 -6.371704 2.038433 -3.013985 0.06631 7.85324 -0.453893 0.775705 -2.116976 -3.696301 6.059641 0.979844 5.613207 1.853872 0.066415 -1.635617 -2.599071 -0.825609 -1.255798 3.891802 -6.615744 0.761727 -0.111151 -6.061531 -7.685435 1.122328 -0.798376 6.583639 -10.664973 1.68572 -9.327944 0.134431 -1.675538 -0.3275 2.223302 -6.991992 -5.063497 5.752539 -7.131461 -0.921158 3.914341 -1.489674 -5.308741 7.052995 -1.689057 -9.767473 0.206437 2.185748 3.215726 -2.039288 -1.131809 2.189617 -3.753803 1.975862 -0.433859 4.144175 2.624961 9.473206
anxiety 2.443091 -0.84525 2.432537 -2.644197 -4.682504 -0.925185 -7.836547 2.431542 1.37851 1.053662 -4.308264 5.23761 -1.471089 -1.746933 4.655281 2.306074 0.63441 6.343129 0.191761 0.097326 -2.089384 1.579213 -1.490477 1.767838 2.533818 -1.053619 -0.130171 3.098139 -4.973657 -7.016882 0.352217 -0.004764 0.135388 -0.907132 -2.926763 1.53273 -2.060718 2.016819 2.459723 4.409345 0.26976 3.411474 2.828242 -2.453706 -2.091773 -5.350202 3.256242 0.76192 0.248323 -2.864884 -3.596168 -2.62942 0.011651 -2.038938 -0.363274 -0.132591 0.183331 -1.025118 -2.412646 -0.935764 1.182902 -5.693199 -0.459637 6.222565 2.117736 -2.797599 -0.595542 1.565263 -0.740417 -2.185596 0.586892 1.05674 2.589136 -1.412969 5.381646 -1.947785 -3.873436 1.810965 -3.923008 4.160519 1.22505 -2.565913 -0.982129 -5.419204 -4.930968 0.085498 -0.844496 2.078243 -2.57696 2.728884 -3.395212 5.459736 -1.939794 2.023409 -0.084209 -4.000349 -1.365494 4.551088 3.221275 -0.3814
month -0.20256 -1.108194 4.325912 -3.896662 2.772832 0.488466 5.992856 -0.10982 -1.886936 0.5191 -8.423484 0.73992 12.103866 6.520871 6.065532 -3.035492 -0.259159 9.603476 -3.155592 5.405467 -1.870083 5.697065 3.875892 -5.397941 -10.643081 2.004646 -1.612183 -8.140067 5.075914 1.965928 5.428943 -1.069074 1.229297 3.032009 -1.438867 -0.118553 0.67139 2.657817 2.005174 -10.179481 6.284406 -7.465683 -2.6337 6.268605 -9.787259 -11.01255 -5.671876 2.443884 -6.487524 -0.929921 6.162851 4.954602 -2.41712 3.714621 1.600203 3.783375 4.999195 -4.85848 -3.860538 6.180803 -10.510888 2.665015 -11.575453 -4.72321 -12.857948 -3.994485 -2.796251 -1.526525 -0.501235 4.854882 -6.454494 2.30758 -4.045862 1.357284 4.603299 -1.984295 9.259789 -5.771075 3.071591 14.392518 -5.672558 -3.966681 1.18508 -4.104492 1.422765 -5.249281 -0.037951 0.918398 4.185966 2.273374 -0.006023 -0.934926 -2.025362 14.441624 0.165984 6.768421 -9.290982 2.893746 3.468319 5.391291
carnivore 1.3862 1.382897 0.602547 -0.959246 0.505234 0.102191 0.179432 0.810486 0.286114 1.871569 -0.207024 -1.119825 -0.544709 -0.181469 -1.214007 -0.067495 0.091316 -0.576858 -0.575329 0.077088 0.194536 -0.47781 -0.673909 0.802027 1.621725 -1.358895 -1.772424 1.563314 0.076479 1.108238 1.468581 1.411389 -0.123934 0.01058 -0.158934 0.23876 0.936193 0.456451 0.402823 0.101512 0.460672 0.420543 0.169768 0.190869 -0.570617 0.153057 1.444879 0.434491 0.169164 -0.07997 -0.287663 -0.126372 -0.335497 -0.345644 0.280832 -0.386534 -1.104316 0.71927 0.494307 0.625849 -1.48651 -0.114418 -1.963553 -0.149446 1.70492 0.166313 -0.296025 0.639627 1.136545 0.732788 -0.560598 0.786883 0.418228 0.06224 0.039946 -0.509188 2.478938 -0.277175 -0.209316 0.363448 0.325877 -0.690278 -0.626507 -1.398024 0.060997 -1.01194 -0.663138 -0.185584 0.586833 0.890677 -0.304668 -1.627851 -0.37393 -0.577712 0.171581 0.497076 -0.2929 0.136039 -0.264544 -0.096145
party -0.396938 6.888658 -1.989698 8.320136 -5.300914 9.374096 -1.636981 1.22214 -5.209738 3.161364 -1.69399 -1.785589 0.882101 10.592981 -1.590576 2.221926 -1.780171 4.191606 2.506585 3.701385 -1.691871 1.196662 -1.737584 -3.048558 -3.526768 -3.030171 5.734139 -3.469785 3.976228 2.177414 6.099265 4.198463 3.751831 2.1352 1.44077 1.706387 0.947483 -2.165228 -7.232232 5.605863 -0.060554 -2.895403 2.417862 -4.103033 5.095633 -3.149384 6.254199 3.699653 -3.710915 -2.455136 2.6011 0.778612 2.464131 2.385062 -4.919806 1.325063 0.044098 -2.144271 -0.409944 8.829034 -1.567813 0.097927 0.736695 -0.059809 2.192092 2.854091 -3.526545 1.258949 0.689027 -6.245599 -2.848023 3.839686 -1.531451 0.581559 6.961545 -1.053065 -3.104938 1.947571 2.556987 -0.730431 -2.368938 3.339673 -0.252807 0.256782 3.332464 -3.724026 0.757302 -2.4468 9.151806 -0.585197 -4.022937 0.799253 -1.642744 -1.786451 -4.529845 1.897303 6.456152 4.508585 1.080425 -3.131581
production -1.642713 0.203791 1.075203 3.309178 0.078527 -1.14104 4.909113 2.778186 2.320908 -2.788459 -1.386287 -2.9989 3.038684 1.928662 -2.837259 3.202336 1.136601 4.269501 -3.593925 -4.193999 5.709612 -0.864644 7.807061 -0.224725 -6.652537 4.474148 -5.303304 2.750058 -5.104906 3.982849 6.29146 1.153563 0.375426 1.852803 -1.022998 -2.046314 2.821738 2.381512 1.955668 0.930534 -5.858141 6.328995 -0.042341 7.867483 -0.213815 3.764028 -1.155255 0.040643 1.204314 2.35751 -3.742942 -2.451775 -3.089499 1.040108 -2.454857 0.011029 3.890498 -0.66902 1.854995 -4.261786 -2.49929 -1.85871 -1.951924 6.859447 -4.671774 -0.07227 -0.820266 -4.200882 5.935973 -0.727682 -1.164427 -0.619024 -2.851818 2.993629 1.397133 -6.639485 -3.077276 0.647042 0.560097 3.543489 -2.779962 -7.03126 -1.445882 -0.209476 -4.532924 -0.554994 -0.023685 2.448891 2.864865 5.669594 4.210367 0.775301 9.435547 -0.408329 2.987933 -0.485725 0.835271 -6.143036 -1.3724 3.812887
importance 2.456244 1.745924 5.535458 -2.974694 -6.61384 6.963357 -3.482209 4.017998 5.132379 -4.942955 -2.010784 1.190574 -0.141035 -5.939925 -3.645872 0.246403 -0.852837 5.541642 4.377731 1.418541 -1.157801 4.910482 -3.402035 -4.157186 -0.973996 4.962516 0.068703 5.372758 -1.479026 -10.539749 1.357358 3.947396 -3.439093 -2.901819 -2.036954 -2.184689 -2.32169 3.056238 -0.305072 4.106956 3.925046 -2.073964 -0.404501 -0.733568 0.28315 0.577393 1.716335 5.282456 -1.502967 2.609808 -3.430206 -1.665398 5.021306 -0.890006 -3.63517 0.842252 0.400143 2.789922 2.636791 -4.9542 -1.08284 -2.340207 3.450324 6.164252 0.905416 2.772146 -1.165365 3.302678 -1.22708 0.409638 2.035711 -1.844257 -2.12982 -0.525505 1.074287 1.439189 -1.574908 -1.618115 -3.562554 0.23578 -0.798617 -2.650094 -1.839516 -1.951698 -6.63871 0.517239 -1.32152 -1.766022 0.14563 4.522825 -2.443258 -3.385031 3.564607 0.305564 1.181584 0.703488 -0.664386 1.099077 2.681368 -5.055323
inmate 4.537815 2.495183 0.530379 0.996113 2.795984 3.520576 2.278195 -1.533794 2.563385 4.700076 -2.796119 -1.505381 -5.569504 1.200833 3.55602 -10.043736 0.453664 2.182591 -3.5115 1.744122 2.860492 0.230743 0.428677 -2.743011 0.330574 -1.678261 -0.784298 -0.6765 -2.598582 2.860347 0.234519 3.137178 -2.356799 0.650255 -4.857182 4.825738 3.337907 4.477127 4.163898 -1.67513 -2.869006 -2.654704 7.006447 0.414209 -0.87315 -1.236175 -1.837201 0.991639 4.01624 1.132132 3.371058 -2.610364 -0.716626 -4.213357 3.497672 6.602209 4.868064 -2.528485 1.235259 5.503199 -3.326347 4.391873 -6.391841 -6.160267 1.53833 -0.821328 -4.567164 -3.588673 0.267885 1.676839 -3.605165 5.043172 2.990957 -0.37656 -1.267258 0.646817 1.18456 1.006938 -2.894139 -5.026454 0.416058 -1.6943 3.408452 2.697971 1.230121 1.169452 1.143123 2.809363 1.608291 -0.438548 -2.40129 -1.467407 -7.434693 -1.190321 -0.554066 4.557988 -0.554578 1.840422 3.272745 3.784567
Harvard 3.302487 0.899495 -4.655043 -4.084607 -0.728477 -2.827357 -6.384701 -1.816524 4.333868 1.263223 0.848006 2.993661 -3.188802 4.31431 3.018037 -2.010424 1.928285 -0.960048 3.60067 4.649337 -3.690836 1.523198 -0.856687 0.831123 -1.449414 -6.044887 4.229498 -2.054837 0.328638 -4.794537 0.81808 7.746526 -0.0021 0.489706 2.028363 -5.45645 1.603576 2.095676 0.213898 1.144981 -0.558942 2.730001 -2.283213 2.012437 1.239048 -5.750479 -7.298558 1.024731 1.453333 -0.326151 -2.672083 -5.485014 0.60743 -0.389905 3.262148 -3.113772 2.480688 -5.268332 -0.556995 -0.922903 1.035601 4.052544 -0.793342 2.386611 -2.904891 -0.258537 -0.409059 -1.687508 5.090091 -2.138831 -2.731562 2.874014 0.518713 -1.26023 -5.48015 4.669942 -0.318796 1.070638 -4.892728 -2.137911 0.847228 4.638828 -1.81783 -4.149302 -0.20052 2.114003 2.208053 -6.82005 -2.600878 -5.19175 -2.819893 -3.048996 -0.075011 1.262971 -0.319894 4.179296 2.229806 5.981593 0.605985 0.618758
psychology 0.344682 0.396331 0.044564 -1.5869 -1.062152 -0.566044 0.963958 -0.009662 5.630462 1.021739 -1.064326 2.225 -5.506201 1.96912 -0.037584 0.751411 -1.0028 -1.012572 1.662902 3.661554 -0.823452 1.469028 0.190606 1.854717 0.809273 -1.228767 -0.963654 5.218394 -0.140336 -6.538558 0.044075 6.888568 -1.530308 -1.387848 -1.400677 -0.976499 0.857765 1.877977 0.591123 1.672842 0.889345 3.317635 1.259857 1.495418 -0.221554 -1.131926 0.149549 2.194339 0.710107 -3.70921 -1.975574 -4.403192 -1.898664 -1.598113 1.359913 -3.323081 3.081267 -1.863903 0.994166 -2.914118 2.504183 0.90712 -3.379951 4.925407 0.591509 0.952289 -0.41392 -1.13518 3.449548 -0.114128 1.28128 1.050674 1.866858 0.735713 -2.589189 1.347488 -4.042734 -0.433069 -3.72643 0.85793 -1.608599 -0.690254 -2.656205 -5.973713 -2.166538 4.343001 -2.438447 -3.153177 -2.551558 -3.392263 -1.989371 -1.062177 2.483359 -1.24951 -1.090357 1.48617 1.294031 2.015867 1.603917 -2.269343
medal -3.221225 -1.879338 -1.316028 3.088444 -3.635698 -2.021695 3.58645 1.001909 -0.656783 -4.582563 -0.719236 -2.437313 -1.862626 2.441016 -7.590723 -2.926122 3.099358 -1.799096 -8.778533 6.008357 -0.083165 3.13135 1.880802 1.208342 2.75292 0.757655 1.870137 -2.515384 -2.773184 -4.48001 6.039453 1.673695 3.625347 -0.802811 -3.596847 -4.096607 -4.509129 -3.979954 -6.657057 0.458477 2.290505 -1.643726 -2.233974 3.149332 1.02422 -1.945117 -4.159305 -2.879349 0.782965 1.891478 3.037934 0.589774 -0.297448 4.275457 1.706091 2.657917 0.723007 -6.685205 1.883072 2.140244 -6.16764 5.337838 0.90754 -6.659895 2.196402 -3.06825 -7.910235 1.222758 4.48715 5.027779 5.59297 1.773996 1.699911 4.361572 4.275303 -1.80635 -0.269275 -2.382803 -3.029443 -2.239296 -0.643098 -7.031416 -3.340796 0.285809 6.918448 -5.019891 -6.178966 -4.448958 -0.969634 3.578398 -3.467803 -9.82126 4.571072 -4.716807 -0.208206 0.720935 5.893592 3.740299 -2.429088 0.029633
company 4.228745 1.936876 0.193179 9.849709 -3.053087 5.304266 0.85864 -4.437947 2.636514 -0.928003 -0.480552 -0.520312 1.395059 -2.984455 0.203491 2.082286 2.840127 -0.905498 -0.285221 5.172495 0.206216 4.587367 5.31835 4.156411 -7.833135 0.413481 0.65633 3.285429 -6.00115 4.43548 5.629341 2.239971 0.22086 0.340351 -0.574573 -5.866023 8.282676 -6.308956 1.993565 -3.499208 -0.940883 3.546489 2.388502 5.271193 8.428761 -0.771298 -3.765204 -2.498388 2.366904 0.274403 -4.331278 -2.17226 7.959449 6.118106 -4.832753 0.63494 0.992322 0.575092 -0.920414 -0.926586 -2.60543 1.433566 -6.361964 6.799211 -1.403308 6.578595 -6.551082 -4.540745 4.831945 -5.656671 -0.261941 3.402651 -3.275995 -0.054248 -0.801433 -0.465586 3.141498 -0.743398 2.099961 5.742056 -4.790155 -3.606113 8.489881 -3.760471 -0.781753 -5.687006 4.677153 4.141057 1.610155 1.415048 2.322653 2.336201 -1.192159 -3.095275 1.382005 2.597752 1.481504 -2.433736 0.609454 2.768749
live 0.879581 -0.231493 -2.805439 -1.259691 5.299535 -2.393652 5.583721 3.401897 2.306243 -3.795906 -1.974573 -1.327889 -1.682337 0.896217 -4.721233 5.297555 3.173125 1.238736 -4.768797 2.623239 -0.653857 -3.941957 -0.466075 -0.701405 2.009686 -0.080702 1.715497 -4.227213 0.687031 -1.123758 -3.268922 0.986462 -3.947934 -4.839892 3.651761 6.747462 6.575751 -1.227434 4.720814 0.269753 -2.35162 -4.516785 9.276163 -2.123567 -1.86429 3.919706 -0.32423 6.066516 -0.395664 -0.965988 1.045222 -1.076561 1.960155 -3.79299 4.325682 -0.679034 -5.858364 -2.570311 -5.0839 1.052763 4.268764 1.56328 2.51405 3.949327 7.824805 -5.439517 1.02042 -2.385825 0.413682 1.538656 -0.852954 -2.400275 1.448726 5.011719 3.331783 -5.470377 -5.420313 -3.165634 1.070709 4.658477 0.52548 1.741675 -5.300219 0.621254 -1.948433 -2.157341 -1.691409 -0.813287 -1.839413 -0.035709 1.291009 -3.774799 1.418705 -2.68547 2.971009 -0.465809 1.190132 -0.923317 2.694358 -4.431713
holy -0.967423 2.098724 -0.321084 -1.356544 -0.527 -0.992038 0.687406 0.966488 -1.970066 1.712555 2.867913 -3.610677 -3.465948 2.234033 -7.080977 -7.542123 4.889472 3.134017 0.940521 -3.594967 1.537809 -2.311306 -2.296817 0.338162 0.212709 4.768423 -1.740592 1.939785 0.417657 -5.22807 -1.258124 3.546506 -1.492411 -5.464733 1.864276 -1.636384 0.686354 3.462538 -3.22625 2.152346 -4.241568 -6.399812 1.116646 -3.598285 3.522441 0.400918 3.807482 0.227079 2.96376 2.645397 7.17379 -1.14361 4.787507 1.269265 -3.702147 -0.117261 -4.252057 -3.453617 -5.26936 -5.03124 -0.147619 -2.440354 -0.662227 4.031403 4.762363 -4.044429 1.039245 -4.638106 1.86059 0.319357 -2.33528 -3.575184 -0.61024 -0.930389 -3.354925 4.960286 -1.751684 -0.083214 -2.038821 2.876751 4.788758 7.022391 -4.265061 1.773009 2.960428 0.063672 -1.448385 -0.900552 2.064402 1.735198 -2.590267 -1.640501 -1.791514 -1.458604 -0.63572 -5.190403 -1.661801 0.834926 2.193334 -2.281525
ticket -1.786179 -0.641553 1.283517 4.833257 -4.907483 1.830532 1.160285 4.376611 -1.249009 1.793158 -1.480882 -5.045856 1.69975 4.111109 -1.892516 3.326424 0.324974 -0.290729 -6.607886 8.690852 -0.417079 -1.570965 -0.693543 3.22805 -3.643834 -0.161935 4.282527 -2.561544 -4.175953 1.058062 -3.925888 -3.984531 4.1147 2.213979 -0.971416 -3.088363 0.87537 0.416192 -2.168024 -5.910782 -3.228526 -2.689784 0.569092 -0.137159 0.09302 7.499729 -4.397048 -3.671715 -4.230922 -2.188419 -2.395339 3.450589 -1.858341 2.651998 3.023365 6.036489 -3.738913 -4.802141 -3.956395 -3.245437 0.107467 -2.6181 -0.262178 -2.043939 1.338808 3.828184 -2.691936 2.941512 -0.702238 -4.578473 -0.002951 2.397201 -2.476732 1.473572 2.757718 -0.341405 2.534824 -1.358448 2.624678 -0.095357 -2.693999 -2.402852 -3.458252 0.652463 4.967516 -0.448295 -3.217662 -6.256272 -1.220171 -3.285736 -0.573167 -2.62684 -2.533714 2.207877 -1.494143 -1.640507 -4.195015 -0.475936 -1.475402 3.200533
victory 1.535265 3.268951 5.567081 0.760337 -4.373451 1.223083 1.599321 2.420249 4.027139 -5.165736 4.018611 5.955901 -3.058788 2.732671 -3.646447 -1.763685 0.160624 1.839805 -7.477128 9.122543 -2.798386 3.694756 -3.841532 -3.913105 -0.097231 0.862672 2.354301 -1.19234 2.621244 -5.293222 2.768097 -1.891755 10.38317 4.196061 1.346253 -0.735201 -8.580894 -2.884702 -8.463196 2.464403 0.837988 -2.080697 -0.567247 0.23169 -6.037762 -3.125336 8.376551 1.952016 -2.59051 -6.972023 4.282751 2.229209 7.985633 4.002473 7.903265 1.764881 -0.806681 0.106705 0.371193 1.537271 -1.712522 4.057723 3.344552 -5.958934 0.213406 -3.123275 -5.509758 -1.543911 2.048778 4.044796 -8.750257 6.176064 0.95454 1.786409 6.499343 -3.164598 -6.457663 -6.893651 11.112916 -7.053933 -0.718263 -5.504877 -4.401481 -2.690438 3.600137 -4.464013 -1.866203 -0.00839 3.337253 7.73932 -3.889766 -9.644034 -3.573024 -8.506174 2.995129 -5.043196 0.765848 5.709955 -8.399132 2.672031
football -0.49245 -2.469558 4.883108 -1.947795 -2.819452 -1.397084 -0.308772 -1.358726 1.556409 -5.083726 1.908553 3.78071 -2.077328 8.457419 -3.885678 -3.879103 2.329921 -4.268605 -3.599048 1.298344 -0.324381 -0.463839 -4.533092 0.178201 2.675876 3.474818 3.473827 0.30867 -0.848328 -2.215254 -0.672971 -2.905903 -4.221002 -5.506781 -0.795542 -3.912505 5.078018 1.157734 -2.45126 -2.147167 -3.682864 1.009821 -1.575725 0.263876 -3.686778 3.405438 3.885204 1.491993 2.273032 -4.479818 -4.293708 1.824264 -0.695312 -1.936642 -2.831252 -3.069574 2.644301 -3.563195 -2.586231 0.338309 -0.562849 -0.021523 0.766773 -2.011335 4.635171 0.959161 -0.92389 2.642679 2.840881 -3.218958 3.93017 0.466495 1.260189 3.342477 0.8306 2.318347 -5.170537 -3.030174 -2.532759 4.302952 -2.819037 0.256068 0.736386 -3.442247 -1.341052 -0.587425 -3.112191 0.203922 2.87937 -5.418742 -6.67036 -7.404717 5.198263 1.002082 -5.024377 -2.181877 1.640782 3.120023 -5.107958 0.724878
seepage 0.22424 0.690006 0.284127 0.647843 -0.300767 -0.829588 0.130872 0.089766 0.136365 0.1422 -0.312907 -0.028891 0.385045 -0.718151 0.285458 0.163771 0.538977 0.732536 -0.546119 0.0977 0.077983 -0.437655 -0.113762 -0.036663 -0.199197 -0.404836 -1.610996 0.697015 0.221321 0.57971 0.72705 0.429789 0.34459 -0.319303 -0.945416 -0.254385 0.141096 0.493491 0.706884 0.377122 -0.21949 -0.054461 -0.790271 -0.569423 -0.302174 -0.008269 0.085459 0.330809 1.209441 0.362275 -0.281773 0.173298 -0.385718 -0.576896 -0.322413 -0.230583 0.68714 -1.035963 -0.520027 -1.378781 0.049695 -0.080333 -0.371764 0.106977 1.173284 -0.094553 0.143744 -0.301942 0.703809 -0.36847 0.887802 0.044374 0.521003 -0.120055 0.083336 -0.444394 0.557431 0.558279 1.235013 0.240194 0.092416 0.361717 -0.087927 -0.343305 -0.267171 0.384896 0.016059 0.350652 -0.257481 0.828095 -0.472127 0.670471 0.057766 -0.248662 0.328896 -0.027762 0.661048 0.321904 0.328583 0.804953
rook 0.202628 0.445277 0.124468 0.270895 -0.094056 -0.009549 -0.149783 -0.301732 -0.332661 0.666007 -0.091026 -0.647908 -0.205957 0.342665 -0.138352 -0.104396 0.079727 0.192084 -0.2544 0.02101 -0.16038 -0.553146 -0.104197 0.405452 0.187275 -0.315103 0.139685 0.335745 0.333089 0.14456 0.208965 0.04865 -0.27903 0.22183 -0.533535 -0.01849 0.118207 0.312124 0.318098 -0.121538 0.05935 0.058144 -0.046272 -0.035466 -0.475874 0.122562 0.718813 -0.220402 0.185329 0.086269 -0.071004 0.005625 -0.398469 -0.351128 0.242698 0.057124 -0.272124 -0.264847 0.032492 0.476299 -0.246546 -0.387369 -0.253245 -0.470757 0.308273 0.092433 -0.134961 0.154121 0.560336 0.248004 -0.286965 0.059375 -0.003036 0.15448 0.029343 0.241597 0.139609 -0.182766 -0.043308 0.306099 -0.448968 0.244084 -0.082098 -0.359108 0.289298 -0.282701 -0.446474 -0.420827 0.183555 -0.037583 0.065354 -0.30487 -0.598668 -0.261244 -0.096159 -0.08885 0.241524 -0.085403 -0.341106 0.023438
stroke -0.30802 -0.651261 -0.930102 5.63961 1.94647 -3.55445 0.615478 0.839057 -0.272441 2.4511 -0.806397 -1.804889 3.096031 0.499778 2.297978 1.213572 -0.271195 3.54645 -2.896041 3.432307 -3.817662 0.498452 -2.345912 3.28829 2.447357 -0.208807 -3.001009 1.795236 -7.75624 -2.474646 3.697185 4.495076 -0.100256 -0.547591 3.242023 1.619421 1.064695 1.025177 -0.886359 0.816605 -0.03414 -0.980103 0.760855 1.986636 -4.091368 -9.371737 1.005997 5.876322 2.340398 -7.984445 -1.936721 -0.74943 -3.261205 1.347375 4.76453 2.003457 -0.377704 -3.210943 2.500828 1.114234 -1.408264 -0.719334 -2.551658 -2.86651 -1.720034 -6.497962 -1.721553 4.197669 3.960037 3.903721 -0.928047 2.410144 7.304579 -1.67235 3.314516 -1.370035 -2.703965 1.212874 -3.760391 0.133891 -1.421034 1.519933 5.286656 -2.557723 0.43889 -7.403336 1.571398 0.100917 -1.095933 3.148059 -3.177749 2.467811 -1.30383 -4.900973 0.28402 1.4363 -0.706823 6.440866 -1.702971 1.503215
environment -0.141369 -2.106815 4.303612 -0.189921 -3.622931 3.350439 0.057068 0.058922 5.511241 -1.141801 -4.845395 -1.537707 0.202986 0.297326 -3.115171 3.278565 -1.251885 3.4503 2.100269 1.813063 1.884949 1.499866 -3.20035 -5.387995 -5.1985 1.589121 -2.829896 8.959693 0.393169 -3.923935 2.594574 2.160864 3.31562 1.17685 -6.28373 0.745235 1.404708 -1.82654 7.854285 2.683038 5.924855 -2.214786 2.790386 -1.496921 5.213534 3.205832 0.981204 4.680134 1.157015 -3.389064 -6.078523 -1.489359 -2.419951 1.023929 -1.958129 3.127498 3.142415 -0.627291 2.711125 -3.367158 -1.591853 1.761945 -1.971437 8.757062 4.022431 -0.014347 0.348637 -2.252005 -4.460583 -2.278145 3.416658 -2.288731 1.233482 2.907623 -0.957994 -0.150155 -0.381421 -3.889516 1.848753 2.957307 -2.697273 -0.818324 -2.620979 -5.856904 1.531412 -0.939075 -1.641966 3.240946 -0.00908 2.915887 2.76587 0.002714 1.180832 -3.117082 -1.961536 6.473539 2.927859 1.101325 2.20222 1.257573
coffee -3.59079 0.78791 -1.415007 3.127121 -2.21856 -2.348745 4.410954 2.876555 -0.866817 1.855406 -2.821317 -5.154219 -1.392593 4.222795 -0.17238 1.329283 4.803718 -0.333643 -2.987026 1.908977 -5.600833 -2.136615 -4.632042 4.459382 7.523451 2.42383 3.738639 -1.576107 -2.900152 -0.622256 2.308854 4.533453 -1.52287 1.042823 -3.478638 3.058986 6.667083 1.49665 -1.319881 -3.37558 -1.914928 -3.211226 -2.179858 -1.130139 -2.5279 1.871745 3.591288 0.499029 -0.919407 5.44856 -5.538606 -1.297208 1.113913 2.948462 1.407945 -1.396998 -4.813022 -2.391825 -2.495387 -2.633166 0.2897 -3.573116 -4.635098 2.849313 -0.465982 3.166175 -0.057897 -3.100202 -0.699516 -8.138918 -1.29271 -3.141593 -1.285517 0.225247 0.233639 1.75027 -0.084159 -1.413741 6.125443 0.744246 -3.384153 -2.29366 -2.954004 -1.0364 0.394219 0.90367 0.172122 0.959587 2.729178 0.754309 -1.238202 1.197017 -0.35077 -1.992715 0.628012 -2.921177 -3.417562 2.964966 4.013911 4.493415
baby 0.947479 -2.45811 2.975762 3.493248 2.644346 0.270071 -0.178593 -0.87545 1.599604 6.78646 -5.507924 -2.82543 0.500786 -1.405359 3.18391 1.999075 0.624985 -0.995416 -8.372013 1.536342 -0.689555 -1.727419 5.616882 4.143614 4.241327 -2.319584 -1.810091 0.258543 -3.404885 -2.334553 2.903702 3.601695 -2.488342 0.007293 -2.26201 2.849485 4.783539 1.912086 9.200367 1.758848 -2.28942 3.050164 -0.744533 -1.515913 1.330381 -5.907894 2.264127 0.219148 -0.762141 5.557064 -0.5003 -2.779527 2.377677 4.340831 3.291052 2.139473 -4.270859 -2.828751 -3.83368 3.359763 -2.863583 -0.367864 -2.073494 -2.863883 5.813762 -1.344347 -1.639646 1.473777 -3.461796 -0.785776 -1.089102 -1.503257 6.215562 -2.966546 0.435001 -3.489115 2.659265 5.878327 -5.370509 -1.339797 -3.697569 -1.550499 -3.252918 -4.212565 -1.837961 -3.606918 -4.623328 -0.374882 7.69777 3.441443 -1.665167 -3.015353 -3.163046 -4.731535 1.444549 -0.368456 -1.764821 4.067801 2.365335 -0.44903
personnel 4.137221 -4.332184 -0.262732 2.763832 -2.458285 2.939271 0.521334 -2.293895 -1.320304 -2.487475 1.631799 -0.023374 -0.171799 -3.342422 1.210302 -5.397479 -1.785284 1.936788 0.136921 -1.860288 7.629959 2.908798 1.413966 -2.147258 0.131344 1.18103 2.489762 3.618798 -1.733915 4.807788 1.424705 -4.975537 -5.609119 1.543698 -0.127279 -3.748977 -1.404181 3.321808 4.571567 -1.324913 1.189885 -8.500127 1.748643 2.278812 -0.609261 5.885135 -3.733096 6.352808 -1.665614 4.313769 -7.743475 -0.241735 0.578619 -1.836286 -5.262834 4.83514 3.867534 -1.787176 -5.935719 0.325403 2.175143 0.60959 2.058868 -2.562666 -4.053052 -1.220366 -1.488297 -1.300408 3.85651 1.419709 2.031444 -0.551445 4.271499 -1.7253 -1.746752 -3.3018 3.476463 1.250692 -1.700617 -2.727003 7.481745 3.561229 3.691386 -5.582402 2.002364 1.370297 -0.719059 4.638064 -4.474756 -0.51603 2.60314 0.834471 1.257434 1.533592 2.28497 -1.110749 -2.394303 3.643665 0.122483 3.001184
family 3.204635 -0.488424 4.433793 2.484753 -2.291552 2.830945 2.30034 -0.583739 -0.312333 2.229179 -3.260055 -3.440423 -2.380896 -1.349284 0.880231 2.758852 -0.200456 4.883877 -2.982064 2.135362 -4.935145 4.713705 2.114524 2.311402 3.250623 0.303342 2.735704 -0.215059 -1.179862 1.159794 4.521903 2.23634 -3.234629 -3.950705 2.139712 3.78883 7.109554 -0.653362 6.45373 -0.100901 -1.295301 -3.731179 10.427187 -1.1208 8.176692 -3.69751 5.230458 -0.553162 2.339928 1.117785 0.226574 -2.710828 2.954378 5.205408 -3.672737 -1.614051 -5.367844 -3.823897 -2.328595 3.498535 0.842336 4.676546 0.852535 -2.24006 4.296821 -3.003858 -1.405865 0.100329 -0.765734 -3.02178 1.396685 0.094443 0.528066 -3.497308 0.299176 -1.894135 2.897533 6.821949 -2.469684 2.68007 -2.586908 4.438402 2.035997 -6.969532 6.187694 0.680168 -2.066752 -1.215111 5.903046 -3.364799 -3.251033 -1.704276 -2.769011 2.519505 -2.240427 0.19762 4.562235 3.562742 2.942761 0.858612
hypertension -0.184466 -2.113265 -1.632602 3.031315 -3.880553 -2.022495 -2.48762 0.052876 -1.314479 3.641923 -3.945031 -1.296902 1.531094 -2.046465 0.987773 1.503327 1.246508 4.592443 -1.266671 2.114447 -0.404841 -0.170238 -0.659636 1.190218 3.052425 -2.97443 -4.236553 1.914181 -5.58288 -3.226613 0.162671 3.953905 1.222727 -1.259084 1.370835 2.756452 2.137147 2.659437 0.031632 -0.055546 2.093659 -0.20491 0.616388 0.042748 1.049473 -2.809646 -1.923095 2.077759 1.947474 0.676433 -2.399036 1.4857 -0.806763 -1.421056 4.132154 0.938429 -0.490943 0.57587 -1.465511 1.28096 -1.731212 -2.528635 -3.072679 3.845547 -0.607231 -3.991618 -0.306452 -0.427662 1.494789 -1.214424 2.130154 -1.466292 5.700664 -0.981221 -0.933912 -1.715479 -5.452142 0.560132 -3.83529 0.566366 1.48204 2.142004 5.095675 -3.208372 -2.413464 -2.678547 0.992936 1.893277 -1.574865 0.822111 -3.487357 1.71618 1.844504 0.177927 1.589314 1.896287 1.46233 3.312644 -1.159573 0.599269
president 3.628161 4.067401 -5.001748 -0.30973 -1.897468 10.377309 -4.01588 -0.501475 3.228829 -4.499151 -0.825357 0.428922 -1.321969 4.123112 3.963997 1.61227 0.991609 5.751285 -1.366286 2.02336 3.687704 9.039951 -3.016771 -8.929618 2.436118 1.828582 9.94848 -0.283916 1.593157 -0.831832 3.970905 -1.176603 -1.211675 -2.415668 2.805863 -6.162148 1.829719 1.781192 2.91713 -2.350432 -1.742281 2.149908 -2.949759 6.227528 2.331712 -3.979819 -5.90937 2.31007 -4.109559 2.441467 4.883276 6.928912 6.629606 0.438732 -3.579627 1.536442 7.269456 5.885325 2.700685 5.669227 -1.83147 -2.49192 -2.272062 4.734699 -0.529552 4.152226 -2.905199 -2.602725 1.529756 1.564599 -2.452283 2.015278 -1.435519 0.521359 -0.563524 1.936557 -8.140554 4.007714 2.818241 -4.740154 -4.890664 -0.969559 -2.517686 4.301229 1.396716 1.336629 0.810387 -4.31568 6.452471 2.113956 -4.676162 -3.170581 -3.102015 -5.875703 -1.156124 6.92887 -1.012943 6.074944 0.734586 2.801581
atmosphere -2.52142 4.463459 2.014354 -1.151124 -3.912754 -2.641336 -1.767158 8.861509 0.889492 1.158029 -3.26393 0.299544 1.151409 2.647952 -4.628371 0.967507 3.538853 1.487228 -0.33514 2.987608 2.317051 1.235697 -5.048707 -4.308487 -3.264975 -1.426694 -4.864859 2.626576 -0.058935 -0.486404 4.63804 2.295685 0.16517 -3.067731 -7.34569 1.946398 2.553942 -1.724356 4.03402 6.218026 0.562593 1.447772 1.266266 -2.007785 -1.982172 5.148622 -1.146417 2.635131 3.197415 -2.134401 -2.371181 -1.472919 1.012319 0.338466 -4.132298 4.460785 2.667501 -4.31069 0.232232 -3.53847 -2.833359 -1.092551 0.176888 1.203697 5.460054 -4.71745 -1.144331 -0.090451 0.664196 -3.33003 0.299224 -0.579054 -2.878894 5.788686 0.270751 -0.504758 -2.353795 -1.321571 5.437841 2.384562 -2.049938 -0.364601 1.09401 -3.182738 -4.445821 -3.146534 -7.10519 1.713913 2.182939 2.471051 -2.52671 -0.181378 -3.960987 -0.375066 -5.024611 0.464162 5.372148 1.549632 2.764899 2.940219
practice -1.806039 -3.174983 0.263332 -0.411403 -5.285825 -2.087995 -0.439274 -2.480367 3.159695 -0.839123 0.967942 4.655535 -3.29375 0.028556 -2.254523 -0.020819 3.703029 2.631552 0.767559 3.930554 3.920869 -2.303345 -2.416562 -0.952437 -0.599999 5.307099 0.909667 1.821065 -2.904422 -3.733074 -1.305717 3.27491 2.127773 -1.120447 -0.229867 2.527178 3.753244 -0.306006 1.941068 -1.865943 2.626687 0.474639 -0.470065 -0.700051 0.501889 -0.07153 1.260393 5.218232 1.037163 1.400562 1.003033 -4.849418 -2.764896 2.223596 -1.553984 1.869349 2.512421 -1.257677 -5.092441 0.718776 -1.204832 2.228151 -2.535521 1.481604 -2.892293 3.362564 -0.822103 1.575457 5.745159 0.560774 -1.984385 -0.938217 0.86655 -0.864286 -2.002497 0.475605 -0.858247 -2.832129 -0.697159 2.229831 -3.245239 3.194497 3.908976 -3.284507 -2.083357 0.471119 -0.39345 3.341182 0.230271 -0.19117 -2.738395 -3.739653 0.690441 -3.661223 -2.58755 -0.659053 3.534019 2.864384 -0.774715 -1.569661
movie 3.124972 4.865359 2.754266 0.346262 3.201701 -4.130641 1.133088 4.826489 2.207586 8.197278 0.970913 -2.975347 -0.275635 5.252527 -1.259145 3.499625 2.534401 -4.638679 -3.860793 2.414837 3.516264 4.575725 4.43271 2.720316 -0.06742 0.685575 0.428694 -1.387273 -2.811523 3.457032 2.960519 -3.649326 1.592278 -3.753747 -2.836332 -0.551225 0.964631 -0.764116 4.1194 -2.244387 -3.840884 -0.138343 8.478522 -3.27016 2.121789 -1.57419 -1.442392 1.815377 -0.179505 -3.551595 -0.085637 -2.581593 2.252401 -0.987408 -1.672771 1.685833 -2.070254 -6.333693 1.592938 -1.13644 -2.117091 2.465582 -1.02512 2.843556 0.16025 -0.86771 3.454218 6.207823 4.147753 -1.313927 -3.281548 2.065606 -2.003109 7.833899 -4.98946 -4.578019 -4.365566 -3.346606 0.346601 3.134973 -7.127728 -8.61754 1.026474 2.953557 -1.027736 -0.23361 -0.623712 -2.749159 6.053016 -2.272236 -1.164211 -6.30371 3.285773 0.117136 1.205614 -2.833819 -5.309257 -1.339658 0.306148 3.62932
popcorn -0.423991 1.560778 0.657484 1.758949 -0.099118 -3.692611 1.677093 3.175613 -3.112196 5.634318 -0.497121 -3.339317 -1.942147 3.03123 -0.281534 0.333674 1.868073 -1.491343 -3.035333 2.034296 0.456981 -3.229692 1.232623 2.37193 5.319668 -0.891849 -0.191308 -2.059437 -2.272696 -1.357134 2.917545 2.942713 -0.78279 0.931807 -4.403616 1.983859 4.158819 1.38249 2.976817 -1.576771 -3.258167 -1.343233 -2.280994 -0.96226 -0.443285 1.223885 -0.905312 0.253439 0.763863 4.299089 -5.485098 -1.901896 1.33628 1.576063 -0.632849 0.185076 -4.768341 -3.256092 -1.549652 -1.479892 1.2362 -1.608551 -1.865517 0.643386 2.118153 1.187597 2.60712 0.562407 1.73158 -4.699192 -2.605399 0.258479 0.286998 1.916978 0.152489 0.644641 -2.364818 -0.491674 2.214999 1.656042 -1.968956 -3.809288 0.530862 -0.279286 -0.530286 -0.118462 -0.740232 0.677092 0.326577 1.305726 1.159932 -0.741507 1.664965 0.864117 0.12495 -1.085683 -3.890534 0.202209 1.189234 4.42294
recommendation -2.32283 -0.643156 0.841997 -1.745653 -2.715688 1.322863 -4.359773 -6.094903 -0.396147 3.532038 0.557693 -2.751668 2.384215 -2.169363 0.675422 -0.867212 0.613897 5.496707 1.993288 6.693936 2.744582 -1.380834 2.225469 -2.869222 -4.814865 2.850104 1.076315 1.776902 2.558072 -1.12709 3.249485 -0.729863 3.733358 3.635483 2.676037 2.284539 -1.824071 3.543086 -0.10939 -3.379396 -1.756628 1.582504 -0.362175 -3.980275 -3.800296 0.568543 -3.323588 3.990376 0.286875 2.736037 -1.821718 1.762251 2.875073 3.100644 -0.192616 3.080756 0.200466 1.524196 -1.293817 1.234692 -0.70211 1.498134 -4.160589 2.464241 -1.163173 1.118896 -8.397626 3.182355 2.337479 -1.931736 0.368386 -2.81061 -0.909961 -2.667749 -4.867256 0.183992 1.247013 4.926697 1.374465 0.469801 -5.82493 -1.7722 3.08595 -4.739866 -0.118224 1.307722 -0.451239 -2.887756 1.307586 1.958062 1.458202 0.682288 2.249161 -3.611419 -2.147817 1.09836 -1.268425 -0.232539 2.952343 1.738298
focus 7.742708 -1.145667 3.480283 1.14203 -2.148361 0.528322 0.81214 -4.284537 -1.306044 -4.627729 -4.753381 3.705387 -0.566664 4.773395 -3.378157 4.86559 -6.217204 4.680808 1.704565 8.40628 -0.989512 2.755685 4.376154 -0.940155 1.50133 4.211727 2.686511 8.970891 4.603597 -7.990307 0.534924 3.868915 -0.155699 -6.636952 -2.114801 2.783252 1.815168 1.312502 -0.276691 5.307425 -4.853259 4.153897 2.719985 1.753534 -0.148986 3.048931 -4.753153 9.204379 -2.951431 -2.726473 -4.427434 0.096232 -0.857449 -2.641732 -0.996259 6.153678 -0.479902 10.426225 -0.415806 -0.103954 1.670465 0.485306 6.502059 8.903257 -2.092366 2.524884 -3.500216 2.55858 -4.669624 -0.77306 0.07559 1.793011 0.077333 0.245505 3.663299 -1.804409 2.998101 -2.614906 3.573855 2.680001 -0.588949 2.459383 -5.845801 3.677887 -3.500168 0.287933 -2.40799 -1.238827 -1.939713 -0.583219 0.26463 -2.567391 4.638026 -1.250744 2.702984 2.26275 -0.592088 -4.821772 3.440344 -1.648886
