437 500
plane 2.377874 -3.735404 1.189469 1.82359 2.45864 2.667323 2.476583 1.156946 -0.124104 -4.246577 1.246285 2.787276 -3.798218 1.278313 -1.014189 -1.520475 0.575408 -2.312063 -0.591204 -1.99465 1.94509 2.499896 -4.638535 1.742204 1.136555 -5.22475 -0.510596 0.244393 -1.469249 -1.63819 -0.195074 1.025108 -1.035982 -0.344374 -1.443509 -4.162389 1.265398 -0.218926 -0.760485 -1.164944 0.246931 1.242072 -0.381181 0.781122 -0.655229 0.161423 1.14497 -0.069012 2.483286 3.449733 -2.910874 2.284082 1.330615 0.707801 -0.713001 -0.132016 1.376586 -3.06469 -0.740641 -0.89226 -0.304997 0.933862 -1.358453 -0.157114 0.34663 1.859144 0.662244 2.29544 1.673068 -2.461528 -3.011951 3.508699 0.017353 -2.332062 2.639838 -0.250487 4.417439 -2.923714 -2.01718 -2.048843 0.120375 -1.531371 0.209677 -1.322059 -1.332163 0.703891 2.273295 0.166506 -2.975501 1.89149 -0.031692 0.675973 1.824891 -0.11283 3.375424 0.288376 2.022328 3.26455 2.325167 -0.513196 -0.266568 -0.07345 -3.488961 -0.712354 0.506999 1.679606 -0.581252 -1.400493 -0.633535 0.69026 -2.074683 3.515985 2.1767 -2.094284 -1.614666 -5.059653 -2.662858 -1.516668 -1.826519 -4.156333 1.16335 -0.509727 -1.575378 -0.337922 -0.269655 -1.819825 0.036412 4.149243 -2.566013 -1.332558 2.210367 2.141445 -3.907712 -1.354781 0.129096 1.322525 1.210642 -0.119961 -2.085138 2.686792 2.310704 -1.92351 0.339378 -0.674318 3.255365 3.201836 0.715496 2.379274 -2.351912 -2.816869 -1.874551 -0.591062 0.088805 -0.362264 2.540817 -0.78256 1.354734 -4.13604 -1.321507 -0.345008 -0.361871 1.68462 -1.165879 -2.439046 -0.709913 2.441833 -1.045239 -1.708091 1.323985 -1.063826 -1.343373 2.997232 -1.026741 -0.159945 -0.565414 -0.088719 -1.812939 -1.90547 0.308725 -2.587325 -0.382448 -2.523429 -1.136623 -1.441975 0.239124 0.332002 -4.372557 -1.208874 0.163587 -1.598212 -0.811815 0.516962 0.912413 -0.686991 0.614986 0.305556 -0.393362 -5.980558 -0.261352 -0.688095 3.538738 0.940513 2.950797 1.968356 0.075352 2.75492 0.860122 1.637991 -0.13942 -4.029673 1.326358 -3.27563 -5.895765 0.343868 -1.723171 2.551504 -1.707613 -1.406527 1.917853 1.941001 1.659989 -0.342779 -3.214626 -1.519307 -2.736182 1.226453 -2.980379 -4.631788 0.199105 -4.196658 1.882324 0.552503 3.843135 -0.481155 -0.931197 0.783134 -1.242833 -3.97697 -1.488078 0.454916 2.692719 2.91308 -3.262289 4.060193 -0.570353 0.73437 -4.058227 1.30796 2.687585 1.182079 1.168373 -1.362763 3.483695 1.608356 2.017882 -1.043453 -2.920133 0.237811 2.726492 -0.06394 -0.66335 -0.288658 0.134502 -1.075068 0.29283 -2.216365 -1.308051 3.302171 1.42511 0.315041 -4.043504 0.572699 -0.602476 0.73971 0.554035 -3.303315 -0.470734 -0.149664 0.404279 0.251466 0.823263 2.603209 -1.328936 -0.101555 -1.796151 -2.958897 -1.239943 1.970467 -2.079019 1.032002 -1.596806 1.874414 -0.521232 1.553059 -2.022948 -1.476956 -0.488768 1.413931 -1.568377 0.838015 0.544299 0.678121 0.869173 -0.236442 -2.12675 -0.007803 -6.130594 -0.234395 -0.369205 -1.540207 -0.505827 -0.985526 -0.472499 -0.794067 1.305512 3.654984 -1.181342 -0.539337 2.327824 -0.911732 -1.625386 1.895681 0.528372 -3.147061 3.574346 1.681247 0.518807 0.804414 1.142282 -2.891986 -2.378048 -1.537338 1.343165 -1.459438 2.799793 -1.398919 -0.996775 0.30844 1.109156 -1.720277 -2.44227 -2.098455 -0.563155 -1.623795 0.441241 4.007399 -0.092773 -0.566997 -3.03301 -2.232266 1.090552 0.604553 -1.120138 2.861577 -2.61539 -0.620341 0.653572 2.27193 0.940019 1.070072 2.510591 -1.15464 1.200493 -0.608436 -4.055534 -0.22385 1.046012 -1.247762 -4.180896 -0.347814 -0.198432 1.239284 -1.322553 1.888428 -0.245565 0.173744 0.74079 2.224814 1.729059 -1.001619 4.033733 -0.382119 -2.74199 0.332195 2.211349 2.073126 4.697001 -1.825428 1.937376 0.860858 -0.880556 0.66656 1.756253 4.542257 0.360564 -3.431785 0.471514 -0.938335 1.318485 0.158222 1.814138 2.528523 2.787916 -2.07665 0.392579 1.667247 3.09798 1.347602 -0.813208 3.206737 -0.975166 0.411426 -0.340648 -0.108639 2.212645 2.424731 -1.034279 0.12123 -2.369936 0.699347 3.099864 -4.45268 1.712768 1.122913 -0.349015 -2.893206 -3.489252 3.373871 -2.519003 -0.039617 -1.019141 0.9659 2.884697 -2.468295 -1.66067 3.357471 0.103172 -1.726536 -0.216489 -2.182084 0.978382 1.020118 -1.563284 -0.81325 1.246983 -3.224472 1.16888 2.038813 -3.018879 -1.000968 1.22512 3.232338 3.791968 -1.391114 -0.532654 -0.989406 -4.354557 -0.108412 1.505331 -2.12521 2.530963 0.312121 0.211521 3.879236 -1.409414 -2.723897 -1.380969 3.673202 1.286716 3.714914 5.079009 3.811372 4.570061 2.0557 -1.512385 0.506032 -4.518929 -1.095776 -1.455315 0.307316 -0.417097 -1.297607 -3.49193 2.497713 1.574763 -4.147362 -1.944228 2.918388 -1.720593 0.157331 -1.218057 0.621914 0.613056 6.174186 0.935143 2.768418 -1.54873 3.324988 3.005075 3.693959
stupid 1.877717 0.954943 4.241307 -0.194201 1.732713 -1.237064 -2.888299 -1.913806 -2.355129 1.237803 -0.963722 -1.650443 -1.167861 3.626843 -0.887409 0.220008 -0.72307 4.275599 1.113748 0.474664 2.055786 -0.257832 -1.013463 -3.840086 -1.277058 1.097197 0.741988 0.821145 1.381262 -0.532692 0.048306 2.883183 0.196924 -1.707617 1.690554 0.051738 0.400425 -0.275494 -0.78131 -1.856509 1.477183 1.16373 -0.153739 0.297963 0.635571 -0.70137 -1.408678 0.031741 -1.216361 -2.494429 -0.057124 0.914045 -1.578481 -0.414325 -1.669678 0.938147 -0.85384 -1.380975 2.397369 2.454216 0.485703 0.388409 1.424325 0.076853 0.015427 1.012759 -0.728498 -1.203154 0.311067 -2.100782 2.217551 0.426129 1.369246 0.794473 0.853031 0.212948 2.087947 -0.388825 -0.135114 1.274173 -1.354242 -0.559942 2.943059 3.324396 -0.135139 -1.03335 -2.491884 0.683259 -1.985676 -1.386134 -0.77229 0.935679 -2.145044 0.676244 1.58115 -2.895724 -2.254306 1.629538 -0.474073 1.841253 2.023201 -1.585233 -0.790979 -1.553148 -0.428908 2.326032 -0.665965 0.232547 1.204779 0.375458 1.115392 -1.017125 -0.370072 0.8498 1.49779 2.899651 0.997161 0.2808 0.98998 0.573033 1.313294 1.483431 0.11542 -0.421936 -1.395843 -0.700734 -0.77661 0.850533 -1.958882 -1.900637 -0.925848 0.253701 0.356242 -0.945779 -1.128903 1.922679 -0.990247 -1.004689 0.376175 -0.585198 0.303338 -0.138807 -0.092428 0.579355 0.523692 0.934259 -0.072127 0.381168 -0.077342 -1.432575 1.710944 -1.942867 -0.401625 1.420423 0.752935 -0.910984 1.912437 -0.991593 1.658512 -0.400362 1.020312 -0.900152 0.003411 -0.257564 -2.333718 -0.854497 -1.325115 -0.165635 1.034493 0.763554 -1.60821 -1.483143 2.503315 2.590813 2.240851 1.429307 -0.556657 2.019312 -2.970936 -1.930628 -0.574815 0.935217 -0.938256 1.328782 -0.281405 1.753312 0.412371 2.956924 -1.435367 -1.28299 0.199259 -0.493558 1.908768 -1.095229 1.144844 -0.112332 1.558919 1.631843 -0.1768 0.416413 0.873032 -2.396817 1.765848 1.334636 0.305236 1.183304 0.693082 2.52533 -0.129915 1.104388 2.211211 -0.822403 0.27693 0.852703 -0.796895 -0.409814 1.623031 -0.620918 2.894291 1.554127 1.872342 -0.216923 -1.820776 1.229578 1.779187 -1.092354 1.244236 -0.809194 -2.627567 -0.351086 0.74487 0.919761 -1.685086 1.014929 -0.563438 -0.691968 0.41224 1.852028 -1.332741 0.336759 2.04588 0.286918 -1.49379 1.360255 3.209394 -0.846521 -2.324418 1.820583 -0.539443 2.318366 0.403499 0.290523 -0.526082 2.565229 1.321115 -1.697006 1.181764 1.499431 1.216526 0.537102 -0.657448 0.290271 0.14214 -0.481395 0.133854 1.291343 0.524354 -0.957287 0.518867 -2.935188 2.560419 0.068756 0.722052 -1.147365 0.871893 1.73514 -3.674726 0.135022 -0.029584 0.843842 -0.319293 1.566768 -0.866698 2.935369 0.412613 -1.480963 -2.997094 1.848937 0.627869 0.557255 0.465898 0.168943 0.092963 -0.127367 1.076522 1.143419 -0.346294 2.038554 -1.177701 -1.155321 0.526454 -1.823537 2.046934 -0.065542 0.953381 -1.171996 -0.31565 0.432836 -0.865724 -1.28601 0.964008 0.04443 1.514558 1.537843 0.319691 1.426902 0.219922 -0.221728 0.815048 0.094747 -0.35887 -1.761807 -0.425506 -0.081989 -1.006987 0.743638 -1.441453 0.238155 -0.951516 0.09519 2.149099 1.06723 2.248434 -0.86186 1.278245 -0.32399 -0.896004 -0.243284 0.647757 0.74936 3.15456 2.668062 0.33094 1.230322 -0.564104 1.116637 -1.830634 1.109719 0.526188 -1.269401 3.867309 2.63096 -1.785555 0.669691 -1.569403 -1.595315 -0.169634 0.99856 -0.222305 -1.256946 -1.5341 2.945716 -0.573442 0.474944 -0.74323 0.617173 2.049978 0.040776 1.173306 -0.785718 -1.660394 0.576916 -0.697307 0.842096 6.77E-4 -2.119773 -0.917667 -1.177418 2.673059 -0.343605 -1.14703 -0.235215 0.814704 1.352846 0.537305 -0.768158 -0.262495 0.012287 2.980709 2.30597 -0.124972 1.845659 -2.099509 -0.984053 -1.045424 -1.479716 -1.132669 0.944397 -0.245481 -0.845712 0.379418 1.126536 -0.557359 2.42251 1.800623 0.225951 -1.315955 0.953332 -1.073614 -0.1436 0.320205 1.675743 2.169943 1.28136 0.2084 1.845943 -0.162625 0.487128 2.670178 -1.04259 0.775747 0.405037 1.57941 2.153864 0.0478 1.841749 1.247928 -0.758943 1.491234 1.085219 -0.151061 1.408226 0.729929 -0.483316 -1.8043 2.115574 -1.884685 -0.76909 1.135271 -2.109938 -0.017613 0.657668 -0.579519 -1.589188 -1.242082 -2.891941 -0.272949 -0.703704 -0.139485 1.825004 1.414846 -2.70288 1.001869 -0.282425 -2.456619 -0.71044 -1.964177 0.524425 1.125421 2.181969 0.682218 0.247467 -0.198737 -0.827864 -1.462164 1.870075 0.540082 1.554069 -0.447113 1.007667 2.954777 -2.864199 -0.128392 0.76537 1.257003 4.209562 3.568156 -2.145758 -1.053573 -1.226341 1.063397 -0.58611 0.171963 -1.979225 -0.949925 -0.929086 -2.569574 -0.647024 0.562959 0.193632 -1.814778 1.266857 1.401158 1.214531 -0.762514 -1.664194 -0.860593 0.889074 3.137911 -1.409954
egg 0.953559 -0.84377 3.947389 0.817263 -0.555598 0.965966 1.845873 -1.077891 1.172681 2.52983 1.910436 -0.396667 -0.560181 2.329689 -1.175256 0.941787 0.593213 0.646025 -0.733092 -1.886389 1.49164 -1.376666 -2.640246 1.845276 1.875558 0.31 -1.293894 2.960747 -2.057691 1.623158 -1.346885 3.266267 1.192479 0.292726 -0.294491 -0.5487 2.695484 0.197893 -0.975742 -0.838764 0.88834 0.117301 0.561671 -1.271202 0.517242 -1.599612 -1.738317 -1.925588 2.868864 -0.72487 0.191783 -3.386954 3.037469 1.938295 -3.052224 -0.622517 0.398848 2.294024 -0.962944 0.21878 -0.453405 -3.821831 1.746301 -0.940162 -1.032184 1.329862 0.204459 1.585836 -0.545818 -1.026463 1.48009 -1.140568 -0.614309 1.436896 1.758374 1.417702 -2.245426 1.280939 -0.945401 0.202756 -0.092971 2.197294 -3.121942 -2.067156 3.217131 0.6449 -1.531414 0.434715 2.433023 2.098539 -1.660012 -0.67897 0.465837 -0.487397 2.781581 -1.24227 0.002058 -1.018589 0.226665 0.920937 3.797537 2.511549 1.141451 -1.81051 2.515599 1.069135 -4.286161 0.679152 2.589173 2.230715 -0.740088 2.693055 -1.622034 -1.058159 -0.745257 -1.102328 0.967175 -1.668848 0.808191 1.28676 1.762527 -1.349456 1.184673 -0.594936 1.407406 -1.955666 3.253187 2.140588 -0.639721 0.577285 -2.277394 -0.47432 -1.36971 0.675014 0.768724 2.021327 -1.376009 1.416116 1.627007 0.326073 -3.532545 -1.048236 0.315186 4.757847 -0.173567 3.384168 -0.672072 -0.244131 0.377214 0.02456 -0.182128 2.521058 1.481806 -1.637977 2.499231 0.679245 -0.694482 0.228673 0.154461 0.067334 0.819732 -3.16396 -2.022016 -2.642147 -2.900607 -2.593296 -1.939561 -2.794074 -0.642307 -0.348426 1.141452 0.601671 -0.093086 -3.114791 0.299523 2.78246 0.095888 -1.210259 -0.069736 -0.963847 1.587311 -2.525649 -2.139944 -1.156978 -1.848126 2.075039 -1.143757 0.998642 -2.312925 -2.198056 0.806982 2.394322 2.330372 0.837516 -1.134417 -0.125637 0.451626 0.376042 -0.705614 -0.522792 -0.755067 2.411444 1.731471 -1.56032 0.169111 -1.388971 0.058823 -0.340718 -0.546601 0.482907 2.163903 -1.788861 0.441311 -0.554394 -0.07803 -0.692685 -0.472936 3.443874 -1.183767 -0.907457 1.236499 -0.45635 0.975214 -0.53918 -2.20279 -0.254675 2.017276 1.265393 1.478652 -1.782109 1.576472 0.394192 0.481635 -0.258821 1.25148 -1.794473 -0.817982 -0.338747 0.640398 -0.645915 -0.757089 0.051489 -0.411331 0.93461 0.776007 0.993269 -0.068781 2.781061 0.022565 -0.24181 2.418335 0.800823 -1.76082 0.019148 2.681201 -3.666529 0.174819 -0.01595 0.432415 -0.909027 1.987139 1.381661 4.140642 1.31589 -2.919877 -0.30189 2.170936 4.009995 0.334848 -0.298023 -1.567906 -0.650111 -2.607523 -2.123992 -0.109012 2.776652 -1.514673 -1.080194 -3.505639 -2.377303 0.328239 1.777336 2.13225 -1.637736 4.53426 1.470164 2.851519 3.158353 -1.372066 1.275649 -0.003522 -0.908168 -0.255663 -1.065646 -0.677956 0.816844 -2.14071 -3.498065 3.677649 -2.093402 0.374737 0.663649 -0.668285 -1.673383 -3.167032 -2.918644 1.685773 1.466024 1.283176 1.203174 -1.618866 -0.688828 0.658821 1.211813 0.824237 1.914544 -2.589223 -0.193843 1.130858 -0.695979 -0.315454 1.286081 0.933106 -1.497052 -0.23072 1.560308 -1.523861 0.974704 0.252023 -0.141642 -0.646163 -0.493808 1.127545 0.696126 -1.436022 -1.779122 1.075027 -0.09896 1.360871 0.469047 0.935715 -0.290012 -2.470083 0.760903 0.385595 0.05377 0.769822 0.188942 -2.354329 0.650251 3.143837 -2.171469 -1.860062 1.453406 -2.18021 1.945681 -0.466437 1.086123 0.343318 0.993192 -1.665607 -0.882899 0.433584 2.559716 0.131197 0.597335 1.682769 -0.394807 -1.147074 -1.307876 1.316886 -0.348777 -1.577011 -0.686125 0.644416 -3.721256 -0.851942 -1.895001 -0.091914 1.278476 0.452144 -0.078605 -3.08707 -0.971873 -2.107124 -1.806557 1.056465 0.399312 -0.795786 1.729591 0.843106 -1.357999 -2.55417 3.49414 0.434755 4.724125 -0.889663 -1.05061 -2.049381 1.847067 -1.839436 -0.638379 1.88325 -2.080625 0.632662 -0.234866 0.957956 -2.251398 1.313228 0.16925 -2.286929 -0.394627 -0.940275 -0.433531 -0.411302 2.145362 1.433289 0.496078 0.843761 2.561198 -3.18785 1.545641 3.085263 -0.189399 -2.413321 2.225796 0.74704 1.016866 -1.500804 1.202483 1.44827 1.116043 0.286927 -1.523707 1.32759 1.629081 -3.923138 -0.15192 0.752703 1.990491 0.719021 1.676685 -1.451087 -2.34227 1.254495 -0.020896 2.1027 -0.538883 -0.511097 -1.878871 2.229682 3.207998 1.82229 -0.973328 -3.132562 -3.340211 -1.731409 -1.938143 -0.686911 1.569371 -1.354892 3.918165 1.409703 2.777876 2.373613 0.613777 0.116995 -1.083058 0.478548 0.475793 -0.135984 0.571777 -0.524464 0.373736 1.184312 0.256406 -3.357183 0.082947 -0.209316 -0.063456 1.467057 0.632162 -0.21438 3.268915 -0.27855 -1.127727 -0.94335 1.950267 0.48562 1.757423 -0.686342 2.498211 2.877194 -1.789131 -1.221547 2.42573 -0.323953 3.184166 -0.813311 0.201829
year 6.599777 -1.985767 -1.295784 -1.722777 -0.810423 1.835061 2.531308 3.767586 0.477014 -0.732693 -7.128413 -0.846971 -1.268869 1.440009 2.261103 -0.219503 -3.089582 0.89901 -0.711626 -1.056284 2.478605 2.552457 -0.515317 6.125102 -6.576899 2.471794 4.112174 -3.317385 -4.213911 0.74682 1.928043 0.959941 1.427915 -0.838981 0.588285 1.872205 3.234824 3.725646 -0.532347 -0.211487 3.912864 -3.022441 -0.294843 0.880035 1.143759 -1.29577 3.183641 -4.777074 -1.157815 -0.060167 0.6506 2.028954 4.863263 2.898905 -3.420291 2.744433 1.819024 2.571984 0.298946 -0.491838 -5.820724 -0.790437 -7.117214 -7.704988 2.772742 1.61055 -0.2548 2.392468 1.121182 -0.72799 -4.954707 -3.567388 -1.328041 -8.599164 -3.261245 0.054293 1.608919 0.125358 -2.282745 -0.233825 -1.880415 -3.524584 0.223374 -2.106615 -1.737115 -0.016744 1.866285 -8.379494 -1.615152 1.247338 -0.078601 -4.396516 0.416212 -1.837562 3.901431 3.355064 2.625448 -3.206752 -4.31222 -2.070174 2.78107 0.986048 -2.260066 1.111549 -1.69492 2.485096 -4.562339 -0.775798 1.089673 -1.515389 -3.205642 1.113806 6.820526 1.059258 -0.407123 -0.290136 2.200733 -0.98672 -2.797102 0.071157 -0.403268 0.067602 -3.626047 1.465539 9.993542 -1.550196 1.513866 -1.961439 4.099105 -1.239599 -1.631993 1.887334 -2.543497 2.946839 2.001729 1.011577 -6.604078 -1.999816 2.187457 -2.955547 -0.556598 1.141844 2.644506 0.96782 -0.837905 -2.428438 -0.015222 1.060224 1.024753 -3.739601 -3.626894 6.781406 -1.499589 4.467748 0.811998 4.033782 -2.925394 -0.603978 -1.088993 1.579045 -2.69173 1.444373 4.349069 -2.393574 -0.246739 -2.35921 -1.475588 1.114681 1.617876 0.7902 1.75378 4.909161 0.258666 -5.243151 -0.438075 -4.645618 2.72824 -4.037357 -0.555411 -1.650154 -5.875477 -2.897069 -2.219983 5.752861 -1.278925 -1.796838 4.471301 1.496672 3.561114 3.651088 -0.294687 4.168645 0.748227 2.448998 5.183986 2.149935 1.345403 -0.485182 3.476844 2.181452 3.142553 -3.449915 3.485224 -1.574215 1.750573 3.610587 -3.860631 1.567533 -0.181862 -1.264678 -3.138884 -4.075695 -1.723858 -1.032213 -0.759879 3.801373 0.831885 -2.952652 -0.595338 1.248616 1.516555 1.455973 -1.979342 1.448062 -5.196385 3.578661 3.66464 -1.524149 0.091988 2.83736 0.619336 5.431009 -0.296871 -0.934723 5.332454 -2.589525 -1.4808 -2.900711 -0.599732 -0.843565 -3.595202 -4.066302 -0.905314 2.907354 -2.755283 1.264644 3.337754 -2.452832 -2.605455 -2.531918 -0.620551 -1.088488 -2.618706 0.810082 -4.620867 1.075572 -0.651517 -1.956805 1.466815 -4.014825 -0.426573 3.499143 3.144655 -0.963478 -1.259115 0.139646 -1.946257 -3.042504 -3.920898 -4.182578 1.260127 -2.229908 1.100468 2.323274 -1.637468 2.065071 1.554738 0.018772 -2.763437 2.516261 3.26787 1.045686 -0.141373 5.236803 0.616123 0.481382 -3.116644 -2.814723 -1.960648 3.250593 0.953683 -1.54649 0.175217 -7.233127 -7.509477 0.603864 -1.394791 1.796348 0.301782 -2.131981 4.787403 -0.308795 1.399685 2.063253 -0.366517 -2.862059 6.413955 0.02001 1.513088 1.103379 -0.79687 -2.754002 -5.303091 5.883781 -1.706498 -0.684781 -5.01446 -2.774054 2.655423 0.02595 -4.218163 -3.340405 1.220273 1.043804 -4.038111 0.425459 -3.85113 -2.043356 1.263067 1.32717 -3.422416 1.456999 -0.108982 1.174854 -0.815894 -1.262807 0.731848 5.093131 -5.867361 -3.296001 -1.224027 -1.049241 -2.526328 -0.276784 2.087561 1.306401 4.028948 -5.617752 2.590925 2.534659 -2.296822 3.752175 3.222606 2.252761 3.923314 -0.656091 -2.659058 6.444073 1.866579 0.805844 -0.414114 -0.85699 -1.003287 6.395985 2.197691 0.202119 -0.681124 0.429358 -0.18139 2.65755 2.959088 0.218848 0.478134 -1.672152 3.112059 -3.328724 2.22543 -0.747346 -7.749261 4.157057 3.027104 1.261847 -6.218971 -4.642114 -0.093787 2.136626 2.382885 2.721294 -1.664324 -4.047562 5.423671 -2.483789 -0.011055 6.316674 2.016343 3.568772 -6.892562 1.947749 3.808883 -3.834882 -1.310881 -7.218224 -1.692701 -3.103697 4.071139 -1.312924 6.034644 -2.712073 -3.540758 -2.288684 0.898526 -2.689051 4.324721 -5.78921 1.811449 2.537619 4.631135 -1.800524 0.71425 1.063787 -1.84173 -1.902387 -4.163917 3.349171 -2.334923 -0.184577 1.950401 0.654614 0.572732 1.438877 -2.906074 -2.50083 3.272754 -1.029033 1.347395 0.298762 4.233345 4.186943 -1.479557 1.576171 1.784405 3.349023 3.771992 1.571942 -2.252125 3.778174 -3.053047 -0.168765 2.75496 -4.927707 -1.326733 1.639114 -2.929912 -6.925188 2.896639 2.376889 -0.185472 -5.191953 2.167721 0.3136 0.693245 2.54045 -2.314692 6.222212 -1.369526 0.575463 2.014574 1.146111 6.488294 0.264759 3.253258 4.142761 3.423858 -3.324414 -4.792242 -0.849587 -2.681886 -4.728028 0.577673 4.457571 -2.278143 1.166827 8.889866 5.09961 -6.325602 -3.958082 0.741904 -5.343285 4.244024 -0.534905 -2.877959 -3.555637 -2.851848 4.234689 2.220196 1.229996 4.38531 6.283399 3.046311 0.876344
psychiatry -0.991762 0.038811 -0.265487 -1.131192 -0.466884 -2.425782 1.049664 -0.523377 1.783513 0.760425 0.983892 -0.108856 -0.17072 1.221725 2.081657 1.620477 0.027003 0.139343 0.271821 -0.048779 -0.157933 -0.39871 0.122132 -2.540976 -2.625352 -0.1352 -0.414917 -0.410488 1.055052 -0.331758 0.969569 1.132036 -1.038846 1.078449 -0.026977 0.437225 -0.841098 1.842182 1.392654 2.014719 1.486311 -0.253551 -0.107985 -1.185854 -0.076974 -0.084535 0.706877 -0.105563 -0.306651 -1.388052 2.100598 0.244512 2.480142 1.06778 0.17876 0.664486 -3.223764 -1.783741 -1.653962 -1.995854 1.678665 0.198562 0.35976 0.326822 0.947495 -1.069942 0.285188 -0.683971 2.841249 1.333794 -0.421385 1.350142 1.469168 -0.172728 1.08668 1.605431 -1.507915 0.913471 0.459899 0.214624 -0.231815 0.446986 0.079018 0.947004 -0.111936 -0.4382 0.691646 0.131818 -0.546868 -0.005829 -1.209772 -2.593711 0.300146 0.557921 0.035348 0.435206 1.01088 -1.826733 -0.101962 0.692023 -1.31304 -0.330834 1.088613 -0.612432 1.960895 -0.114185 -2.6165 0.076107 1.216053 -2.725917 0.956165 0.238656 0.530074 -0.561732 -0.365764 0.767901 -2.559554 -0.339755 0.970324 0.232282 0.731837 -0.216334 0.476354 2.234343 -1.951948 0.587719 -1.689031 0.442218 1.280396 0.371363 0.276351 0.840436 -0.553 -0.607958 1.340115 -0.922046 -0.40946 0.656114 0.630202 0.695365 1.201421 0.42995 1.462506 -0.43104 0.907303 1.81121 -0.627431 1.418465 0.982556 -0.81397 -1.682736 0.629264 -0.142653 -0.006438 -0.622085 -0.607389 1.022663 0.370449 1.040355 -0.257479 -0.343934 0.675686 0.664383 0.158707 0.431476 0.06889 -0.586812 -1.026346 -0.762949 -1.251662 1.504637 2.024483 1.30985 -0.352438 1.447834 0.394074 -1.410027 0.65825 1.067864 -0.217558 2.29808 -0.970927 0.227763 -1.27128 -1.036823 -1.114755 -1.167459 1.254644 -1.060181 0.55183 -1.550402 1.003849 0.920007 1.007968 2.46512 2.910325 0.68408 -0.035557 -1.55515 0.872378 -1.577465 -1.105559 1.672614 -2.648004 0.340896 -0.132382 1.855708 1.817621 -0.548641 -0.211178 -0.122719 -0.661845 0.690338 -0.947361 -0.399453 1.900253 -1.578932 -0.463229 1.692508 2.665614 1.641313 1.811282 0.711479 0.172273 0.199965 -1.615273 -1.978391 -1.30227 -0.842687 -0.340032 0.450332 -0.524567 0.442653 -1.628961 0.711524 -0.530328 -0.699913 -0.224696 -0.19184 1.562409 2.136512 -1.550607 0.284279 0.337478 0.015906 -0.300395 -2.492033 1.107782 -0.6403 -0.210718 0.406898 0.46824 -0.5635 -0.573774 -1.076093 1.379523 -0.508797 -0.317285 0.44082 0.522309 -0.884989 1.331319 0.100638 0.985672 0.329523 3.790893 0.852267 0.720699 0.082776 0.260259 -1.125155 -0.788347 0.789223 2.638087 1.200421 -1.691002 0.799336 0.490409 0.289391 -0.238418 0.573653 0.058011 -0.214654 2.524812 -1.633531 -1.699689 2.830678 -1.159466 2.352458 0.443123 0.416669 -0.255117 0.81193 1.763518 0.776461 0.213201 -0.832341 0.313942 -1.246323 -0.526036 -1.885081 -0.590479 -1.785964 -1.361045 -0.913974 0.412847 1.841536 -0.471267 0.910226 0.154742 1.729844 0.286389 -0.234626 -2.512895 -0.336245 -1.18113 -1.165422 -0.683445 0.965221 -1.210344 -1.416664 1.427002 0.263038 0.03428 -1.910198 -2.004763 -0.418741 -0.248026 -0.963163 -0.154344 -1.468164 0.238608 0.40713 0.779192 0.217179 0.289562 -0.074368 -0.067681 -0.257761 -0.249504 -0.807629 -0.696395 -0.157583 -2.167082 -1.860357 -0.850834 -1.823914 0.413631 0.355872 2.277432 -1.280453 1.514911 -0.079156 1.046117 1.391775 0.483466 -0.279194 0.597058 0.110577 0.468191 0.684451 1.571814 0.307399 -0.294416 0.268798 1.431495 -1.198119 0.924741 0.437304 0.914793 -1.29458 0.293211 -0.706422 2.248892 -3.204734 0.105741 -0.620303 0.754936 2.739922 0.135511 1.540053 -0.311351 -0.966271 0.981565 -1.406037 -0.838292 -0.142378 0.823689 1.332082 0.575817 -0.01836 0.008948 -0.50197 -1.434755 -1.111154 0.492478 -1.360969 0.085526 -1.917882 0.560722 -0.571533 -0.704963 -0.87181 0.156843 -1.073322 -1.007188 3.016641 -0.192853 0.246509 2.598461 0.090171 0.672765 -0.780044 1.757182 -1.123758 0.232366 0.100793 1.568379 -0.092722 0.614698 -1.792055 -1.577952 -1.695062 -3.77089 -1.074516 0.719457 -0.186799 -1.163417 -1.526991 -0.270383 -0.427129 1.900146 -0.015674 0.219319 0.421022 -4.446271 -0.325823 -0.405805 -0.137075 -2.061603 -1.313639 -1.57175 0.556895 1.524158 2.126524 -1.189443 0.273557 -1.458882 1.263395 -0.418783 -0.423974 -0.266651 -0.407968 -0.635902 -1.182788 -0.998392 -2.35977 0.434653 -1.403983 0.390663 -1.057401 -0.36809 0.096363 -1.712287 -0.937096 -0.228508 -0.085099 1.004103 -1.780848 -1.464653 0.775626 0.627864 1.145929 1.79826 2.827016 -0.075998 1.997328 -0.953253 -0.735861 -0.95062 1.87122 -1.14572 -2.135756 0.086205 -0.881799 1.554008 -0.816088 0.380731 -2.215001 -1.529169 1.555046 1.173254 0.90127 -0.783493 -1.997531 -1.150104 1.615004 0.196703 -0.779346 0.150699
asylum 3.063297 0.19421 -0.745883 0.683434 2.446865 1.388113 4.103209 -2.203739 -3.291776 -2.482301 -0.620956 -2.502503 -1.430789 3.364807 -0.241791 -3.480671 -0.568887 1.423913 0.180192 -0.163957 0.416549 0.032041 -0.068257 0.113816 -1.374797 -2.350857 2.589184 3.572303 0.179163 2.919081 -3.75123 0.949947 0.279948 0.272944 -0.698349 0.868022 -0.360523 -0.537958 0.538137 1.805596 -0.617396 4.716633 -1.195689 2.064255 2.180617 1.513186 -2.769267 0.292626 0.53715 0.492775 -0.686508 2.493221 5.626719 2.479732 -0.317751 -0.530894 0.35228 -4.882695 -0.2827 -3.964056 0.806877 4.165646 0.776886 -0.297926 -0.313687 -3.361435 -3.46186 -3.106934 -3.01118 0.791369 -1.242554 -0.142213 -0.042331 -2.043209 0.290083 -0.924549 -2.075272 0.3333 0.101814 -3.543628 3.881128 -3.259469 3.575732 2.681604 1.194503 -1.307147 1.612083 -3.094369 -0.299232 1.000443 0.747311 5.64E-4 -0.543554 -1.40663 0.817249 1.06426 -0.843852 0.652782 3.628467 -2.379874 0.032163 4.34059 3.295849 -2.366444 0.032171 -1.803044 -2.236789 2.975891 1.388898 0.304071 -1.243397 1.97177 3.243385 1.516346 2.391081 -3.896591 -1.421507 1.647128 0.210695 1.754288 -3.14825 -0.869913 -3.734327 -1.962228 -2.028018 -3.884009 -2.236835 0.50929 -2.187983 -5.395699 3.615499 -1.692783 -1.330473 1.664858 0.35562 4.619258 -0.466703 -0.847133 -1.537124 0.126824 1.292022 -1.150738 -3.95568 4.632429 -0.303533 1.640048 0.384074 -1.983042 -0.348002 1.204001 -0.915756 -0.887062 0.621564 -1.084671 -0.287776 -3.472292 4.362044 -4.32782 -0.372995 2.142765 -0.693566 4.838156 2.816219 -3.017382 -0.176579 -0.535946 0.559866 -0.232503 0.095232 -0.769718 -0.325673 5.512099 1.637362 -1.816262 1.759677 0.926401 -1.230834 2.257578 -3.310916 -4.869429 -1.640439 -2.548956 0.597632 -3.044468 -0.078991 2.788362 -5.928104 1.165478 -0.808446 -4.656955 -2.258652 -0.610359 -0.752688 -0.194693 0.196898 -0.68156 0.868491 2.185087 -1.155583 -0.359198 3.232583 -1.848119 3.581891 2.911263 -3.089314 -0.958478 3.456448 -0.446463 5.279158 1.36887 -4.247329 -5.593962 0.022379 2.472503 -1.814137 1.133862 2.836068 1.290424 -0.508757 -2.10582 -0.029778 2.118805 -0.458985 1.899497 4.176155 0.363081 -1.413695 -1.232575 0.449852 -1.345951 2.985803 1.395469 1.061712 -0.4172 0.359308 0.950542 -1.673453 1.55159 -1.630102 1.461291 -1.37934 -1.615017 -0.304623 0.854498 0.284436 -3.223712 -0.301115 0.68035 0.186887 0.901592 -2.481242 -5.417384 0.811112 -0.541101 -2.054408 4.483734 3.235489 -4.165854 -1.562768 -4.601556 1.171223 -1.559294 -2.81713 0.741728 2.540351 -1.537159 1.116644 -4.121686 0.408854 -0.075516 -1.111867 -0.06341 -1.259428 0.519681 -4.659131 0.202516 -1.764809 -1.976568 5.837899 -3.316994 0.511759 -3.361479 -0.055163 0.032368 -3.264135 -1.072376 1.641546 -0.488805 -2.947606 3.950761 -0.096498 -1.232334 -0.761291 0.025238 1.744049 0.043912 -3.011035 -0.901795 3.601427 0.991854 2.631016 -0.422041 -1.349203 -1.839309 -0.070823 -0.183854 1.341483 2.150937 -6.276771 3.014078 0.640027 1.979929 1.342472 0.176696 1.73297 -0.892227 -4.354199 -2.351006 1.276693 -1.327989 -2.349929 0.047784 -5.008544 -3.267418 -3.183756 -1.680464 -1.249637 1.387041 0.034085 -0.322371 -2.181105 -1.863006 0.703761 -2.66072 0.189966 -1.409862 1.341206 0.796079 -3.281867 3.295982 -1.048797 -1.827569 -0.15899 1.055161 1.279325 -0.025547 0.304327 -0.183745 2.416085 -1.993376 -1.152514 1.020826 1.567171 -1.205959 2.186898 -5.161798 0.207909 0.734707 -0.42295 -2.755063 -1.504718 0.682193 -0.940332 0.955023 -0.189204 1.732792 1.735548 -2.305719 0.34002 -1.276662 -0.129233 1.891936 2.750726 -2.484805 0.518721 -6.366572 0.49856 -1.078152 -0.046782 -0.14533 -1.265558 -1.675671 0.515499 -2.235596 0.422769 2.137677 -0.965518 2.125782 -1.310771 1.86563 3.533956 -2.441113 -1.929454 0.117285 -0.228892 -2.381451 -3.381626 -1.619783 2.567419 -0.967302 0.693555 4.132408 3.189929 2.095622 0.134488 -0.026324 3.362137 2.077553 1.862241 2.251847 -2.135027 -1.181116 -0.53761 1.798575 2.414541 -0.859511 -2.535339 -0.832194 0.095479 0.659139 -0.845237 0.301216 3.034652 -2.608881 1.896504 -0.925108 -1.548633 -2.569643 -0.831296 0.22491 2.290638 1.3014 2.698313 -1.015769 0.061156 -0.940591 0.315905 1.19716 -3.140026 3.219489 -0.499137 -1.471905 -4.961927 -2.125168 -3.738363 0.272823 -0.382104 1.280554 0.026226 -1.235941 1.234024 -0.840224 2.534938 -1.826377 0.26994 0.279012 2.645056 0.437435 0.65238 -0.311383 -2.690797 -2.267849 0.741879 0.766508 -2.085569 1.686258 0.461369 0.633082 -2.341216 -1.156264 -2.336552 1.974185 -0.330319 -0.672108 -0.164063 -3.535896 0.889037 2.456746 -2.468324 -0.999396 0.590936 -1.514675 -2.196751 3.951729 3.220775 0.404184 2.364862 2.606627 -2.263977 -2.273024 2.05495 0.128027 -2.442161 2.765061 1.640437 -0.744813 0.113663 1.948891 -1.588173 -0.304274
manslaughter 0.478218 -1.14411 3.129634 -0.982977 1.942518 -0.263074 1.837316 -0.700042 0.225823 1.305135 0.648588 0.05971 3.098686 1.882578 -2.76744 1.601265 -3.745995 -0.200515 -1.728215 -0.390114 2.061282 -1.968058 -1.456481 2.711361 -0.145923 0.33894 -3.707154 1.119056 -1.042369 -5.191626 0.479084 -0.218394 1.013262 -3.740041 2.729957 0.709112 0.166874 0.431297 1.62726 -0.612718 -1.627646 1.175324 2.083319 -0.1341 0.881676 -3.19074 1.048648 -0.618821 1.124685 1.74226 5.5829 2.272676 0.678656 2.350613 3.170341 -1.375739 -0.991582 -1.618721 -0.444099 -0.182342 -0.515039 1.066832 -1.067185 0.560764 0.121694 -0.829333 -0.25474 2.876449 2.425184 1.904713 0.313081 -1.757752 4.242957 -3.458876 -1.06612 -2.97815 -0.589823 1.015193 -0.693579 1.656245 -1.377351 -1.206529 3.650517 -0.717598 -1.508258 -1.025815 1.417081 -1.395534 1.922679 0.951659 0.811314 -1.563845 0.484948 -3.623413 3.494745 -0.897193 0.939977 0.341199 -0.813288 -1.473627 -2.332265 -0.615977 -4.115861 -0.593674 -0.149992 -0.503267 -0.599338 -1.954293 1.971858 -0.429454 -0.24134 1.7974 -1.466524 3.486963 1.874902 -3.280763 -1.215256 1.307364 -0.158035 1.648247 -0.166252 -0.972606 2.371511 1.249063 -5.236772 2.444633 -3.436108 1.004139 0.492619 -1.625946 0.102859 -3.638508 -0.723933 0.337003 -4.859341 -0.198187 -1.387558 2.046376 0.807866 -3.837328 -1.614618 0.979224 -2.331914 1.494103 0.512992 2.273504 -2.291663 -0.939695 -1.592589 -0.371391 -2.774298 0.504726 -0.705516 -1.652353 -2.093284 -0.212379 -1.481784 0.009314 2.160742 -1.219311 -0.16286 -0.166477 -3.163823 0.389983 1.636325 1.741312 1.96734 -3.691579 -1.526777 0.361581 -1.930576 -2.070439 -0.513638 -1.821485 0.207038 1.601738 -2.502242 1.552847 2.225764 -6.043694 -0.931091 1.243967 0.566144 -1.980598 -3.530567 -0.78571 1.977562 -1.929637 -0.50301 -1.230382 0.793197 -0.272116 -0.616243 -0.057827 0.762635 -0.028517 -1.187664 0.81554 -3.206924 0.86013 -2.16325 -1.610249 2.355848 -1.600868 -3.387252 0.924326 1.036808 -2.200518 -1.957074 -0.03642 -0.70424 -2.052723 -3.706664 0.540793 -0.010419 2.62257 0.224661 0.268308 -2.278536 -2.664252 1.679444 -0.739548 1.789889 -0.892375 2.286937 0.370084 -0.656145 -4.650975 -0.099013 -1.096856 -0.610116 0.550869 -0.138531 -1.057264 0.192568 2.093145 -1.301561 -0.226522 0.514159 0.248243 0.472919 2.711903 -0.615167 0.89479 0.004551 0.190257 -2.412027 2.096092 0.640674 -0.140687 -1.161866 -0.949429 -1.219548 0.558435 1.658964 3.811986 -0.849708 4.539656 -2.785335 -1.867882 -2.381736 -0.262531 -4.188009 1.992041 -0.677015 0.704403 -0.770988 -1.81629 -1.657367 -0.841231 0.181453 1.072518 1.783756 0.403379 -3.062366 -1.69184 -1.100474 -0.658996 2.581812 3.595403 -0.302092 -2.311593 -3.464739 -1.155822 -0.740865 1.69538 0.803778 0.969367 -1.394962 0.741791 -2.696083 -0.505594 1.38142 2.780424 1.478923 -2.726409 -2.751278 2.202505 1.30695 1.373876 -0.341843 1.074489 -0.138962 0.194065 -0.582633 -3.339703 -0.892215 2.130178 2.553485 -2.587092 -1.486362 0.239083 -1.556228 2.282873 -2.117669 -0.804728 5.456293 -0.404892 0.964772 -3.509341 -0.063044 -1.268349 -4.223118 -1.706498 -2.42906 0.440933 -2.877331 0.116893 -3.471783 1.690759 -1.50882 -0.200368 -0.544022 0.103636 0.684042 3.340403 0.172528 -1.191191 -0.227878 0.756016 1.799238 -2.562347 2.744299 0.987752 -3.267637 2.429989 -3.282237 3.43363 -1.812454 0.054023 0.253708 0.138073 1.278181 -0.205801 1.343715 4.416606 0.207009 -1.91583 0.303031 -1.38375 0.215308 1.151355 0.373706 2.077621 -1.523643 -0.193336 2.229279 -1.225594 -2.813551 0.187832 3.367061 1.32327 1.757702 -1.754497 -1.607429 -2.623116 0.756596 -0.038808 -0.09091 -0.236062 -5.961119 1.806846 -0.13704 -0.753384 -0.611722 -0.030759 0.963151 2.365781 -1.733693 0.415495 -0.157101 3.060846 1.041081 -2.308642 0.489053 0.4754 0.480646 -1.741372 1.301701 2.032471 -2.203118 -0.25073 0.02401 -1.649866 -0.813942 -2.220119 -0.401154 0.956476 3.17264 1.494431 1.39403 -1.560926 3.329821 1.359625 0.082643 0.912603 0.465121 -0.712733 0.892472 3.555206 -1.31738 -4.362967 1.458375 -0.757574 0.430576 -0.817197 -0.207084 1.206418 -1.499097 -2.939817 -1.76573 0.964574 -1.345568 1.534355 0.193346 -0.482491 -0.226822 -1.518685 -0.738767 -1.520668 -2.215701 1.394454 -2.619338 2.254123 1.080375 2.28277 -0.908554 -0.026664 0.744577 -0.981814 -1.038889 -1.889529 -0.13286 -2.192643 -0.550628 0.838005 -1.730167 0.684689 -1.080586 -2.102456 -1.526146 0.004313 3.70478 1.523588 -2.738888 2.739832 3.080509 3.369371 3.347641 0.100218 -1.110293 4.330388 2.031156 -0.163753 -0.459311 0.215631 -0.325792 -1.618282 2.530597 1.003122 -0.262869 -1.448962 0.165843 0.72672 -0.764311 0.752646 -2.814919 0.953593 0.240449 0.867423 2.38718 -0.832268 -0.398611 3.388426 0.656104 2.05512 4.36437 2.763645 -0.748142 0.321797
music -0.524163 -1.634852 -2.676539 2.128541 -1.55626 0.787987 -2.103612 2.016598 -2.557756 -0.360662 0.136806 -1.513227 -1.445605 3.987439 0.056129 -1.066967 -0.243792 0.967016 -0.2946 -3.172068 4.348841 1.150611 2.089669 1.098007 1.500972 2.604178 -1.287809 2.830503 -0.761591 0.297608 -2.873521 3.908654 -1.198595 2.159826 -1.716387 3.838174 2.572556 2.854845 0.765471 -0.649905 -3.063613 -0.424368 1.694075 -1.617424 -0.220643 3.053704 -1.805765 1.361806 -0.163509 -2.032861 -0.548682 -2.011713 -3.894902 1.249842 -1.341529 0.355679 -1.167218 0.071657 1.712997 0.107813 1.041155 0.445162 -1.31647 4.390512 0.49747 -1.203582 -0.275777 1.411795 2.267714 0.467591 2.49622 1.83279 -1.073622 2.065809 0.531682 -1.281437 0.064838 -0.269753 -0.667234 1.214515 -1.61186 -1.411809 -0.112438 -0.663238 1.282213 2.069659 1.078789 1.707139 -2.522919 -0.521442 -2.132977 -3.001169 -1.458999 0.605619 0.4021 -0.223762 -0.899193 -2.229792 -1.382167 -1.447186 2.087581 0.609883 -2.396939 -2.423426 2.91578 0.6161 -1.715836 -1.510552 -1.571571 3.159973 0.657944 0.5103 1.899708 -1.531643 1.160666 -0.326376 -0.098593 -1.488583 3.544792 -1.077375 1.960594 -0.024524 1.559168 1.291107 1.675613 -2.055013 2.758973 -1.154538 1.457156 3.302187 -1.495983 -0.577821 -0.688139 -1.940182 1.896297 0.701877 1.892455 1.132727 -0.731737 -2.303603 -0.731908 0.630453 -0.722481 -0.818168 0.612588 -0.577178 -2.586128 -0.251565 0.699936 -1.078961 1.154841 2.984755 0.731075 -3.996841 -1.097952 0.44748 1.288412 1.901683 -0.020368 1.089952 -2.954335 -1.893556 -2.532984 -0.319808 -1.505549 0.654218 0.353384 1.318892 0.44228 1.522629 1.491895 0.124124 -1.855351 -1.489584 -0.117409 -1.566323 1.310894 0.943134 5.308095 2.070571 -1.514704 -0.486349 -2.333634 -1.181914 -3.040801 -0.290641 2.20435 1.203137 -0.996474 -2.234619 -0.506251 0.625033 -1.715268 -1.140649 0.288005 1.228653 1.186782 0.368411 -3.455788 -3.721158 -1.63812 0.29305 -3.253674 -2.200747 -1.552924 -1.226856 2.052559 -1.125147 0.304026 1.459851 -0.64078 2.182148 4.322183 3.527225 -1.349422 1.631192 -2.818175 -2.063531 -1.900304 0.182616 0.459064 -0.621045 -1.552358 0.23621 -0.45273 0.81899 1.910784 0.023624 0.080112 -2.586668 1.33284 -0.427901 0.779512 -2.386885 -1.150357 0.122898 -2.726837 -0.450839 0.310745 -1.005656 -0.114261 3.187995 0.601986 2.174869 -1.170533 2.026597 1.319966 2.777156 -0.223716 -1.081439 1.811034 2.779184 1.067501 2.531636 -1.749707 -1.702648 -1.145997 -1.473937 1.910894 1.532974 -1.820009 0.603673 -3.798235 -0.853202 0.175136 0.386894 0.444443 -2.309245 1.593874 1.151004 1.601547 -0.725552 -2.254787 -2.441303 -0.776393 3.254149 -1.076809 -2.181338 -1.534182 2.745015 -1.312943 0.619189 1.710939 2.664665 0.59302 0.428532 0.415023 0.300862 -1.782193 1.084695 -0.919473 -5.026353 -3.903534 -3.397246 1.898817 -0.811039 0.939425 -1.215286 1.663966 1.746373 -1.16676 -1.719337 2.184997 -0.499946 -0.20272 -0.30565 -3.821029 1.304942 -0.306641 1.505502 -0.026325 -0.780832 -1.47596 -2.455086 -1.437118 0.765196 1.306981 -1.144757 0.352761 -1.071902 2.341145 -3.429488 -0.292768 -0.247897 1.753685 -6.612268 1.010219 -1.561836 2.02786 -0.417073 -1.565769 2.980288 0.718504 3.015191 -1.492049 1.122608 1.69245 0.800714 1.999058 2.320018 0.700568 -2.789573 1.13388 1.013572 -2.9607 -0.693269 -0.181112 0.048379 1.855236 -1.900402 -0.821001 -1.815438 -2.090495 2.144262 1.651549 0.274884 -2.084705 3.573448 -2.411076 -0.842049 0.620876 1.221242 -1.353241 2.333412 -0.585335 2.242087 0.409238 -2.105333 0.379373 -0.439304 -0.005657 -0.752338 -3.272575 -0.009021 1.268086 -0.868392 -3.47565 1.708591 2.435566 0.701097 1.000803 0.823754 2.077767 2.565932 -0.64839 -1.011327 0.119851 2.499434 0.405594 -4.204956 1.583449 -2.939025 2.731417 -3.967292 0.080782 0.803118 -4.934274 0.298043 2.816947 -0.402459 -0.815596 0.032964 -1.989074 2.050998 -1.153816 -0.414642 1.123303 -0.362863 1.480197 -0.265937 -2.180746 -0.020796 -1.290077 -2.284216 -4.96782 1.443682 1.358712 1.121172 0.13517 1.051181 -0.226761 0.646013 -1.877272 -1.942545 0.569359 -0.987595 -1.868045 0.710388 0.833258 -0.752733 -1.54863 2.295225 -2.161084 2.309124 -2.958761 0.577483 -0.491661 2.210387 -0.657065 -1.039556 -5.319354 2.484013 -0.680065 0.698781 1.809704 -0.737668 -0.243049 1.743976 -0.624379 1.320565 -1.104702 1.712136 0.018799 0.179438 4.242414 1.40885 -2.555068 1.341065 0.077644 -0.822534 0.288186 0.991214 2.84058 -0.300616 -0.166449 -1.517593 0.809057 0.789412 -0.932088 0.713045 0.256379 0.031145 -3.358062 0.35544 -0.213809 -0.679338 -1.524317 1.670661 2.213289 -3.925348 -1.196892 2.660983 3.761895 -1.200212 -1.499254 -0.242214 0.827953 -1.147651 -2.367348 0.72766 -0.337408 1.451021 1.542405 1.090353 -4.87703 -2.004529 0.062372 -0.735684 -0.648314 0.768755
record -1.788623 -1.89508 -3.546757 -0.214109 -0.95061 2.024173 -0.847883 -0.796921 0.930798 -2.864 -2.838235 -2.555965 -2.402531 -1.456757 -0.169229 0.595835 2.024937 -3.509286 2.84441 -0.593462 -1.705246 1.368533 1.473815 2.104966 -3.393728 0.246148 -0.67675 -1.547806 -2.691076 -5.619433 -1.549006 3.180858 -3.503032 1.960972 -0.908441 2.410439 -1.759927 2.231637 -1.440792 1.412583 -1.002625 -0.450056 0.384617 -1.79419 0.056505 2.439594 1.285883 -2.503716 -0.318715 1.158936 -3.254502 1.487097 -1.506887 2.044129 -2.693305 1.205291 2.799399 4.788293 1.548845 -0.41945 1.639001 -0.858506 -1.246055 -0.541909 -2.560291 2.584295 1.436379 -0.457765 1.666338 -0.264803 0.510572 2.362592 -0.817682 -3.502272 -1.589522 4.891352 0.819599 2.380981 -3.315238 -1.707451 0.609191 -0.780622 3.289512 0.057179 1.307747 0.868372 -2.246696 -2.008086 -2.028695 5.203971 -1.501521 0.924012 1.952724 -0.471648 0.508992 0.755897 -1.262137 -2.560168 -1.289708 0.869726 -1.660059 2.380105 2.662959 -0.355573 0.714677 1.672983 -0.737102 -0.758076 0.333249 -1.454387 -0.795056 -0.50625 -0.724775 0.846917 -0.701371 -2.28665 -0.58941 -0.402214 0.13801 4.009296 1.20265 -1.481484 -1.211593 1.594373 1.971347 -2.850595 3.054528 -0.43582 0.399941 0.42309 1.896911 0.128842 1.155578 2.044884 3.224116 0.0571 -0.324537 -1.474463 -3.192644 -1.712757 -1.160804 -1.310687 2.642717 1.841282 -5.165513 1.821373 -2.356938 0.225438 -0.866334 -0.210452 -1.764757 -0.25817 2.354861 -0.617051 2.576713 -0.034506 0.729317 -0.279014 -0.406652 -2.256893 -1.23229 -0.687885 -0.079302 1.466869 0.6745 1.471626 -1.955265 -6.469959 -2.324217 -2.773829 2.142946 -3.184348 1.27501 -0.607544 -0.900962 -1.72356 -1.460577 -2.625421 0.454898 -0.861313 -1.809841 0.040722 -0.091253 -0.66324 -1.682653 -0.957186 -1.609139 1.988677 -0.687442 -3.41528 1.991378 3.506352 -0.838014 0.250955 2.50367 4.429834 0.519593 0.367862 1.336405 1.059355 2.826291 1.966543 -0.478101 -0.007707 3.469273 -1.084279 1.448698 -1.622146 -0.368313 0.889802 0.952295 1.970745 1.557965 -0.299131 1.236608 -1.917773 -1.062918 -0.200897 2.335368 -2.85909 -4.121256 0.855426 0.5002 -0.124425 -1.249875 -0.622761 0.545521 -2.108477 -2.946001 -0.605215 0.118775 4.411246 4.848508 2.465283 0.938016 1.564281 1.509063 2.30331 2.568829 -0.9443 -1.294278 1.252006 3.995939 2.942543 -1.073636 -1.660993 3.542996 1.023273 0.756119 -1.288735 3.104623 -0.38519 0.995857 1.230542 -2.326288 0.681017 -0.780323 1.824296 1.273391 -4.010674 3.140097 -1.327164 -1.366761 4.01252 1.395979 -0.963694 -0.572262 -5.451235 1.606213 -1.34516 0.751387 1.722621 1.673304 3.130961 2.033743 0.860841 2.131286 3.631522 1.110572 3.763902 -0.964743 0.460143 -1.588475 1.37277 0.002977 0.366074 2.911619 2.253207 -5.841682 2.853216 -0.766261 2.068983 0.426418 -4.310076 -0.728982 -0.526256 -1.097215 -0.640518 3.704451 -2.313156 -0.591966 1.906559 -0.533853 0.902814 0.66565 -1.119597 0.945254 -1.527455 -0.201344 -0.315721 -0.102172 -1.574961 -0.110717 0.332808 -1.138317 0.671657 -4.513585 1.485613 0.226239 3.038274 4.889252 -2.403358 -2.911203 0.777858 -2.750999 -0.785708 3.635133 1.913558 1.919842 3.466611 2.894811 -2.129278 1.364718 -0.18273 0.375506 -0.791814 0.551427 -0.486594 2.007265 -0.223891 -0.373833 -0.671021 -0.900357 -1.050189 -0.375009 -3.562198 2.367593 -2.303032 -1.28497 0.761747 -0.590287 2.475235 3.372847 3.369287 -2.598526 0.279522 -0.479887 -0.018107 1.89571 1.283823 -0.44396 -0.924911 1.435065 3.172808 0.606278 0.18458 2.235775 -1.262776 -2.180933 -0.913983 -1.955114 0.761075 -0.787407 -0.306334 2.035141 -0.863703 0.657089 1.795004 -4.098406 1.941983 -1.606871 -2.862236 0.56646 1.233287 3.442517 -0.561167 -1.109298 2.532323 -0.855767 0.461508 3.410981 0.738341 1.629719 3.906811 -0.488674 3.536837 -0.554527 -2.611969 -0.419606 -2.906639 -1.136288 -0.532393 0.873944 -0.626787 -2.100583 1.31014 2.020055 -0.621235 -0.649548 -4.28484 -0.064607 -4.739608 3.40369 -1.768376 -0.586679 -0.588467 -0.724166 -1.766653 0.989924 0.294825 -0.686195 -0.561829 -0.304299 -2.119073 0.756318 0.290182 -1.026023 2.937203 2.328749 -1.355382 4.021914 -4.567926 1.774722 -0.101059 -0.274376 -0.56369 2.21315 1.188794 1.328124 1.7987 -0.249001 0.593975 1.893538 -1.938067 2.315547 0.098694 -1.637399 2.187276 -1.567536 2.801724 -0.270253 3.270581 -3.640926 -3.705779 0.198256 -0.224539 -0.264963 -0.20349 -2.701376 0.755859 -0.67418 -0.575016 -2.091944 -0.692856 -2.038376 -2.130417 0.347356 0.174448 2.450656 2.431577 -0.854404 -0.663773 1.317248 1.518598 -0.676349 2.850187 -3.884717 2.293376 1.756321 -0.315038 4.117361 6.400264 3.776401 -1.447248 -3.411473 -1.217416 1.737991 -2.835909 -0.175234 1.173225 3.357651 0.906077 -0.28958 -0.79545 -1.02173 -1.512072 1.21856 0.7904 -1.96231 -0.618292
energy 1.392411 -0.62422 -0.308174 -0.35842 1.663695 -0.227879 4.266114 0.457865 1.041807 0.770623 -1.362236 -0.72954 -1.067587 2.340914 0.282804 -1.460077 -1.124531 0.573212 -1.638804 -1.361143 0.184725 0.033512 3.149343 0.557079 -1.456982 -2.07498 0.513027 2.576919 1.175946 -2.453099 1.712693 0.572802 -0.793195 -1.2177 1.709543 -0.293019 1.357202 1.340082 -1.790007 0.345847 3.658963 -0.826496 -1.601555 0.751557 2.943347 4.513101 1.109726 -2.790325 -0.534083 0.610804 -0.596415 -1.148467 -0.33465 -1.317277 -0.22869 4.103939 -0.801676 0.749316 3.017394 1.346336 3.270068 -0.168935 -0.26226 2.332191 0.843746 -0.054857 2.845325 -1.276967 0.740866 0.025498 -1.418876 0.363528 -3.003484 3.278062 -0.127027 3.262907 2.39668 -2.381291 0.057666 -3.649019 -1.701083 -1.267455 -1.082639 2.498995 0.399655 3.481882 -3.759913 0.067062 -0.350885 2.379701 -3.426001 -0.018691 2.861568 -2.86375 -2.229619 -1.288817 0.360509 -2.969566 0.500204 -1.358084 -0.100141 -1.459843 -0.70334 1.569459 6.011275 1.12797 -0.689871 -0.205718 0.643869 2.673949 -0.165052 0.556406 -1.099182 -0.056544 -1.204428 -1.314204 2.362091 0.610969 0.221875 3.063125 -3.490773 2.280604 -1.114437 -3.225928 -3.621267 -1.182318 -0.321476 -0.54585 1.251747 -0.303298 0.524692 -0.306003 0.87501 1.587592 1.123345 -3.722256 -3.504134 0.443298 0.212958 1.204382 1.605539 0.075545 1.573581 2.589646 -1.401647 2.415112 -0.876771 -0.276666 0.028584 1.486658 -0.762173 -4.25794 1.426505 -2.747569 -1.39243 -5.192072 -3.257907 0.483019 -0.194875 1.395832 -0.196743 -1.771884 2.462358 -0.672725 0.410438 0.071922 1.143345 0.731224 -1.347871 1.737202 5.222852 -2.080355 -2.54866 1.255773 -1.071166 1.859832 1.610447 -1.300177 -0.555247 1.912071 -1.326748 3.188372 0.454374 0.177445 0.433462 -1.149087 0.562803 1.777643 1.432519 -0.443594 -0.281203 0.006224 3.265156 -1.197262 -1.410183 2.434391 -0.197055 -1.450007 -2.791788 2.107063 -3.978409 -0.791303 1.755441 -0.145458 1.811068 -0.333648 -1.020647 -0.879485 -0.261362 -3.153244 -0.722964 3.258888 4.168634 -1.285919 0.422849 2.216258 -2.56607 1.430915 3.335468 2.276021 -2.439393 0.636178 -1.841147 -1.340078 0.425044 3.154196 -2.344251 -0.179375 0.085359 0.228901 0.457891 -0.557204 -3.164799 -1.064738 2.756256 2.216621 0.310543 -1.211299 3.549624 1.56013 -1.348897 2.561756 -0.090832 -0.08515 -1.378819 2.861719 2.454705 -3.182773 -0.568123 -1.723072 2.39746 1.752897 0.612842 -0.937526 0.253155 1.835274 -2.042735 -0.013857 -2.77244 -1.841704 -0.075965 0.176823 3.388296 1.301868 -2.662746 0.445756 1.529078 1.678566 2.100984 0.640545 3.477617 2.497041 3.15578 -2.748035 -0.621882 1.552223 -0.902597 1.978373 -2.437096 -2.385981 -0.641285 -0.081608 0.488976 -1.489166 2.050213 2.520206 -1.037253 -3.063491 -1.548803 -1.345409 -0.654891 -2.127611 0.693467 -0.120588 -1.830023 -7.107012 -0.497665 0.205824 1.688119 -0.699555 1.986742 3.280737 0.513493 0.902663 -3.387402 -1.529407 0.418916 -3.812005 0.515048 0.408037 -2.616851 0.547873 -4.162569 -1.565893 0.269985 -2.158834 1.389786 -1.575186 -1.016459 -1.178738 -0.414081 -0.65853 -0.044568 0.603727 1.960864 0.413986 2.073314 2.900941 -2.601885 -4.276216 -1.886426 -2.662483 1.872992 -3.74055 0.390359 2.117623 2.047566 -0.907598 -1.690177 1.170988 1.092621 2.548618 2.288787 3.910177 2.184368 -1.150822 3.510501 1.07047 1.479249 -2.507108 -0.835719 0.55273 -0.968493 4.333512 2.90098 0.78654 -2.997118 1.535026 -0.199939 -1.07409 0.724107 0.940556 0.115733 -3.053699 -1.130132 2.550019 -3.366042 -2.497775 -1.250574 0.515878 1.928264 -4.212552 -1.356851 -0.858575 1.980449 -1.284587 1.653758 2.274066 0.412961 3.910683 1.671122 2.583912 -2.670185 1.682933 0.914294 1.452094 -1.325536 5.080999 -1.091286 0.004725 2.584508 -3.73867 0.688573 -0.888797 -0.978303 3.724886 3.271251 1.713826 1.821286 2.223364 0.935517 -4.618824 -1.45247 1.480718 -2.456041 -0.808708 -3.073234 0.42871 -2.983668 -1.048175 -3.937322 -1.248272 -0.388875 1.340895 -0.072968 0.307319 0.398919 -0.378544 -2.401001 -0.150719 0.89092 -0.99427 -3.208604 -0.137745 -2.059758 2.828003 0.095591 -0.906994 0.778918 -1.761868 2.130254 1.945206 -1.612689 -1.497884 3.20802 3.799006 -3.119622 0.822081 0.074719 -2.279886 -1.364937 -4.400086 3.336888 2.218205 -4.638848 1.2994 -2.618819 -2.866941 0.549792 -1.621245 1.025125 -0.584507 -0.778116 -0.916999 -1.375947 1.515805 1.820542 -2.337641 2.026526 0.089077 -1.245114 -1.747083 -2.190805 1.602936 -0.646682 0.557064 2.335313 -1.263605 -2.403626 2.242872 -0.265167 -0.25543 -1.248834 0.561939 -1.780227 3.523786 -1.534089 -0.999469 1.595416 0.619798 0.47868 -2.023078 -1.224631 0.079414 5.15265 2.004976 1.736243 2.088288 -0.096185 -0.805693 0.100245 -1.004755 -0.578742 -2.294539 -0.710795 2.108954 -0.330588 -0.440826 3.527691 -0.788783
announcement 0.887601 -2.860826 2.477884 1.833189 1.01648 2.037891 1.200376 -3.371565 -2.456299 -1.507375 -0.940585 1.681521 3.299338 -1.006317 -2.414411 -1.817464 -0.23434 1.259595 1.889561 2.02901 2.725998 -3.905633 0.921995 -2.611509 -3.496588 -1.442868 2.270393 -1.213487 -3.258827 1.32002 0.722947 0.731859 -1.77259 2.715268 -3.425643 -1.933104 3.490578 -3.052915 1.700221 0.80456 -2.783941 -0.615592 -4.015278 -0.463498 2.565574 -1.465131 1.633055 -1.186853 -0.072358 0.201886 0.689825 -0.663271 -0.27968 1.968416 -0.079792 -2.213613 2.062841 2.360174 0.003801 -1.363482 -1.280099 -6.189683 -1.722053 1.303331 -1.541648 -0.338981 -2.097477 -2.310861 -0.114473 -1.412365 1.421833 -0.109975 -1.883338 -1.41467 1.225419 2.292348 -2.233919 -1.439138 0.552616 3.063328 0.911815 0.294991 -1.567674 3.255359 -2.011225 3.172524 0.962594 1.826645 0.855713 5.428779 2.75052 2.318328 -1.022305 -3.171874 -3.081078 2.709524 1.129116 -0.406276 -0.473756 -1.42716 3.064398 -0.054319 -2.520996 1.500048 0.321909 1.184013 4.670498 1.804248 1.220074 1.133419 -1.574877 0.66987 3.116884 0.568039 -1.24313 -0.553069 -0.411511 1.369221 -1.88071 0.408183 1.245465 2.505266 1.073244 -0.830111 5.017074 3.749787 2.788308 1.328449 0.690622 -0.127207 -2.641681 2.042112 1.304822 -4.093865 1.544157 -0.063143 -0.2984 2.691494 -1.970195 0.534863 2.021094 -0.798113 2.747128 0.056905 -0.932407 2.109883 -1.080183 0.823003 -1.476006 -1.851244 -3.559191 1.900804 -0.539102 -1.043409 -0.40396 1.285002 -2.988235 -0.113219 -1.235507 -1.338382 -4.176719 4.347226 -5.036266 1.039469 1.525731 -0.995864 2.278002 0.830425 -1.720916 -0.574359 -0.075888 0.217304 2.499849 -4.302708 -1.85807 1.34134 -0.667822 0.207774 0.087134 -0.906453 -1.906744 -2.068108 -0.567483 1.909651 0.112017 -1.44186 0.45243 -0.083643 -1.070175 -0.479934 3.167217 -3.57412 4.213901 -1.447221 1.911697 3.35971 -1.097546 -5.708808 3.390266 -0.004199 2.56156 -0.383528 1.747076 -1.958589 -1.230116 2.156005 2.29306 2.254287 0.523319 0.657289 1.657969 2.989131 -2.463444 -2.974973 1.992346 0.104337 -0.219333 -0.053476 -1.378479 1.123578 -1.195144 -0.811833 -6.07294 -2.074896 -1.536144 -0.130311 -1.813649 -0.935382 0.216933 2.421118 1.51522 -0.774124 2.167814 -2.015198 1.010327 -3.545998 -1.04497 1.675412 2.351687 -2.795074 -1.54168 0.727587 0.87763 -0.809562 -3.593134 -3.104692 -3.895086 -1.132454 0.511148 -0.929427 0.711278 2.447952 -1.262461 -1.064367 -1.533737 -0.180349 0.258994 8.92E-4 1.261822 -0.893455 -0.657057 0.531919 1.301637 -0.683333 2.334491 -1.726391 -2.046685 1.851205 1.426783 1.430245 -2.555545 1.110441 -0.476634 0.230687 -1.376121 -0.893586 1.087829 -0.578447 -1.450295 0.701353 4.63 -1.362217 1.684121 -0.707121 1.986554 1.597358 -1.987022 -0.500437 -1.678422 -0.674331 -0.723779 -0.107872 4.01916 -2.66767 -4.051544 -3.011438 -1.77421 0.417119 1.103839 0.286464 0.094596 1.394172 0.357328 1.026814 0.429326 -1.65453 -0.330873 -1.490398 1.895313 -0.397795 0.593264 -0.253564 -1.157838 1.372608 3.551345 2.296226 3.807389 1.37622 -3.714263 1.718251 2.309533 0.772346 -0.3535 -1.3262 0.024616 -1.924364 0.211066 -2.973669 -1.458189 1.082527 -0.664779 -0.227807 -0.515555 -1.830758 2.057137 -0.579546 -2.097401 2.001494 -1.104648 -0.91844 0.057312 0.88811 -1.527393 -1.791487 -0.382988 0.867935 1.277853 0.647834 -0.702032 -2.220811 0.181975 -0.916461 2.265835 -1.863913 1.140624 -1.925079 3.764295 1.259717 -0.501741 -3.099463 0.941927 -4.064523 1.263924 1.91365 2.125288 2.167603 2.313613 1.184083 -1.518356 -1.344894 1.058548 -2.533266 -0.562081 -0.810929 0.753901 -4.339725 2.278989 3.439893 -2.404739 0.093247 1.972806 -1.079013 -2.341191 -1.656405 1.827302 1.335046 -2.324367 -2.300062 1.488735 1.137699 -0.317608 0.13905 0.413664 0.165951 -1.148967 1.608944 1.879343 3.510831 -0.477325 -1.168496 1.59033 -0.895278 1.223196 2.071359 -0.150778 -1.861282 0.412879 0.551077 -5.303478 1.895758 1.864263 -1.422847 0.868227 -0.177867 -3.473971 -1.895116 -2.477253 -2.090817 -0.727904 -0.989378 -0.23607 -0.445248 -1.402719 0.545475 1.02026 -4.083437 -0.359982 0.591536 -0.946729 -1.699986 0.325509 -0.955027 1.652103 2.543012 -5.237267 0.06887 -2.667074 0.759508 -1.334045 0.325457 0.726857 -6.214713 -0.577142 -2.824131 0.346778 -0.160311 -0.596331 0.244829 -0.352807 -0.604129 -0.153493 -1.640571 -1.654067 -4.586681 -1.693918 -3.107224 -1.611358 -2.04679 0.618492 1.241553 1.371916 -3.735581 0.552533 1.737349 -0.052244 -1.059283 0.361276 -2.388242 1.139896 -1.355405 0.567723 2.230169 0.285472 3.102941 4.559748 -2.376809 -3.561791 3.197613 -1.947443 0.895774 1.954007 0.202563 -0.765778 1.062053 -1.127865 0.959513 4.412636 -0.145941 2.051091 2.205253 1.465819 1.183991 -1.055542 4.056168 0.393719 -0.860385 2.259046 0.631003 2.66526 -0.078928
mile -0.761505 -3.501566 4.44315 0.903028 0.474255 4.772664 0.848421 -1.403811 1.716102 2.923444 0.68534 2.181722 -0.052355 0.228198 0.650504 1.322174 -0.021773 1.014592 -2.34123 -1.033476 -2.945189 0.078794 -1.058638 2.799382 0.069631 -1.501555 -3.154959 -0.548862 -1.312221 2.198883 -0.26573 3.35592 0.381162 -1.24059 -0.859438 -2.300806 0.004416 5.696513 0.905346 0.947769 2.402282 1.572002 0.116219 1.43954 1.353716 0.230812 0.474118 -2.761203 -2.100753 0.370483 0.322369 0.518454 0.18958 -3.123898 0.594176 0.194314 0.632146 1.662636 1.418769 0.735045 -0.571936 -0.825541 -0.967722 -1.269582 1.940712 -2.094987 0.585175 -1.806122 1.640534 -4.055164 0.142129 1.073643 -0.997988 -1.912073 -1.593001 -1.361951 3.006095 -1.623137 2.607478 -0.671523 -3.238017 -0.746273 -0.794341 -0.563365 -5.025569 -2.01721 0.568312 0.639925 0.234306 0.843548 1.203715 3.617723 -2.848249 -4.170208 1.440232 2.592166 2.713854 -3.113779 -2.431848 -0.494125 -1.290297 -2.309993 -1.921142 1.522851 -2.007084 0.996403 0.714654 -1.433037 -0.530916 0.593997 -2.435249 -0.619089 0.595109 -0.418499 0.702655 -1.868749 -3.785655 1.175687 -0.2765 1.082967 -1.068875 -3.089263 -0.12861 -0.548841 2.129998 -3.315742 -0.669034 0.858547 -1.970278 -1.681937 0.506985 -0.66949 -2.604551 2.006464 -0.108074 0.820817 -1.160877 -0.079799 -0.65183 -1.998962 2.555362 -0.386799 4.706403 1.110715 0.826485 -0.961884 1.983342 2.954297 -0.497475 -2.32607 -0.148464 3.89084 -0.119899 1.284722 -0.169755 2.701261 0.343568 -0.728025 2.530088 1.266762 -1.379898 0.097786 0.373804 -5.847185 0.54847 -1.716821 -2.301037 0.126207 -0.650016 -0.123404 0.318138 -1.014363 -4.36136 1.66093 0.667459 1.314696 -2.225336 -2.0204 2.094385 -2.422434 -0.173453 -2.937794 0.243376 -1.666611 1.972053 -0.206716 -0.230899 0.766991 1.31429 1.316429 -1.526243 1.132347 1.167643 0.653696 1.501338 0.851584 -1.2713 -5.103064 -1.177368 1.201093 -0.952227 -0.060597 -1.992403 -1.90735 -1.922768 3.754018 -3.382241 -1.011411 -1.043769 2.683108 -0.127206 -1.399636 0.490343 2.263693 -1.207134 -2.381089 1.491145 0.053436 0.418441 -2.570254 0.241667 -2.135944 1.994538 -2.696188 -1.820052 -3.016296 2.027791 -0.551204 -1.568537 0.211109 2.588961 -2.636559 3.952528 -0.858588 -1.407872 3.108543 2.552012 -3.091993 -1.115972 0.840943 0.026658 2.951526 0.473286 0.021405 5.885058 0.006391 3.194695 -1.670561 2.539935 -0.782758 -4.381323 3.080952 1.489627 0.182199 0.330631 -0.09424 -3.381139 -2.396045 2.694268 -0.721627 3.608022 0.960003 1.311896 -2.670278 -1.187702 -2.229067 3.373276 1.648424 -2.576456 -1.898106 -4.395301 -0.499761 -1.299952 -3.816075 -0.728754 -0.107447 1.80222 -0.031706 2.72883 5.303153 3.312742 -0.202967 0.831031 -3.317396 1.491086 1.660801 3.617427 -2.181669 0.980556 1.950202 2.177361 1.009113 -1.358358 0.201238 -2.465337 0.710035 0.151858 0.923296 -3.049998 1.840934 -0.554558 -1.04828 1.012393 -0.454122 -0.268711 -1.048025 1.626152 -2.109339 1.544342 -1.000961 -2.088617 1.276999 3.42132 0.93811 -1.92005 0.758229 -0.899887 -1.054276 -0.688589 -2.861266 0.240432 -0.414573 2.355392 0.356023 -2.089511 2.080076 -0.638566 2.647209 -0.845615 -2.096922 -1.24112 -0.642333 1.266465 -0.576028 -3.118353 -0.581087 -2.246653 3.349566 -2.006621 -0.922268 -1.971229 -0.49957 2.026719 -3.653528 0.556834 -0.675429 1.045043 0.912176 -1.622406 1.682502 -3.348453 -0.272829 -0.870704 3.319489 0.849969 -0.271224 0.788891 -2.254761 1.655463 -2.596617 -3.145826 -3.341702 1.92058 0.651433 1.03759 -0.226507 1.368972 -0.901676 -2.658451 2.534903 -3.13566 -4.580863 -4.485089 2.630464 2.957596 -0.20829 0.678767 -1.867084 1.090154 -1.382873 -0.098982 0.855886 -3.973475 -0.204348 2.609632 3.323269 1.79659 2.668184 -1.240018 -1.450315 5.169606 -1.406385 0.101275 1.86779 -0.249068 1.422808 -1.485106 -2.469993 1.538976 -3.443464 1.911785 -0.937113 3.411686 -1.679976 2.188594 1.58837 1.406545 0.427048 5.148678 -2.450152 -0.265652 -1.253549 3.092253 -2.824146 0.728359 3.60585 2.207603 -1.582408 2.241663 -3.042519 -0.189211 0.50097 -3.300279 -0.943176 1.128314 1.317661 -0.477269 6.080172 -1.739108 -0.339396 -0.822702 2.427725 3.510291 -1.175905 -0.174834 -2.643375 2.134231 4.578045 -0.168203 -1.135733 3.271362 6.786592 -0.862923 0.769991 -1.131892 -3.635027 0.597867 0.715513 0.696665 -0.725978 3.431702 -2.327518 -1.780259 1.562875 -3.910658 2.805313 1.010013 -0.479702 -0.70087 -4.868916 0.607859 2.260333 -0.787735 4.636585 0.639661 -1.341259 -2.9047 1.447512 4.009716 5.544793 4.255226 -0.247883 1.37569 -4.565211 1.141247 0.269933 -4.541927 -6.280275 1.234421 -1.74931 1.135878 0.20543 2.07586 2.47459 1.620855 -3.805995 0.02613 -0.524212 1.80444 -1.67718 -3.29972 0.321088 0.930811 4.110439 1.579369 1.832778 1.184463 1.31679 1.692158 0.633053
airport 3.479671 -5.018444 0.617287 1.269866 0.306355 3.187207 3.117703 1.574681 -1.841447 -4.032103 2.634636 2.544613 0.254822 1.296682 -1.579368 -0.696314 -3.06738 -1.634696 0.174649 2.205996 -0.091526 0.958911 -1.866304 1.534976 0.26496 -3.038757 -2.385577 0.355756 -0.583883 0.606081 1.713993 1.08433 0.028807 0.269639 -0.869213 -3.97206 0.58813 -2.505995 -0.00917 0.786425 -1.471647 1.430839 0.107678 2.519807 -0.24337 -0.270686 0.606349 -0.75388 0.055814 1.313121 -2.347224 1.580912 0.897673 4.355648 1.035799 1.139831 0.707826 -0.194615 0.154213 -1.417965 -1.599096 1.830471 -1.421463 0.033633 0.018538 1.401283 1.234147 -1.558856 -0.692466 -2.176728 -1.947654 1.106607 -0.15351 -2.047018 -1.022078 -2.387789 3.98757 0.064145 0.111431 -4.966841 1.461373 0.827001 -1.034561 -1.490563 2.129909 3.541549 0.520842 1.087833 -2.48221 2.140526 2.925094 1.391192 1.477159 -1.48355 0.563445 2.399577 2.460069 -0.349217 1.13878 -3.236334 -3.061585 -2.221735 -2.672365 -0.740787 -1.35782 3.702649 -3.869807 -1.031968 0.899447 0.46035 -1.916851 -0.044808 -1.635554 -1.780096 -0.627993 -1.84301 -3.494636 -1.459679 -2.270518 -1.964914 -0.904634 -0.71269 -1.546188 -0.859698 2.590706 -1.227301 0.075782 1.503144 1.061658 2.294541 0.509681 1.564991 0.867151 -0.986674 0.722554 1.48359 -1.506212 1.449298 -1.638196 2.688148 2.389999 -0.827546 0.659612 0.06243 2.533134 1.568149 -2.747295 0.821954 -2.402448 -0.527295 -0.958936 0.106744 -0.860962 0.462899 1.878634 0.232164 0.122635 -5.188921 -1.112209 1.549818 -0.831163 4.104923 0.936349 -2.353467 1.254239 0.360504 -2.036343 -0.68133 -0.719956 -0.465568 0.806432 5.311688 -1.910997 -0.785307 1.717182 1.95939 -0.811654 -2.527177 -1.047174 -1.493969 -2.007846 0.885556 3.873598 0.402877 -0.411223 -0.016699 -0.444625 2.431826 -1.207007 -1.471099 -2.04301 1.790251 -0.25451 -0.776853 0.300754 -0.475806 -1.747128 -4.800663 -0.290754 3.186144 3.515373 -0.467466 0.366332 0.536031 2.047675 0.090803 2.263507 -0.052999 0.115111 -0.632726 -0.105623 -1.857597 0.266222 1.092442 -1.403244 2.605279 -2.473542 1.125787 1.27156 -3.737616 2.659279 -0.669188 -0.75634 -0.287403 -1.281352 -0.405151 0.340799 -3.769806 0.535016 -3.737628 1.707056 -0.030738 2.02604 2.178286 -2.480818 -0.064051 -3.234709 -2.180742 -1.885305 1.624822 0.766293 1.201805 -2.691962 1.149835 3.104152 -1.520277 0.980208 0.995172 4.822556 1.407323 -1.094753 0.855416 0.524465 -1.259885 -0.879582 0.221505 -3.992434 1.555467 0.239786 1.063614 1.017597 -3.137127 0.252395 -1.988124 1.185471 1.296667 -0.394651 4.077194 2.477848 1.235272 -2.576251 -0.205828 -1.314355 -1.264368 0.589033 -1.874611 -1.094285 -0.793949 3.506371 1.257597 -0.356233 0.364291 0.61681 1.083818 1.389525 -2.91593 1.209413 1.576865 -0.20582 1.793837 -2.677098 -1.10528 1.397775 1.734845 -1.356434 -2.027069 -1.436595 1.735381 -2.03716 2.559007 -0.067353 1.828855 1.916149 1.132689 -1.996277 -0.369733 -4.802011 2.482156 -0.208275 -2.907504 1.719105 1.042545 -0.274101 0.788982 2.017676 2.931165 -1.225936 2.787974 1.460974 -0.481641 -0.401357 0.293149 2.939521 -2.864691 0.636237 -0.204974 0.710235 2.375102 2.240767 -3.928449 -0.926016 -0.550219 3.763663 -0.163969 2.707522 1.473258 -4.019135 1.891525 -0.842708 0.258263 -1.82321 -3.521571 0.99118 -3.773073 -2.072454 0.900449 -0.73233 -1.710728 -4.422673 -2.900937 -0.367653 -1.903588 -1.428172 0.091356 2.648666 -3.627861 -1.737007 -1.519262 2.732395 1.419013 1.893096 -0.879659 0.991276 -3.761537 -1.750685 -2.237482 -2.867986 0.367792 -0.646684 -1.761858 -1.779878 -2.094384 2.062178 0.211141 -0.558556 -4.196515 1.321722 0.745821 1.015433 1.077741 2.98892 1.463509 -2.052127 -6.192142 -0.454415 1.383621 2.002513 -1.791141 1.08705 1.829765 4.33995 -0.336254 2.888696 2.540095 1.257082 -2.703908 -0.78037 -2.049248 0.535834 1.198575 3.179491 0.618977 1.626451 -3.268817 -2.14225 2.78785 1.436745 1.966753 -0.236282 3.411226 -0.263656 -2.161234 0.021731 -0.099685 1.009645 1.448892 1.330099 0.315433 1.073963 0.078834 0.335121 -3.21303 -0.569892 0.705684 0.56667 -2.866797 -2.687838 0.969572 -1.996953 -1.254564 0.334964 1.261945 0.142132 -2.139696 -1.688596 1.642919 -3.4745 -0.070565 0.860653 -1.647838 -1.089444 0.890402 -2.29794 0.506692 -2.794811 -0.41394 1.618605 1.234339 -2.206234 -0.346725 -1.761614 3.356632 -1.118013 -0.489344 -0.477748 -0.506016 -2.79103 0.625685 0.079217 -2.112935 1.995324 -0.105934 1.473374 -0.004256 -0.961308 1.12141 -1.214651 1.581342 1.632689 0.385372 2.161403 4.624416 4.256232 0.940433 1.272924 1.884254 -3.703672 1.073675 -0.325381 -0.916435 0.943287 -3.310127 -2.981357 3.028587 4.41456 0.683249 1.529686 -0.30174 0.739825 -0.768073 -1.456469 3.103818 -1.743829 2.231136 0.951152 3.973335 -1.122389 2.963578 1.664963 2.516371
population -1.200706 0.065296 0.464119 -1.962897 1.418152 3.36842 2.002832 -0.79506 -2.133844 -0.538901 -0.347894 -1.010069 -2.450529 0.1148 0.773654 -2.800531 -0.184829 -6.393845 -2.331282 0.89091 -3.219127 3.248356 1.2993 -2.847605 -2.392292 -0.241896 0.145323 4.461606 -1.45926 -1.369104 -3.78195 5.023 -0.345735 -4.176809 -0.765908 1.07785 1.565221 2.268297 1.323422 -2.472206 3.46187 2.747822 2.104648 0.379209 1.225849 -0.536775 -2.846956 1.024046 -1.264379 -2.482287 -0.656391 2.034346 0.249529 0.544196 4.62805 -0.934794 -3.394788 3.833599 -1.478176 -0.788374 1.956058 -0.970406 0.447563 -2.363793 3.284918 -3.335472 -4.872744 -0.12462 -0.504542 2.725745 -1.512359 -2.173888 1.15451 -2.238329 1.951837 2.095856 -1.380765 -0.418647 0.925165 -2.334427 3.334035 -1.90723 -1.733237 -2.300272 -2.06216 -5.104143 -1.022767 -2.873101 0.6009 2.143488 -0.637914 -1.580282 -0.987901 -0.564759 3.071995 2.370393 -2.065845 -1.342716 -1.607551 3.930264 2.725191 -2.837217 0.007352 -4.686576 -4.343853 -0.49339 -0.669109 1.036556 1.078326 1.13552 -2.368641 1.884949 -3.862699 0.896777 1.436979 -0.851276 -4.959898 -0.312458 -1.112611 3.265839 -2.946157 -1.731073 0.049109 -0.448901 -4.061461 -2.292729 -0.658184 -2.768444 -0.782836 3.896146 0.641972 0.749929 -1.94804 -2.435509 3.17134 -0.414296 -6.550884 4.179437 -2.562971 -2.047554 1.221301 -1.140896 -0.41417 5.392734 -0.283424 -3.216001 -0.485264 -0.163545 -3.791001 1.167138 -4.589705 1.93865 -1.1052 -1.214023 3.370605 1.273736 -0.917775 -1.887824 -0.071352 -0.947852 -1.528092 -0.126892 1.673175 -0.060438 -0.636433 -0.837797 0.146716 -2.685415 -2.471761 -2.614485 -0.156888 2.471192 -0.059508 1.76878 -1.185209 3.254625 2.113092 -3.324061 2.642599 -0.430559 3.370559 -0.414892 -1.164078 -0.230901 2.765997 0.145934 -3.59992 3.937079 0.565866 -6.191639 -2.361138 -0.305994 1.103652 2.01446 -1.772394 -0.374635 -0.258849 0.384607 -0.901625 -0.919525 -4.153402 -1.601033 6.758134 -1.443954 1.43112 2.542186 -2.672318 1.857066 1.084162 0.382211 -2.793024 -3.382698 -2.852441 0.724375 -0.183233 2.323517 2.053607 -2.55737 -2.029201 4.617796 1.368373 -4.607946 -0.754654 -0.265864 -0.481708 -1.160427 0.24962 -0.197161 1.628675 1.739704 0.18722 2.640165 1.186254 -1.445885 2.262252 0.897469 -6.43822 -2.589905 0.806742 -4.140984 -0.429855 1.812955 3.338034 -3.182573 2.63536 3.450865 1.96099 2.133138 -2.887538 3.009894 1.976158 -3.349494 0.110042 5.310783 -2.294968 -1.021881 0.158662 -1.605309 -2.804892 -5.442708 -1.678009 0.063548 4.336045 -1.755855 -1.235997 2.270361 3.691659 -0.615276 -1.345587 -0.282768 0.415692 -0.327984 0.667223 -1.263321 -1.597705 0.122574 1.071115 -3.46901 -1.561178 -0.406246 0.91424 -2.573484 4.91364 -2.264312 5.669603 3.563832 1.506769 -0.275509 0.018682 2.880698 -2.672539 -4.437585 -0.247401 1.428803 2.573413 4.468006 -0.193451 -2.530337 0.112152 -0.418563 1.205438 1.814118 -0.335206 0.294713 -3.934335 -1.613718 2.569045 -1.77945 0.650902 5.132727 0.103763 0.695404 -2.243563 -1.593026 -0.30446 -2.333346 -0.489636 -0.659837 1.080262 -3.63913 -0.032006 -2.237419 2.827748 -3.502118 -0.440561 4.140749 3.275203 -0.441975 0.086304 -0.849023 -5.461095 1.225205 1.740314 -1.255208 4.520794 2.905298 3.183953 4.430494 2.1481 -1.604653 0.871245 0.687662 -2.709258 -1.202768 -0.584704 -1.336721 1.351722 3.118693 0.575218 1.699583 -1.731798 1.967301 0.488213 0.878149 1.222333 2.006534 -2.850163 -0.874297 4.03294 -2.003475 0.241586 -0.869826 -1.828254 -0.063744 -2.367054 -0.294557 -3.257107 -3.461883 -2.793347 0.247901 -0.150099 -0.75117 -1.121549 -1.961808 0.537011 0.228113 -0.852269 -0.169548 0.589625 1.69809 2.439829 3.35335 -5.123045 -0.430672 1.592651 3.49974 -1.332014 0.210313 -0.986911 -2.565376 4.929887 -1.374667 -0.106067 -0.837791 1.164475 3.976651 -4.206609 1.100928 -1.812723 -2.669189 1.551806 -2.535988 0.763681 -3.041944 -0.538893 -2.808784 4.17328 -0.604635 -3.410644 -0.983479 0.17823 0.305019 -0.794084 -4.572504 4.053845 1.230109 -2.057412 0.238507 0.96362 -1.279066 2.286861 -1.888658 0.981005 -0.806878 -1.070251 2.934552 -0.649584 -3.305456 -0.043282 -0.136507 -0.271216 7.616787 4.69894 -3.983666 -0.339668 -1.08129 -2.349248 -0.578781 1.454755 -0.103742 -2.986807 -0.306595 -0.614042 0.20025 -1.997712 -0.188189 -0.901946 -4.771261 1.299878 -0.814061 -0.841181 1.220426 -1.155245 3.045546 1.655826 2.632803 1.080536 1.168208 -1.427781 -1.240411 0.445381 -1.721735 -4.078795 3.600276 -5.829062 1.382934 2.288939 -0.610973 5.20128 0.737484 1.855944 0.296832 4.213333 -1.796717 -0.666551 3.957482 -6.480802 1.066373 -2.85258 0.689894 -0.014142 -2.557219 1.983813 4.116434 4.427753 -3.386732 1.323171 1.135245 -1.521333 0.539017 -1.321825 1.770631 -5.502347 3.103397 -2.353315 0.266627 3.6455 0.269188 0.316732 -2.124316
planning 2.383081 2.376244 -0.580398 1.306443 0.987521 2.334509 -0.241403 0.755002 -0.236377 1.14954 3.235225 2.91023 0.913781 0.93615 -1.426823 1.479369 -1.146473 0.349068 1.34789 -0.62362 -1.623087 0.562647 0.458188 -1.032915 1.297088 -1.134115 0.93211 -0.917547 -0.366197 0.144155 -0.856141 0.648319 1.11873 -2.296438 4.121067 -4.619334 -0.769928 -1.204694 0.567954 -0.890097 1.70398 1.156213 2.43235 -0.568701 1.222959 3.251062 -0.724984 0.408142 1.93677 -1.513355 1.744485 -2.075038 1.205437 2.930192 2.806824 -1.6241 -1.280101 0.953968 -0.937004 -1.088508 0.219959 -2.335069 -1.960182 2.213224 0.489787 1.011856 0.934192 -0.76027 -1.990968 -1.3147 4.284672 -0.962842 -1.242089 -0.772171 -1.375609 0.440907 -3.065017 -1.689916 3.869521 -0.825376 -0.812504 0.868107 -1.62152 -0.581265 1.866407 1.971258 1.187465 -1.57681 0.357038 -1.286646 -1.125548 0.339534 1.898669 -1.706663 -1.10685 -0.937686 -0.786338 -1.652864 0.188655 -0.640875 0.071649 1.39617 -1.471237 2.205011 1.400186 -0.920234 0.663042 -2.511183 -1.408291 2.270703 0.267406 0.896122 -1.881869 -1.764236 -0.509041 0.764848 3.634391 1.460398 -0.481661 -0.113395 -1.29392 0.869415 -0.594019 -0.666959 1.216541 2.26201 0.411535 -3.394417 -0.614627 1.564453 -0.846503 -0.927598 2.062959 3.729515 -1.236642 0.051021 -0.668165 -0.032341 -3.492361 2.197289 3.566118 0.689535 0.251413 1.937547 -0.758553 3.12522 -0.767544 0.043993 -0.875613 0.354736 0.490455 -1.885356 -1.96606 -3.32531 -1.05847 -1.3779 0.178796 -1.766924 -1.689693 0.655786 -1.353304 0.759564 0.335759 -1.390652 -1.567151 2.251359 -0.368391 -1.164676 -0.850364 2.166018 0.214814 -2.593908 2.466961 1.598895 -1.659056 0.976349 -2.526948 0.032999 -1.02726 0.06179 -0.125467 0.102876 2.82527 -2.004878 0.663085 -2.341596 0.379495 1.715327 0.225355 3.279105 -0.255805 -1.939151 1.668686 0.896833 -1.314916 -1.856153 -0.948352 -2.21263 -0.295624 3.103969 0.28286 -2.394935 -1.82361 3.143979 -2.134591 -3.24491 -0.384187 -0.460167 -1.540647 0.741131 0.834656 -3.153588 -0.045347 -0.383498 -0.956795 2.70965 0.194598 0.184072 -0.285895 -0.116514 1.616188 -0.250546 1.827098 -0.286811 0.410891 1.365446 2.733719 -1.153932 -1.967315 -0.766597 1.688572 -0.483902 -5.179234 -0.506127 -0.870628 -1.312186 1.749251 1.234178 0.135289 -1.069159 0.032541 -0.374225 -0.106656 0.35808 0.049663 1.141152 -1.899092 2.174999 -1.145508 0.168925 -1.126513 -0.774795 -0.733001 -0.680635 -3.176859 -0.049264 -0.25027 -0.451561 -0.928544 -1.303605 -3.346606 -0.042162 3.016401 0.330294 1.397485 -0.198787 -1.491847 1.473933 0.774445 -0.608606 -0.719061 0.048627 0.549306 -2.077712 0.599713 -0.800489 -0.746579 -2.296282 2.535545 -1.569945 2.153813 -1.21478 -1.181845 0.235493 0.79595 -2.634935 0.098602 -2.004909 1.657743 1.420911 -0.087004 0.400883 1.452537 0.552076 -2.800697 3.192677 -0.83287 1.134533 -1.554337 0.922596 3.360434 0.224347 -0.089389 2.199501 -2.733122 0.172378 0.367554 -1.632473 0.533015 -3.255358 0.312676 1.717889 1.687604 -0.724692 -1.246286 -0.766057 1.565303 0.437271 -1.744753 -0.558575 -2.025317 0.0571 -1.249892 3.698665 -1.508182 -0.836345 2.029925 -4.97119 -1.034293 -0.659589 -0.215184 -1.429651 0.172275 0.778236 0.554693 0.371974 1.287948 -1.346591 -2.32924 -0.277402 3.135965 -0.39239 2.160006 1.572157 -1.073316 -1.408073 -0.042545 -2.339745 0.310987 -3.712833 -1.722642 -0.902555 -1.591498 -2.606271 1.736856 -2.339293 0.880699 -3.160024 -0.079598 1.539019 -2.062941 -0.301742 2.015888 1.236607 -0.004161 2.614557 0.032415 -3.812862 1.19832 -2.597056 -0.322192 0.540735 1.327454 0.248979 0.494388 -0.880697 -2.600989 0.760483 -0.487239 -1.341421 1.35568 -0.510907 0.010722 0.232632 -2.638803 -0.472362 -0.138379 -2.136594 1.676138 0.79963 -0.241089 -0.859024 -1.709004 1.345725 0.112969 1.02121 -0.151166 3.056426 0.474703 -4.13152 0.88505 -0.370556 1.802132 -1.163555 -1.726523 2.089246 -0.960414 2.129484 0.507607 2.290105 3.02474 -1.021173 -0.61959 1.196403 -0.566978 0.053813 -0.084373 -0.078196 -0.011851 -1.000763 -2.527592 -2.429353 -0.143011 -0.027529 0.332596 -2.221722 2.808819 0.378287 2.273826 -1.461384 -1.17526 -0.187829 -0.565125 -1.281871 2.138638 1.2274 0.342755 -0.119073 0.708616 -2.579693 0.666606 -0.774943 -1.119249 -1.436971 -3.724684 0.752603 -2.064037 -0.885525 0.166018 0.182861 0.30809 0.217274 1.452862 -1.999882 -1.110785 1.162622 -0.580928 -0.242879 0.101305 -1.850745 -0.293402 0.99089 1.455484 1.771548 -1.445505 1.73928 0.862099 1.268054 -2.441261 -1.079981 -0.593852 0.96901 1.750135 2.004247 -1.377241 -0.616864 3.040873 -2.002945 -0.846602 -2.065585 1.655933 0.60664 -0.045528 0.491017 1.683495 -1.063659 0.159781 1.43426 -1.967651 0.810654 -1.889891 -4.993841 -0.327132 -2.350942 1.623225 -0.183844 -1.205062 -1.087046 1.431931 1.309539
canyon -2.65414 -1.734391 0.079025 -0.527159 -0.105255 0.899057 0.596061 1.363189 -1.217286 0.474616 0.030558 -1.147209 -0.464215 1.670024 1.08449 0.248137 2.050884 2.079835 -2.610693 -0.794176 1.081445 0.636426 0.693888 2.911795 0.882237 -0.151261 -1.772364 0.46596 0.573603 -0.266882 -0.398651 2.739334 -0.710247 -0.074476 -1.00675 0.995353 2.316158 3.616681 2.426286 -0.994388 1.201688 -0.264803 -0.846654 -1.820982 2.969727 0.421936 -0.54735 -1.312824 0.647456 -0.34234 -1.373381 -0.620291 -1.762351 -0.703162 3.076129 -0.911592 -0.098839 0.268731 -1.840246 0.476231 -0.677185 0.088402 -2.082551 -2.054136 -0.565746 -0.535214 0.032016 0.009661 1.522412 -1.004337 1.304327 1.90605 -1.458264 0.511251 0.423552 -1.381643 -0.448622 -1.415936 1.886536 -2.786922 0.027324 -0.380041 -0.044539 0.056197 -3.713992 0.257063 1.637633 -1.479602 0.937177 0.203813 0.328818 1.694992 -3.494485 0.087032 0.39819 -0.390909 2.894214 -1.459679 -1.454951 0.790679 0.999036 -0.702405 -0.346641 -1.907819 0.671351 -1.202874 -1.375021 0.707 0.291241 0.049079 0.349807 2.009662 0.483848 0.118585 0.404841 0.067861 -2.488568 -2.76215 1.128884 -0.024439 0.582551 -1.423716 -0.053345 1.774003 -0.667401 -1.642233 0.652879 -1.208945 -1.154085 -0.537007 -1.060172 -2.324038 -0.089213 -1.141504 1.775325 -2.006473 0.742345 1.796976 0.629976 -1.26457 1.523688 0.366798 0.863071 -0.721324 2.651697 -1.217376 0.323588 -0.072974 0.651594 -1.425295 -2.429895 -0.448554 0.522996 -0.422071 -0.698981 2.529538 0.560619 1.621845 1.394318 -0.037863 0.62211 -0.64147 -1.153799 -0.420177 -0.823811 -0.27676 -1.794429 0.703404 0.672651 0.957861 -1.454419 0.875872 -1.855905 0.457422 -1.487954 1.364311 -0.776722 -1.106751 1.018631 -0.90018 0.663785 -0.531382 0.56146 1.612481 0.765074 -0.583357 -2.28156 -2.466383 0.198286 2.281377 -0.738236 0.092485 -0.474328 0.78814 1.962435 1.443599 -1.685721 -3.584379 -0.101502 2.278487 -1.742708 0.003166 -0.336332 0.204503 -0.372526 0.34015 -1.769165 0.505765 0.192846 0.110683 -1.296154 0.347854 -1.310035 -0.329179 0.857538 0.449441 -0.439333 -0.112033 0.238141 -1.805671 -0.058313 -2.438164 -0.023189 -1.793142 -0.901704 -0.952607 -0.616323 -2.729442 0.927039 -1.623789 -0.23486 2.48966 1.247782 0.0757 0.217454 1.218678 0.699674 -2.285553 -1.579595 0.069749 2.269165 0.300115 0.8827 1.969683 0.564265 0.896236 -1.875706 -0.723183 2.362113 0.569788 -1.864583 0.621959 -0.502845 -0.858262 -1.305589 -0.709688 -1.411715 -2.268129 0.855649 -2.99089 1.620389 0.873735 1.220962 1.032699 -0.628725 0.152628 0.698655 0.680305 -0.28086 -0.604513 -1.402487 0.558155 -0.091235 -1.367169 0.773156 0.235863 0.278313 -0.535704 -1.339415 0.095531 0.080492 1.290197 -0.245334 -0.737268 -0.555707 -0.790024 1.879654 1.290515 -1.145302 1.440404 -0.689886 1.629004 0.229069 1.709945 0.850211 -0.246103 3.041842 1.551762 -2.1644 1.403257 -0.345694 -2.146346 -0.003815 -0.836839 1.842475 -0.418486 0.835084 1.010906 0.874989 1.040514 -1.03041 -0.400681 -1.958883 -0.351061 -0.667091 0.062882 -0.226957 -1.283321 1.700316 -0.456696 0.989415 1.166277 1.40799 -0.621154 -0.77974 2.061977 1.058163 0.327756 1.358276 -2.082149 0.370332 -0.548177 0.566676 0.05701 1.704751 -1.963986 -0.61141 2.486195 0.831124 1.993209 -2.198665 1.174397 0.31823 -1.098173 0.964157 0.395731 0.304258 -1.456298 -2.226684 0.240911 1.534605 -1.099953 -0.804544 0.329322 -0.841496 0.421601 -0.967241 -0.016772 -0.552329 0.333832 0.357559 -0.952066 0.89443 1.897832 -0.431653 -1.679565 1.766825 0.142733 -1.259875 0.246353 -0.389391 0.696074 0.104307 1.879681 1.139001 -0.90694 -0.540629 -2.559717 0.50911 0.250611 0.704321 0.459431 -0.48028 0.894771 0.597839 3.222442 1.504025 -0.320408 0.669321 -0.525162 2.861924 -0.023273 3.622033 0.969898 2.17825 0.408295 0.207335 -0.974025 2.715852 -1.105927 -0.50988 0.734803 0.469209 0.499247 0.359792 1.558576 -2.892212 -1.738361 0.467611 1.848953 -0.770324 -1.102266 1.231623 1.601904 1.301192 0.876196 0.955813 -1.178311 -1.28203 -0.021038 0.606183 -0.786008 0.057402 0.311011 1.39794 -2.005213 1.190929 1.429051 1.70411 0.097992 0.807111 2.310443 2.310803 -0.459624 -0.334679 0.687207 -0.088341 0.111503 1.192449 0.106659 -0.972356 1.4448 -1.098171 1.87971 0.840412 -1.218696 0.179646 1.614341 -1.234728 -2.380804 -2.93E-4 3.378357 -0.630178 3.101777 0.813493 1.188126 -1.627432 -0.981566 -0.253089 -1.179692 2.191887 -0.344919 -0.128175 1.312511 -1.602398 -0.907746 1.932286 0.856866 -0.036342 2.362786 2.107846 0.243678 -0.942749 -2.285064 -0.09476 -1.587541 -2.812615 -0.968304 0.797491 -0.248648 0.494622 -1.570626 0.896292 0.324405 1.542033 -2.541538 -1.365789 -0.164307 1.187802 -2.725851 -1.864894 2.297278 -1.141852 -0.264559 1.331084 3.326226 -0.259675 0.681996 0.763713 -0.847324
delay 0.444656 -1.266018 0.457013 2.456039 1.381796 -4.671087 0.628318 -1.251686 1.011403 -2.781335 1.012909 -1.426121 2.238623 0.686758 -2.508322 -0.051955 -1.752918 -2.211265 1.507379 -3.713376 2.565797 -1.82925 -1.358576 -0.979521 -0.762361 2.038509 1.558253 0.208651 -0.852705 2.405984 1.992606 -0.358536 1.033639 4.341341 -0.735196 -2.510665 2.152856 0.495302 -0.517014 2.947466 -1.12174 1.014041 0.232612 1.495742 0.862937 -3.45475 1.259732 -0.834948 -3.697321 2.335049 0.462607 -1.648292 -0.45389 0.541893 0.060612 1.949378 -2.268185 1.427075 -1.460928 -0.706264 -0.322466 1.117004 -0.046436 1.717725 0.501385 -1.390658 -0.668691 -0.409082 -4.625612 -0.885465 -1.138059 1.892826 0.654117 -0.451128 1.729165 2.74469 1.130323 -0.12515 -1.288378 -1.51961 2.463922 -0.249422 -2.720576 -0.445787 1.380713 3.643847 -0.754438 0.780952 1.550964 2.314531 2.772438 2.516605 0.497919 -1.952756 0.019027 1.006447 0.574462 2.428267 2.646149 -0.724771 -0.066057 2.808262 -0.994355 0.97321 2.384909 -1.410738 -2.641285 1.155895 0.395519 0.647708 1.722091 -3.352382 -0.474528 -0.335205 -2.445909 -2.969319 0.72922 -1.008419 -2.091379 0.764267 -0.896931 1.384597 1.001396 -0.189042 1.678482 3.348595 -2.538884 -0.05909 1.811323 -3.320822 -0.8482 -2.782531 1.834802 -2.266884 0.156344 1.489492 0.772132 -0.066907 -0.813005 -0.069089 2.695128 -2.104928 1.27182 -0.221748 -0.39622 2.45707 -1.318045 -1.144734 -0.832217 0.498189 -3.284921 -0.331462 1.102733 -0.548214 3.283475 -1.018151 -0.185299 -4.44222 0.891456 0.388363 1.462206 2.844925 -2.882421 0.655562 0.932665 0.010009 -2.508394 0.067348 -3.079594 1.644562 0.597505 1.074363 0.941309 -4.214463 -1.053034 -1.171758 -3.950517 0.197832 0.291853 -0.026067 -1.636303 1.582386 -2.368324 -1.45375 -1.523917 0.918906 -2.315771 1.596345 -0.054319 -1.769332 1.107614 1.300973 1.424162 -3.029033 -2.220658 1.229164 -1.448913 -3.496283 2.994795 1.350497 -0.876599 -0.681977 4.86634 0.686542 -0.947071 -4.208964 -0.363043 -1.968207 0.839465 -2.033084 -1.842322 -0.212963 -5.787235 -4.133859 1.013593 -0.065781 1.039497 1.816626 -0.514799 -0.953895 2.571909 2.428418 0.45152 1.227126 -3.107146 -1.968553 -0.898732 0.549767 0.880992 -2.393536 1.737998 -1.514247 0.534168 0.868264 -0.433338 -0.315092 2.699602 -0.296473 -2.654225 -1.041259 -0.106228 -2.370785 -0.116549 -3.164216 0.746314 -0.474736 -2.453771 -0.914435 -3.559368 0.452157 -0.117222 -2.065483 1.642471 -1.621689 0.814606 2.254401 -0.335486 -0.984237 0.278518 -1.468547 -1.085947 -1.020835 3.024412 -1.618198 3.500286 -0.133773 -1.098702 -1.243904 -0.852386 1.578363 -0.035045 0.014096 -2.537063 0.813478 1.359904 5.020798 -1.944528 -0.207636 1.732678 -1.562618 0.560178 -1.673924 1.478777 -2.315047 -0.14047 0.610811 0.82922 -0.762314 -0.434788 -2.545048 -1.121753 0.656638 1.036673 1.898103 -0.793941 -1.983954 -1.239665 0.420051 0.910148 0.226272 0.483894 -0.002802 -0.737974 -0.226864 2.734263 -3.372966 -0.890448 -2.131164 -0.986859 -0.659003 -1.046863 0.323589 0.652683 2.425034 3.200233 0.077888 0.144491 -0.040062 -1.185812 0.951581 1.88527 2.852905 -0.026082 3.397662 -1.622029 -0.756137 -0.005543 -0.317924 -1.29112 1.309686 -0.999281 1.987142 -0.361351 -0.130348 2.297662 1.159611 2.633702 -4.72049 0.43326 -0.774405 1.370625 1.430643 0.008779 2.109049 2.046026 1.780134 1.390907 -0.953709 -1.970202 -2.910403 -0.416863 -1.886449 0.044669 0.922366 2.872979 -3.212561 2.170436 0.643938 1.067954 1.927505 0.920995 -1.630053 0.969865 2.277156 2.130316 -0.49572 0.495585 -1.005652 1.839972 -2.404428 0.705294 2.442795 1.762193 -2.822416 -0.797881 -1.076243 2.103728 1.058287 -1.909536 2.492307 3.592708 1.386901 2.675564 -2.237182 -0.638239 1.134429 1.115995 2.00233 -1.170734 2.288171 -0.854067 1.568867 -1.225786 -0.091669 -5.645142 0.604982 1.925683 -0.333498 1.951389 -0.580745 -1.550865 0.110036 -0.634615 -0.756025 0.393601 -3.921083 -2.444889 2.37905 -0.886508 0.259879 0.145106 -1.765786 0.827488 0.822354 -0.113803 1.190962 -0.573964 -0.472738 -1.09167 0.837693 0.395388 -0.561536 -2.040022 0.348478 2.287471 -0.794461 1.366909 -2.161011 -0.068889 1.041054 1.270411 0.483812 -0.21565 0.798488 -1.075042 0.168874 0.06061 0.513 2.495114 -0.587986 -1.659836 -2.242305 1.050746 -3.436086 1.18109 -0.700195 -2.713316 -0.224514 -1.105844 1.946289 -0.643862 -2.962819 -0.523385 2.406902 -1.128088 -0.578202 2.590285 2.160624 -0.80387 -1.38914 -0.425452 0.168575 -0.119157 3.920598 -2.677321 0.325901 -3.161391 1.713524 1.276046 -4.03814 1.433881 -0.864326 0.831464 1.02905 -1.212472 -1.412424 -0.318675 0.81549 -1.229717 1.650421 1.364788 1.263762 -0.958031 -1.068054 -3.022851 -2.340717 0.07606 0.321131 2.219955 0.412227 -1.409327 0.042544 -2.368269 3.579105 1.535347 0.713114 -0.050809 -0.614657 0.270093 -0.015532
size 1.111168 -0.76058 0.653697 -3.004462 0.77044 -0.267743 -0.380053 0.50707 0.980936 -2.366746 -1.23738 -0.560244 -4.020287 2.614998 2.393154 -1.746695 0.990122 1.716341 0.464875 -1.111729 0.35331 1.561226 0.643632 1.134052 -1.388485 0.122751 1.964321 -0.571683 -1.737811 0.176006 1.103556 1.165447 -1.186682 0.565076 0.87605 -1.384803 2.143989 1.647579 -0.82306 -3.784601 4.024932 1.645456 1.449285 2.41411 -3.732671 -0.514284 -3.553227 -0.37296 1.266201 -4.455073 0.640286 0.679756 -0.31044 -2.976659 2.027622 -1.620373 -1.650455 0.799045 0.917749 -0.90793 1.749615 0.720742 0.165688 0.192603 1.444528 2.508715 -3.601161 -1.923393 -0.91601 -0.220558 3.552721 -2.78583 0.167566 -2.230658 -0.988449 2.436606 1.563679 -3.124911 -2.361516 1.690077 -5.194389 0.087138 0.463982 -2.379505 -3.204328 -0.030805 -2.097136 -2.892356 -0.229097 1.268543 1.520008 0.316205 -1.230436 -3.393427 -1.959997 -0.68188 -0.522894 -0.173007 -1.719924 2.405113 4.360472 1.794627 -1.144528 1.302441 -1.500401 2.33812 -0.820265 1.666828 0.053312 1.599226 0.005022 -0.606339 -1.231656 -0.288328 1.343391 -2.116776 -2.331344 -3.243926 -0.768727 0.897049 -0.435368 0.624463 0.630624 -1.437316 -0.891702 0.183753 -1.117384 0.285237 0.727228 -1.289356 -0.39187 -0.343257 0.414133 0.16915 -2.416463 -0.326955 -4.301141 -1.073484 -1.742416 -0.872654 -0.52669 -0.534977 1.760522 2.99819 -0.785246 -1.269008 1.454315 -2.326406 0.578764 1.095645 -0.182317 2.354992 0.639492 -1.40658 3.626031 -0.552595 -1.191705 -3.279891 1.690297 0.858484 -2.929313 0.499637 2.50262 1.611163 -2.796405 -1.344673 1.332154 -0.104939 -1.470176 -1.494658 1.467153 1.590436 -3.680761 -2.373003 -4.819821 -0.109402 0.495168 -3.718504 3.02996 1.145395 1.734513 -0.958352 0.351446 1.989479 0.121062 1.371387 -0.35835 0.027125 2.685009 -0.16505 1.374779 -1.21898 3.665658 -3.399861 -2.991863 -0.856519 0.323647 -1.410234 2.074433 0.051701 -3.128066 -3.506497 1.611349 -0.409374 0.031624 0.442919 1.154033 -3.611395 -2.110071 1.188971 0.627549 3.532557 -2.435441 0.962388 -2.893439 -3.241405 0.441181 0.591455 -0.405619 3.903423 -0.1227 -0.228418 0.353214 0.123483 -0.497087 0.225908 0.761835 -1.683534 1.398372 3.127452 0.921835 0.83149 0.530328 -0.968229 -0.405666 3.910942 0.66728 0.222215 -1.160614 -1.961076 -2.098492 2.947766 0.555151 -1.466346 1.1439 1.445229 3.212407 1.454795 1.972851 3.03687 1.099554 -1.321717 3.553859 1.182813 1.85498 -2.45021 1.068079 -0.855904 -1.961776 -2.851393 0.626948 3.11955 4.614425 1.16151 -1.98655 2.886897 1.759375 1.401288 2.848754 -3.111313 -0.916089 -0.732469 1.305272 -2.085011 -0.258828 0.074784 0.997427 -1.419387 -3.776807 1.374192 2.028031 -0.233332 1.810306 -3.533963 3.302073 1.177237 1.695002 1.664069 1.144558 -2.66525 2.264349 -0.416364 -0.17126 3.39352 0.423727 0.590105 -1.322703 -1.141522 -0.135351 1.32472 1.582853 -1.073735 0.6179 -1.315595 -1.831134 0.101274 -0.274133 -2.436089 2.170567 4.529859 -0.208009 0.552494 -1.640813 -0.025109 1.696081 -2.472131 -0.819348 -0.330668 -0.653745 -0.886178 2.170619 -1.592464 4.464017 0.51775 2.945325 1.835337 0.865851 -2.088206 -1.174701 -1.892677 -0.971241 2.248455 -0.684869 -0.408607 -1.527989 -1.002475 0.64062 2.196667 -0.252295 -1.406642 0.20222 -0.111364 -0.306693 -2.928966 -0.368775 -3.605931 0.983211 -0.418642 -3.18321 -2.292636 -1.027766 3.140512 0.380919 -0.558039 1.697832 1.107815 0.160834 1.285905 1.975635 0.447311 -2.655281 -0.140947 4.164426 0.387743 -1.124307 -0.826011 -0.839125 -1.106735 -0.507883 0.03891 -0.658957 -1.25994 -0.118137 0.338403 -2.552923 0.561122 -0.996471 0.657883 -0.790185 2.105307 -0.451669 2.2177 -4.257844 -0.938325 0.18906 1.108399 2.52974 -0.690341 1.150591 -1.988819 1.331999 -0.80889 -0.970766 -0.609527 0.77585 1.04178 0.44545 -2.734811 -0.77684 -0.432763 -1.526386 -1.755374 2.111491 0.071391 -0.520287 0.238436 2.340862 1.334461 -2.284499 0.02178 -0.339693 -1.718571 1.833101 -2.244712 0.756199 2.946028 1.769412 2.643543 2.08016 -1.015371 0.616116 2.840064 0.404119 -0.057677 -0.502988 2.844552 -0.538155 1.496215 -1.854191 2.352019 0.212381 1.496957 -0.717656 0.810621 3.320527 1.915461 -0.660842 1.53878 -6.463472 1.354638 0.649603 2.52242 0.856382 2.242301 -0.685489 0.202646 -3.058537 -3.464194 0.067462 -0.915648 0.398602 -0.311667 -0.846039 -0.546011 0.363567 0.733002 0.753448 2.274331 -0.519032 -1.536182 -3.812645 -0.676246 -2.223384 2.848614 -1.866295 0.466509 0.478644 2.062689 3.447289 -2.106194 1.284993 0.271248 2.63494 -0.787239 0.315229 0.062147 -2.640781 1.518658 -0.362089 -0.095435 1.641759 -3.243101 -2.162095 3.58758 0.505131 -2.172813 -1.276744 -1.643993 -0.357345 -1.76955 0.092943 0.948448 -0.755444 -0.104879 -0.620077 0.267978 -0.89797 0.223323 -1.02834 1.780944
peace -2.936335 3.24634 -2.016822 -5.093171 0.328333 3.151366 3.917456 -0.181755 -2.617755 -3.559731 0.835778 -1.00193 2.437313 1.797054 -0.36369 0.817371 -2.375914 -1.542231 1.31357 -0.441894 -1.897727 1.108899 -4.550998 -0.155853 -1.897032 -1.820495 1.196087 4.777749 2.627048 0.957807 -0.629606 3.541343 0.202083 1.564402 -1.001078 -1.862417 -1.152089 -1.193421 0.239839 -1.963672 0.982693 -3.97702 -1.548369 -0.227993 1.755649 2.864678 1.061115 1.08242 -0.76313 -1.166731 2.051219 2.080713 -1.312006 2.621034 -0.939049 2.126347 -0.249141 -1.28405 -0.755137 -0.389039 -0.782791 0.575149 -3.477571 -0.414701 -2.323914 -1.527909 1.104927 -0.812952 -3.146402 0.960107 -2.251146 2.708626 -0.114085 4.041987 -1.136558 -0.739756 1.102928 2.833548 1.816464 -2.398161 -0.529749 2.745297 -2.622253 -4.917344 2.166433 2.262305 1.258856 -0.416978 2.697024 2.515423 -0.219307 1.209859 -1.052246 0.458828 -1.106438 -1.753276 -0.693324 -4.139601 -0.27189 3.129958 0.189642 -3.030644 -0.268774 -0.377148 0.906624 0.181007 3.15165 -1.615094 3.230253 -0.442507 3.379281 -1.737927 0.730558 2.668234 -0.830865 -4.49555 1.644778 3.189582 -3.963937 3.868704 0.556231 -0.349072 2.227404 -1.034082 1.057011 -0.730406 -1.120777 0.672957 3.080174 -1.44308 -5.05784 -0.823855 -2.655356 -0.379578 5.376055 2.292826 -0.98166 0.115816 -1.510985 -3.299196 0.024358 -0.914833 -4.462309 -1.517612 -2.265082 -1.090429 1.788937 2.686459 -3.429909 -0.693504 -5.171742 -0.405777 -1.04037 -1.741704 -1.592448 1.047595 -1.846438 -2.846547 -0.126787 -1.281497 -6.784822 1.130626 -2.141175 1.485707 -1.69853 -0.465504 -0.281976 1.825139 -1.581568 -1.977925 1.193481 0.358639 -2.116271 0.859393 0.428701 -0.151499 0.034987 3.418122 -2.404514 -0.347099 1.003575 3.527433 -0.86946 3.317595 -2.523654 -3.282998 -0.412435 0.955926 2.318581 0.238172 3.393867 1.859761 1.775003 2.131433 -0.486948 0.88704 -1.490927 -0.62941 -0.542927 -3.000776 -0.642336 2.440782 1.968033 0.855808 -1.151748 0.772327 -0.62554 0.58166 2.387834 -0.385733 3.599738 -4.088138 -0.585925 -0.972284 -1.817841 3.638676 2.925453 3.390219 -1.184507 1.041198 1.563827 -1.738338 -2.543207 1.076327 -1.536032 0.194399 -2.214933 2.248394 3.227816 -0.834181 3.303745 -3.111776 0.281815 -3.238262 -2.765863 -0.392782 -0.925559 -0.670249 -1.702507 1.538154 0.657636 2.36251 2.942132 1.46387 2.648932 1.650004 -1.747026 0.941518 -2.896842 6.196781 -2.104248 2.822767 -4.718727 1.186938 -0.922728 4.409482 4.623822 -4.559751 -5.985116 1.564486 -1.00997 -3.521489 -2.095658 3.492591 1.343606 0.297664 0.740722 -2.87151 -0.526351 0.718932 0.736943 -1.018751 -1.716698 1.419377 -5.022312 2.099724 -1.46303 2.469131 0.273784 -1.781218 -4.837039 0.458903 0.725222 3.672046 0.3022 -0.699957 -0.338306 -0.689819 -0.209918 -0.63578 -4.354897 0.248641 1.924242 1.962381 1.591603 -0.790724 0.379486 1.694302 -1.924588 -1.429415 -1.403072 -0.846422 -1.851276 -0.371605 1.018181 0.980224 -1.890625 -0.794104 -4.533218 0.755934 -0.672081 0.809582 0.861641 -5.276172 2.010286 -3.804043 1.524601 -1.337494 0.405469 -2.626168 2.489443 -3.077667 -2.155395 1.282192 -0.72472 -2.632279 -0.521165 5.189799 -2.442098 -0.087081 -1.747003 0.209379 2.676238 -6.148525 3.583843 0.394445 -2.12664 0.88676 2.457566 2.315014 2.229713 3.795126 0.475288 -2.004766 -0.627055 -3.562266 -2.901394 -1.979899 0.678791 -2.173753 -1.039425 0.287473 -0.489796 -0.585167 -1.10127 0.47213 2.269408 1.865223 2.90041 0.188911 1.439787 -1.245278 1.397054 2.346757 -0.492399 -0.613231 2.41415 1.8445 -1.757144 0.907236 -1.800232 -0.344171 -3.906401 -2.245937 0.410698 -2.24142 4.570631 1.188478 -1.028534 1.518162 -0.164793 -1.298986 -2.996943 -5.03144 -0.952233 2.724263 0.238113 0.295518 -1.347394 -1.035214 -0.589481 -0.403382 2.226264 -0.849119 -1.37277 -5.595219 -1.967919 0.288661 -0.179459 -2.616859 4.110878 1.490118 -0.861766 -6.099714 1.434214 -3.785806 -2.326241 3.347847 1.116632 -3.841902 0.274277 -0.367905 1.011729 2.152771 0.904839 0.003602 2.096758 -0.10047 0.895439 0.867797 -1.260487 -1.877528 3.767091 -3.044637 2.288211 -0.034213 0.909632 -4.295886 2.447275 -0.680336 0.989515 4.322031 4.504081 1.109181 1.639002 1.312992 1.60495 -1.583666 3.366385 -1.842377 1.299944 -3.63975 -0.076433 -3.134467 -2.240138 -1.645388 -4.425298 3.915983 0.628616 1.889152 0.266294 -1.275505 -1.48027 1.299067 -0.640145 -0.286635 -1.26462 -2.310434 2.960746 1.901204 -0.668403 -2.783696 0.49409 1.84261 -1.683126 -1.779861 4.221822 -4.15245 -3.917996 2.068713 0.498855 0.429057 -4.87454 -2.824354 -0.391075 -1.317906 -2.147403 2.845491 -1.610385 -1.18226 -4.031577 -1.459376 -2.102028 -2.066967 1.458386 0.841179 4.57455 -1.80222 4.073874 -1.813404 -0.559109 1.739538 1.170067 2.409939 1.539724 -0.21346 -0.331593 0.583785 0.895631 1.273013
science 1.134512 -0.834549 -1.498268 -1.120884 -0.783742 -0.759324 -1.456962 0.21304 -2.470646 1.495614 1.524737 -0.081611 -0.037646 2.297412 -0.70202 -0.229054 -0.920681 0.26693 -0.144258 -2.858527 0.887253 -0.733592 3.631364 -2.060855 -0.276255 3.031557 -2.626791 1.120866 -1.061548 -2.086083 0.195504 4.255857 -2.334395 -0.211946 0.464882 0.72765 1.253246 2.249967 0.475791 1.753809 0.866458 0.758885 -0.974942 -3.647151 0.060511 0.849325 -4.156185 1.429369 -0.660254 -1.006182 1.783366 -0.950478 2.434746 1.745842 -0.565157 0.911834 -2.487933 0.925434 0.287016 -1.218622 4.148702 3.459778 0.580196 0.380092 -3.185376 -2.281918 0.635014 -0.823235 4.329741 1.309409 0.635743 0.832537 0.319909 4.266026 1.828283 2.546904 -0.327893 0.920876 0.584723 -1.706288 -0.913754 1.509513 -2.024956 3.981209 -0.590232 5.411746 -0.210099 0.24274 0.924256 1.263499 -0.940786 1.283589 3.858999 0.425123 1.310929 -2.888661 1.053981 1.585392 -0.233044 -0.923147 0.382436 -1.350639 -0.157483 -1.951849 4.394312 0.877057 -3.199416 0.45826 0.900858 -2.048622 1.32531 -0.776395 0.466702 -4.043425 0.431598 -0.038798 -1.43496 0.469472 1.150872 -0.474526 -0.763723 1.069797 0.639351 1.191155 -3.003428 -1.373376 -0.452938 -0.141047 -1.495103 -2.71397 1.407717 0.654859 0.744098 -1.367211 -0.388466 -1.344336 0.910822 1.07259 -1.163442 -1.001825 0.472692 1.02272 1.870805 -1.280741 1.138671 0.219646 -1.335344 0.37309 1.614781 0.562394 -0.776835 -0.002545 -3.15448 -6.324725 1.57028 -0.147727 0.523494 -0.019844 2.380557 -2.272201 0.229282 1.536462 -0.486653 1.032439 -0.030392 -2.406917 -1.841006 1.305587 -3.398471 1.794192 2.859279 -1.772638 -4.239433 -0.295237 -0.483275 1.372267 1.677382 1.042135 0.564413 0.100556 0.601191 0.123719 -1.505419 -0.758003 0.991101 -1.059148 0.979641 2.863665 2.340125 0.541269 -0.739418 1.248474 -0.235593 -1.094373 0.998397 3.315531 1.083339 1.38656 0.203657 -0.922439 -0.218401 -0.650804 -0.263436 0.229383 -0.213271 -0.036943 2.10928 0.011861 0.862026 -1.010475 -2.052183 -2.849095 2.287977 -1.718438 -2.182475 0.053099 -0.825657 -2.115764 1.473572 1.919933 -0.922364 -1.776439 1.325655 0.070952 -1.503229 0.075375 -2.143297 -1.678906 1.111316 -3.657504 -0.281765 0.958152 -1.289014 -1.148514 -0.278025 2.744632 1.068445 -1.287603 -0.553996 0.766017 1.33334 0.45558 4.002704 0.133013 -0.072431 1.441595 -1.14093 -0.452792 -3.764248 0.211 -0.373073 0.033888 -0.613366 0.5889 -0.715253 3.654171 3.245541 1.102013 0.855603 -0.993955 -0.27308 2.77355 -1.140225 -0.858979 -1.901592 0.702668 1.417841 2.142919 2.523541 -0.724527 2.608808 0.510883 1.989953 -2.097794 -0.792538 0.944549 -1.249048 -1.348174 -2.980814 1.152081 -1.41558 0.735813 -1.389815 2.077037 1.412143 -2.230398 1.88991 -0.626101 1.223775 1.129258 -0.747058 0.656166 1.130354 1.185809 -1.552452 0.783092 -1.936524 -1.819798 -0.335887 -1.676398 -0.055875 0.508302 -0.466023 -1.013378 -3.468646 2.924309 -0.99715 -2.522954 -1.855148 2.617337 0.87572 0.179057 -2.122736 0.039339 0.283919 -1.623295 0.665657 -0.875061 3.193465 -5.100346 -1.071192 -1.370484 -2.086657 -0.857703 -0.329524 -2.312815 -2.869831 0.280219 0.749601 -0.910081 -0.274261 0.308197 -0.813868 0.27323 -2.236943 0.972194 -0.258896 -0.600407 -1.210308 -0.200004 -3.032472 1.003176 -2.289573 -0.855847 -0.84006 -1.104522 -1.292862 0.254107 3.365806 0.484559 -2.65506 3.826826 -0.3198 -1.093302 2.314644 1.893948 -1.833534 0.989881 -1.684372 -1.798954 -0.80952 0.723193 -0.332149 1.666809 1.750244 3.476286 -1.5312 -2.072265 0.485153 -0.86331 -0.199728 0.709032 -0.770609 0.852644 -1.706326 -1.300825 -0.141436 0.635875 2.077645 1.068869 3.229719 1.934337 1.84E-4 3.159177 -0.670121 1.574919 0.030065 1.07801 0.656009 -1.332105 0.381945 -1.359725 -1.135307 -2.027116 -1.023279 1.045248 -2.455095 2.404407 -2.424278 2.02685 0.032646 -3.459538 1.669817 -0.632912 -1.772314 -2.247612 -0.283365 0.453123 0.635567 1.855831 -2.056925 0.143232 -2.623293 1.860185 -1.883319 0.41428 -1.127903 0.574023 -3.182113 0.939199 -1.178929 -0.372381 1.627076 -2.584175 0.610633 2.125961 0.619567 1.008991 -0.400785 -0.959505 0.159341 0.197287 2.751477 -0.4195 -0.869134 -0.187591 0.923921 -1.47917 -0.540308 -0.397222 0.913249 1.203263 1.236343 4.084188 -2.681129 0.019434 -1.723822 -3.373442 -1.339374 -0.402282 0.818156 1.054558 1.077464 -0.081493 -1.302082 -0.019493 -1.885194 2.099525 1.43106 0.954073 -2.182708 0.312178 -0.394658 -1.215643 -2.414528 -0.867247 0.249481 -1.830261 -0.778206 0.462128 -1.429273 -1.49949 0.005878 0.223086 2.420997 -0.395085 0.807099 0.310511 -0.641292 -0.596451 0.591879 -0.238405 -2.037817 2.02053 0.772887 -0.572346 0.327551 0.035607 0.268168 0.587487 -1.272382 1.234254 1.144285 -0.54841 2.016814 -0.151762 -0.199415 -2.751691 0.050459 -3.522394
dawn -1.608597 -2.464131 -1.026274 1.107033 -3.884833 -0.581036 1.407632 1.435075 -1.718392 -0.570972 0.369511 0.576602 0.687891 -1.010795 -1.632272 -0.867287 0.18188 2.469739 -0.521058 0.611752 0.164744 -2.426031 -2.676637 1.298001 0.988837 2.201852 -1.994822 1.135134 -4.023759 0.076883 -1.408399 2.172547 -0.26493 1.097477 -2.50343 -1.108989 -0.502368 -2.926856 3.240347 -0.070094 -2.789513 -0.981105 -2.001776 -1.045235 -0.397472 1.626484 -0.961497 -1.783383 -0.192693 1.323425 0.19143 -3.137847 0.904962 -0.652443 1.523288 1.866464 1.467216 -0.335101 -0.794948 -1.225325 -1.427935 -2.659014 -4.175083 -0.005345 -1.034312 -1.075862 0.943979 0.3323 2.139501 -1.815501 -1.92012 -0.097313 -0.715947 2.733999 2.64754 -2.269083 -1.63023 -0.841851 1.368122 0.799308 3.841019 -1.168612 0.825189 1.672779 -1.206426 1.05151 0.152604 0.233098 0.711627 1.932262 -1.770199 2.534062 -4.761374 0.337426 0.064796 1.153043 2.084777 -0.7516 -1.797079 -0.735442 -0.189784 1.538536 -1.978708 -2.15123 -0.178541 0.707675 1.571018 -0.909499 -0.915137 -0.315287 -0.898497 -0.518747 0.637168 -0.681912 1.275803 0.673654 -2.782748 -2.046468 2.575414 -0.566355 0.694146 -2.810368 1.362144 0.798537 -0.924753 -1.686404 4.101989 0.789943 0.727354 1.573872 0.062971 0.536085 -1.814066 0.111231 3.113286 0.716367 -1.048243 -0.538849 -2.628851 -0.999307 0.9225 0.473969 -0.989289 -0.293582 0.86977 -0.326039 1.617471 1.960259 0.569975 -4.440646 -1.561837 1.706839 2.043016 2.188542 -1.299814 -0.252779 -1.682427 -0.937376 1.29168 -1.29075 -0.018444 1.312039 -0.392571 -2.931069 0.822125 0.285612 1.402439 2.89464 -1.330891 -1.861178 -1.922735 -1.873656 2.013496 0.53105 1.630807 0.585995 0.150382 -2.846159 -1.081393 1.694509 2.168663 1.982292 2.08223 2.680568 -0.300814 -1.336325 -2.472161 -1.903228 -1.22439 0.166153 1.499265 1.602534 0.081749 -0.982923 0.103607 -0.750603 -3.57113 -1.77379 -0.071926 -0.364501 -0.682824 0.15347 1.323774 -0.54053 0.088157 0.838724 1.333736 -0.970015 -0.680739 1.334258 0.892645 0.191739 1.178899 -0.674363 1.253847 1.129555 -1.046329 -0.35141 -2.587405 -2.335176 1.816975 -1.730936 -1.523721 -1.132828 -2.014605 -2.895303 -3.971073 -0.900931 1.591804 -2.025711 2.647643 -1.436453 -0.672875 -0.730968 0.037469 0.351635 -1.997767 -2.072323 -2.105117 -0.473848 0.831492 -0.499935 1.275677 4.413608 3.272101 1.753379 0.222129 0.236879 2.670909 -0.226994 -1.101311 2.358419 -0.622619 -3.059484 -1.118221 -3.90921 -2.450389 -1.539287 0.474256 -0.678253 -1.035266 -1.861468 -0.911591 0.632399 2.518204 -0.40037 0.844953 3.623084 0.790127 1.70767 0.336967 0.610799 -3.279029 -2.336788 -0.837374 1.221817 -0.779723 -0.515076 -0.304409 -0.010424 2.205674 0.632133 -0.70274 2.639827 -0.562951 0.892735 2.187959 -0.474789 -1.450435 3.241472 -0.101609 0.227278 1.181845 -0.0939 -3.075337 0.088001 0.440735 -0.245056 -3.298032 -1.472487 -0.907816 0.337407 0.321421 -1.613411 2.078954 -1.67861 0.427021 0.170356 0.119908 -1.582413 0.266549 2.276592 -0.006313 -2.518244 -1.560529 -0.380163 -5.013801 0.550909 -0.620638 -1.384118 0.240096 0.545976 1.27226 -1.349985 -0.664657 1.081374 -1.583334 1.017903 -0.963751 -0.515741 -2.522166 2.826528 0.296819 -0.360353 0.400442 -2.366524 -1.866673 4.38142 -0.934476 0.154156 -0.995685 0.804933 -0.435853 0.427046 -3.170467 0.097313 -3.50937 -3.128157 -0.86798 -2.097977 0.267615 -2.170998 1.182924 1.542082 -0.746536 0.589597 -0.50069 0.321163 -0.113211 -0.439767 0.277685 1.336312 0.07536 -0.619471 -0.860604 -1.869879 -1.266543 -0.904154 1.315338 -0.07404 -0.828146 -1.134722 0.175347 1.777727 0.0159 -2.121844 1.024349 1.393575 1.417856 2.728489 0.067889 1.981451 -4.453605 -0.401172 1.107182 3.159112 0.513857 0.671289 -0.872086 0.850099 -1.788223 2.02948 1.489019 3.294994 2.3242 1.165939 -1.628931 -0.451562 -1.597024 0.231398 0.468522 -2.486896 1.85254 -3.725132 -1.104032 0.841907 2.541276 1.686734 -1.117081 2.640359 -0.037799 -0.926902 2.606189 0.34316 1.970592 -0.087994 1.031232 -2.904647 0.788084 0.618047 2.122871 -1.144792 0.894067 0.589006 2.950233 -2.140909 -1.372483 1.451769 -1.360031 -3.166434 1.097819 1.353668 2.607345 -1.268205 0.371417 1.682881 -0.097611 0.405387 -3.10532 0.150406 -2.509717 0.698912 0.848552 -0.342191 2.246531 -0.32894 1.610863 1.325395 1.529774 -1.085049 0.920549 3.61821 -2.747531 -1.582757 -0.254936 0.336819 -1.370427 4.784323 2.32559 1.693758 1.247972 -1.42549 1.146547 2.245178 -0.596434 0.121748 -0.519076 1.143427 2.077732 2.391687 2.429207 1.554211 0.580725 0.342906 3.702589 -1.226572 0.531636 -2.062369 -2.264852 3.09904 2.031954 0.878263 1.529238 2.273973 -1.711037 1.627949 3.117496 -1.693901 2.896535 -3.645393 1.260886 2.086289 2.504081 1.326254 1.951282 3.00299 1.617438 1.104482 2.906782 2.195231
