432 400
plane 0.147012 -0.570392 -1.895586 -0.175286 0.661417 0.359745 0.537231 -0.405171 -0.867899 0.565422 -0.152281 -0.294473 0.441705 -1.056865 -2.042639 -1.053857 -0.300545 -0.967583 0.72514 -0.877118 0.34898 1.940189 1.399854 0.180056 -0.621976 0.082012 0.153695 0.810693 -1.693559 1.609653 0.799445 -2.162734 -1.102968 0.915034 -0.329302 -0.828955 -1.020993 -0.334856 2.238086 3.033026 -1.019476 -0.9945 0.104893 -0.330793 -1.983612 -3.498718 1.555816 0.6709 -1.098323 -1.197269 1.989679 1.575984 -1.987822 0.525391 0.933148 -0.026278 -1.369364 -0.175929 0.936786 3.0625 0.250684 -0.155157 1.064673 -1.047863 -0.879694 2.568165 -1.495433 1.073658 -0.36564 0.563415 0.231194 0.403328 -0.497415 -0.523404 -0.070586 0.472698 0.82368 1.386089 -0.296782 1.877883 2.269616 0.357195 -0.333259 0.418658 0.351972 0.624148 0.498133 1.15208 -0.565514 0.109045 1.72501 0.032441 -1.107667 2.15626 1.817947 -0.773394 -0.411469 0.685251 0.646765 0.938646 -2.381067 -2.379358 0.299079 -0.269377 -0.125219 -0.290282 2.088065 -0.226386 -1.928185 0.227564 -0.739859 0.253793 -1.299737 -0.538471 1.153488 -1.390437 0.335717 0.172227 1.473406 1.536417 -0.094885 -1.303561 1.213252 -0.002215 1.147001 0.606885 0.882655 1.08677 -1.205786 -2.087641 2.474289 -0.524865 -1.49518 0.809519 2.026089 -1.361138 1.301024 0.629858 1.348908 -1.041415 -0.430544 2.302753 -0.734452 -1.400022 1.481842 -1.011562 1.685596 -0.420306 0.24151 -1.473027 0.99199 -1.36215 1.666498 0.063518 1.51617 -1.42932 1.347655 -0.825511 -0.98961 -0.50079 2.021232 -1.120827 0.406232 -0.889588 0.935125 -1.420784 -1.961812 -2.096796 -0.181576 0.511327 2.270813 1.867027 -0.495011 -1.410559 -1.431862 -0.833614 0.651167 0.785135 1.193664 -2.686673 0.333829 0.413457 0.422976 -0.815709 -0.845607 0.528863 -1.290337 -1.833267 0.794268 -1.323956 -1.267863 -0.130633 -1.092633 1.56513 -2.321201 1.266971 0.462179 0.553383 -1.975595 0.379575 1.601913 0.573985 1.368286 -0.415973 0.073745 1.491561 -0.589995 -0.442117 0.613532 -0.88522 -1.36783 0.023212 -1.029915 0.228758 1.697608 2.604775 0.697399 -0.156808 0.817904 -0.092428 1.746818 0.759446 -0.089853 -0.153996 -1.238046 0.874668 -0.266713 -0.50897 1.740132 1.192968 0.55284 -1.036883 -1.257012 -0.083615 -1.287726 -0.698686 0.120066 0.899403 0.847155 -0.609334 1.282425 0.552487 -1.670461 -0.238336 0.041819 -0.559571 0.388989 -0.212518 1.429914 1.680893 2.026559 0.256193 1.29482 -1.579393 0.267856 0.792455 -1.274389 -2.244123 0.674351 -0.408661 -1.043255 0.730894 -1.57643 -1.751748 0.703381 -2.094224 -0.413518 0.809233 1.414432 -0.348147 -0.077798 0.887227 -1.087179 -3.341341 1.079941 -0.600689 0.156386 1.15461 0.66215 -0.740788 1.960149 0.023289 -2.043062 -1.146188 0.157758 0.115327 -2.110884 -1.150193 0.886135 0.642188 -1.194447 1.161455 1.375013 1.16976 -2.285615 -4.310267 -0.333903 1.606695 -0.834898 -0.839325 -0.535881 0.986387 1.485247 0.5422 -1.447334 1.133456 1.771815 -1.686114 1.049581 -1.249373 -0.277685 1.182432 -0.217598 0.335206 0.084752 1.49861 -1.822232 1.36061 -0.12858 0.058146 -0.466119 -1.015564 0.61438 1.197937 1.126457 0.491216 1.62157 0.796768 -0.695131 -0.352021 0.559091 0.350925 0.957834 0.622302 1.003782 0.713492 1.177938 0.909206 2.322278 0.825732 -1.727401 -0.365413 0.209402 -1.081231 2.856809 0.928294 0.409529 -0.085166 0.866547 0.541222 0.214987 1.653789 -2.364927 -0.046216 0.490127 -0.486177 0.864393 -1.146407 -0.908152 -2.29113 -0.773069 -0.181133 -0.547484 -0.853001 0.464962 0.477602 -1.096817 1.863122 0.429189 -0.8365 -2.065016 0.802442 1.519063 2.256554 1.646989 -1.50302 1.067007 -0.599384 0.64717 -0.052696 1.344842 0.772051 -0.089099 1.757076 0.397244 2.029606 1.105149 0.213929 -1.205188 0.309713 0.434429 -0.346449 0.206607 -0.890921 -1.360695 -0.14251 2.284901 2.654225 1.628987 2.987834
stupid -1.031894 -0.094739 0.010716 0.214571 -0.402902 -0.307574 -0.271334 -0.289397 -1.023633 1.168071 -0.135646 -0.460831 -0.03971 0.090982 0.183853 0.241823 -0.221071 0.201539 -0.322237 0.731353 -0.311318 -1.361573 -0.490243 -0.865182 -0.089684 0.711392 1.180785 1.951845 0.076509 -0.378269 0.225748 -1.035764 0.398219 -0.57027 -0.34231 0.755868 -0.126072 -0.3557 -0.080629 -0.167784 -0.868795 0.386671 -1.055426 -0.07341 0.610041 -0.602211 0.431462 0.140528 -0.158916 -0.007299 -0.532692 -0.722282 -0.779846 -0.130485 -0.344285 -0.461943 0.429931 0.138773 0.145584 -0.132731 0.158811 0.732946 -0.176538 1.360762 -0.082091 -0.152641 0.825545 -0.106694 -0.58843 0.125823 0.546957 -0.377973 0.208942 1.12032 -0.016753 0.04456 -0.195999 0.511662 0.514379 -0.873118 0.623989 0.512185 -0.742215 0.763789 0.873331 0.253728 -0.157804 0.02716 -1.424248 -1.26297 -0.001901 0.313184 0.243335 0.153914 0.170314 0.129979 -0.730391 0.254748 -0.787457 -0.220854 0.708516 0.617897 -0.9283 -0.108791 -0.052207 -0.271534 -0.450482 -0.242551 0.134472 -0.429842 -0.588813 0.258079 0.625595 -0.175343 0.222064 1.019341 0.100053 -0.045277 0.466315 0.329308 0.196138 0.198482 -0.298807 0.389282 -0.325376 0.166045 -0.006814 0.278039 0.128934 0.681993 0.228388 0.476185 -0.036061 0.2313 -0.369158 0.346867 -0.146996 0.170546 0.041453 0.087153 0.067414 1.070382 -0.373397 0.021217 -0.61394 -1.239514 -0.672694 0.134398 -0.193908 0.396622 -0.148775 -0.569386 -0.839922 -0.531035 -0.032734 0.587705 0.547681 0.202381 0.090741 0.142768 -0.90541 -0.1584 0.212599 -0.054136 -0.395654 -0.08574 -0.253845 0.643945 -0.046229 -0.209963 0.267684 0.498883 0.171674 0.287898 0.776243 0.872443 0.186801 -0.822722 -0.638761 0.611801 0.003912 -0.273902 -0.514161 0.016941 0.627876 0.145297 -0.767864 0.125545 0.155155 -0.211766 -0.301702 -0.202735 0.77913 -0.113432 -0.981977 -0.591029 0.443904 0.01584 0.107948 0.125362 -0.207506 -0.175708 -0.220575 0.310391 0.104687 -0.290116 -0.782118 0.303729 -0.736966 0.050121 1.467437 -0.505768 -0.338511 0.191155 -0.728604 0.19593 0.297158 -0.554689 1.316497 0.084774 0.26092 -0.034482 -0.336022 0.151088 -0.602412 0.244663 -0.184278 0.546669 -1.244916 -0.373969 -0.753815 -0.267649 -0.134679 1.398372 0.652292 -0.091182 0.589448 0.580742 -0.437938 0.465674 0.772376 0.829353 -0.372409 -0.452797 0.315668 0.143569 -0.781957 1.415504 -0.041379 0.263102 -0.173455 -0.125407 -0.200775 -0.618825 -0.19065 -0.423341 -0.463824 0.205798 0.393664 -0.025381 0.959251 -0.097367 -0.099773 -0.780731 0.093718 0.43557 0.705893 -0.83921 0.166175 -0.995834 0.073178 -0.538439 0.276501 -0.2774 -0.659809 0.512457 -0.347813 -0.030991 -1.082245 0.259924 -0.304522 0.064003 -0.293962 0.638246 0.406116 0.565502 0.23366 0.12788 1.038014 0.140908 0.170831 -0.13802 0.085372 -0.047592 0.709484 0.438495 -0.698353 0.136187 0.04435 -0.297841 0.453045 -0.150656 0.372708 0.167473 -0.596941 0.18586 0.513149 -0.130361 -0.087637 -0.270452 0.540338 -0.791401 0.516206 0.063043 -0.723041 1.297399 0.733512 0.816576 -0.133968 -0.508474 0.325259 -0.432883 -0.202773 -0.142742 -0.497079 -1.065849 -1.777722 0.164656 0.132127 0.014868 0.965571 -0.389974 0.826481 -0.799559 0.459049 -0.142365 1.171215 -0.241167 0.913658 0.497823 -0.26345 -0.292095 7.67E-4 -0.497551 -1.193771 -0.554666 -0.155825 -0.4184 1.032476 0.151803 0.666373 -0.163405 -0.17966 -0.893998 -0.079856 -0.028994 0.825877 -0.289235 1.157245 0.045733 -0.213667 0.252376 -0.81073 -0.930901 -0.37172 0.609546 0.765059 0.533985 -0.499682 0.841239 -0.117309 -0.561517 0.034828 -0.62847 0.535882 0.070109 -0.631164 -1.008552 0.402948 0.913782 0.371529 -0.960174 0.231463 0.576245 1.115815 -0.143209 0.428038 0.224023 -0.211853 0.605313 -0.116283 0.266563 0.349573 0.195643 -0.318532 0.54678 -0.135393 1.268971 -0.948454 0.398547
egg 0.092302 1.781255 -0.072709 -0.223359 -0.212632 -0.553151 0.784837 -0.485351 0.125951 0.550381 0.155208 -1.185497 -1.248505 0.690334 0.392157 -0.1205 0.198149 -0.016853 -0.054977 0.090728 -0.232479 -0.72613 -0.713985 0.134958 0.605337 -0.06546 0.049634 0.064376 0.223973 0.220398 -0.671934 -0.290903 -0.872109 0.925209 0.451794 0.954547 0.092775 -0.118078 1.008822 -0.471877 0.062903 0.246277 0.105071 0.629056 0.316666 -0.530903 -0.116593 0.104989 0.459052 1.150188 -0.468147 -0.686454 0.220277 -0.448479 -0.539432 -0.588563 -0.140741 0.09604 -0.093312 1.984886 0.238288 -0.100462 -0.261328 -1.266203 0.21697 0.426434 0.114891 -0.384438 -0.257771 -0.157899 -0.159742 -0.60924 0.438862 0.310115 -0.049427 -0.899182 0.056417 -0.458333 1.74E-4 -0.393779 0.102275 0.063054 0.204535 -0.583411 0.70901 0.146578 -0.004527 0.135729 -1.011094 -0.077466 0.034162 -0.703242 4.22E-4 0.717252 0.631827 0.385418 -0.027107 -0.893895 -0.047315 0.99131 0.611332 0.30791 -0.127293 0.101526 0.362845 -0.059799 0.216815 -0.03543 -0.553846 0.376065 -0.963298 -0.26165 -0.589731 0.203621 1.382545 -0.81649 0.662364 -0.525069 0.574568 0.061336 0.143085 -0.657125 0.685404 -0.301759 -0.14425 -0.580291 0.053808 0.605011 -0.096494 -0.085238 -0.11521 -0.658371 -0.02963 -0.381213 0.495462 0.201233 0.31617 -0.321025 -0.054089 0.81047 0.619989 -0.49603 -0.060819 -0.033035 0.03798 -0.186676 -0.021741 -0.111651 -0.012823 0.270242 0.637161 -0.690807 -0.346266 -0.496439 0.606013 -1.078294 -0.303393 -0.125004 0.153375 0.405076 0.255499 -0.214016 -0.424706 0.195815 -0.159538 -0.678053 -0.806795 0.439871 -0.057033 0.094432 -0.384246 0.779054 -0.372612 0.666908 0.119604 0.383889 0.118733 -0.520377 0.802923 -0.064368 0.693204 0.190733 -0.512267 0.903069 -0.6029 -0.38233 -0.291876 -0.22737 -0.196132 -0.119511 -0.520441 0.236458 0.773057 -0.612964 -0.632136 0.050979 0.56241 0.132437 0.224439 -0.357904 -0.129206 0.314035 0.011898 -0.275813 0.48768 -0.308837 0.982603 0.510144 0.019661 0.224153 0.023461 -0.316329 -0.335498 0.91628 -0.260124 -0.326633 -0.874885 -0.283866 0.225346 -0.249355 -0.497447 0.318401 0.093248 -0.421076 -0.168169 0.332106 1.013284 -0.808004 0.179387 -0.398587 0.333199 -0.050711 -0.263344 -0.132006 -0.448894 -0.004975 -0.220093 0.362385 0.730426 0.1438 -0.681553 0.330007 0.123903 -0.0493 0.331947 -0.208722 0.186653 0.799252 0.384216 -0.173009 -0.077246 0.396572 0.564804 -0.973672 -0.043074 0.027114 -0.181343 -0.481099 0.632298 -0.59726 0.692462 0.396501 0.516025 -0.143509 -0.412367 0.069291 0.116718 0.644846 -0.180185 0.435481 -0.43106 0.240206 0.358862 -1.013406 0.548834 -0.065784 0.021082 -0.290201 -0.576412 0.402201 0.264572 -0.415363 -0.317832 -0.073277 0.306152 0.374157 0.341104 -0.268163 0.290257 0.201915 0.40525 -0.53576 0.235973 0.354635 0.11461 -0.659654 -1.30744 -0.163575 -0.00991 -0.27451 0.279511 0.32971 0.661936 -0.29758 -0.886586 -0.04343 1.070248 7.1E-5 0.484524 -0.315814 -0.520797 0.197435 0.460285 0.098992 -0.687647 0.749482 -0.786122 0.49169 0.157408 -0.476118 -0.794607 -0.526573 0.540646 0.097517 -1.322415 -0.050974 -0.433347 0.47349 0.224028 -0.547669 0.147414 0.515739 0.105517 -0.018499 -0.408312 0.309118 0.553922 0.345558 -0.346286 -0.434693 -0.231521 -0.057872 0.491733 0.221108 0.319712 -0.436275 0.17497 0.138009 -0.875779 0.025832 0.366816 0.110981 0.0139 -0.254772 -0.246517 1.336764 0.205818 -1.022276 0.224621 0.597197 -0.589882 0.197415 -0.209719 -0.185206 0.5967 -1.243542 -0.558585 -0.103552 -0.658644 -0.191524 -0.136598 -0.718371 -0.212173 0.449172 1.206208 -0.312147 -0.335462 -0.829326 0.70028 0.232414 0.418783 -0.435014 -0.588141 0.6379 0.953973 0.138667 0.540511 -0.962322 0.950098 0.745799 0.751327 0.312766 -0.996543 -1.789204 -0.512032 0.293971 0.337969 -0.089722 0.434019 2.114688
year 2.611057 1.155657 -2.006815 -0.102396 -1.799141 0.891622 1.965805 4.020139 0.777257 0.562335 3.15863 -0.645235 -2.68703 -1.680845 -0.252063 0.33628 -0.266617 -1.018794 0.045566 0.787817 0.852221 -0.784774 -1.029335 -0.843939 0.601562 -0.124455 -4.086163 -2.694558 -0.044799 1.049181 -2.699969 -0.27583 -3.3405 -0.92969 -3.482249 -3.107547 -1.851938 2.108625 4.034937 -0.981933 1.071508 -0.08357 1.751572 -0.686175 -3.619543 -0.694751 -2.784852 -3.043639 4.028023 1.331501 -1.40792 2.836764 -2.342884 1.669745 0.74711 -3.420371 0.891813 1.019774 -0.910526 -2.195833 1.561042 -0.491379 -2.272393 -1.08379 0.61427 0.916133 -0.820069 0.048702 -0.936198 -2.945862 4.732923 0.489088 -0.961138 -1.067842 -2.25384 1.514548 0.223331 0.23949 1.96872 0.429552 -1.141882 -2.239748 1.851805 -2.72944 -0.215983 -0.558765 -1.7735 -1.82618 -1.732434 2.179552 4.078533 1.673376 -1.712733 1.31668 1.202332 4.28227 -1.539474 -1.154989 0.444244 1.086109 0.158053 -0.412056 -1.770765 1.911632 -2.368874 -1.313615 2.711872 -1.045025 -0.840784 1.992906 -0.571136 1.233893 1.452788 1.191845 2.942505 0.808387 0.302803 1.527988 -3.537399 0.762849 -2.438364 -0.991426 0.736444 0.839844 2.225683 2.649227 2.023456 -5.251878 0.107768 0.344513 -2.566701 -1.157798 0.475222 0.185739 1.066725 0.131091 -1.203411 0.316786 2.194366 -1.435937 -1.118032 -0.467227 1.62707 2.111737 1.090413 -0.806886 -0.418661 -0.429911 -2.344315 2.620818 -2.183527 -0.271018 1.731205 -0.692644 1.795025 -5.475715 -0.408452 5.638489 -2.506439 2.18875 1.266503 0.511557 -2.051963 -0.448096 -1.408224 -1.682061 -1.868155 0.808866 -0.740436 -0.302264 1.382869 1.903087 -1.242945 -1.531919 -1.448363 -2.636069 -3.255333 -2.909969 -2.988722 2.03732 -0.12597 0.893725 -1.694523 -1.46934 2.456704 -2.714298 -1.414881 1.980292 -0.032005 0.616036 2.563188 -1.631005 1.307392 -3.46312 1.652385 0.348357 -1.17629 0.659851 1.278056 1.306036 -1.137944 -0.665589 -0.65636 -0.57258 2.017401 -3.189075 0.888443 -0.729082 2.327856 -0.618769 -2.807791 -1.961094 -1.330734 -1.179333 0.864341 -2.26815 -0.338123 -0.969444 0.004126 -0.163545 -0.117829 -2.394032 -5.440348 1.288882 -0.658619 1.184395 1.174475 0.502723 1.824559 3.324532 0.592943 -0.998648 -1.868312 1.714225 1.749803 0.521136 -0.785033 -0.203324 1.785264 0.075833 -1.272211 -0.979395 1.283673 -2.454262 0.199625 0.213987 -0.875251 -1.826051 -2.731852 0.980733 1.927269 -2.365151 -0.968622 1.156519 0.852995 1.767882 1.097815 0.383333 -0.288419 -1.381624 -0.589785 2.376218 3.361336 3.441645 -1.610443 -1.746057 -1.869439 0.383591 0.82735 -0.197472 -0.145353 0.846559 2.993742 -2.44892 1.917462 -3.437825 1.777947 0.442885 0.436598 -0.703257 3.23232 1.351931 1.495696 -3.171365 0.96027 -1.612289 0.687422 -1.569876 -0.565508 0.931292 0.50171 1.407366 -0.714995 -1.761881 -1.163705 0.198762 -0.265471 0.89573 2.020378 -1.431426 0.734706 -0.378116 -2.244374 0.239283 2.226257 -0.605292 0.978351 -2.807397 -1.379258 -4.200141 -2.149812 2.935574 2.172095 -2.219359 2.530732 -3.774812 2.724231 -1.537537 -2.322865 0.985821 3.464835 -1.358243 -1.950825 -2.972179 -1.739993 3.950785 -0.666879 2.293958 1.462079 0.575747 -0.065181 -0.08639 0.982978 -0.094017 -0.619151 -0.676597 2.350741 0.942304 3.883898 -0.989716 -2.588115 -4.550781 1.024617 0.12042 0.446788 2.145029 2.126968 -0.849499 0.907677 -0.232113 1.476889 1.134807 1.201252 1.757459 0.296889 0.031749 -1.073127 1.740287 -1.680512 1.641104 -2.063137 -2.781163 1.764618 -1.029978 0.308403 -0.61784 -1.164091 3.325614 0.031249 -2.009811 -0.822465 -1.056177 1.277651 2.79841 -2.475877 1.214333 1.475492 2.533652 -1.03961 0.738179 1.546433 2.247056 -0.290169 0.716674 1.031698 0.705447 1.980878 -1.218339 1.901693 0.254245 -2.452543 -1.902164 -2.338074 0.902736 -2.970516 0.886418 -0.451672 1.256325 5.854061 -0.127585
psychiatry 0.194623 -0.242189 -0.096401 0.148402 -0.255696 0.123611 0.022502 -0.250395 -0.005677 0.193794 0.049591 -0.176393 -0.349241 -0.060104 0.011936 0.094166 0.072046 0.172972 -0.028131 0.059918 -0.093411 -0.265619 0.175911 -0.187975 -0.091903 -0.060376 -0.089238 -0.211507 -0.176966 -0.182679 0.03743 0.285146 0.030451 0.030293 -0.095446 0.143832 -0.022411 0.154172 0.015297 -0.078565 0.068074 -0.079974 -0.203489 0.130557 -0.098127 0.011375 -0.038515 0.01389 0.240884 0.072702 0.041231 -0.009385 0.107953 -0.091826 0.040667 -0.367964 0.034964 0.078514 -0.089257 -0.09791 0.031988 -0.166251 0.111161 -0.122521 -0.158822 -0.248928 -0.07887 -0.204205 0.184413 0.198326 -0.250999 0.104686 0.148636 0.217088 -0.066811 0.160439 -0.072528 -0.092207 -0.060965 0.265416 -0.051192 0.065849 0.196872 -0.007766 -0.246832 0.104957 -0.12771 -0.371767 0.307126 -0.227913 -0.504664 -0.186595 -0.28183 0.004412 -0.017483 0.265884 0.355905 -0.097645 0.022951 -0.049643 -0.078771 0.042424 -0.090864 -0.135812 0.325786 -0.351432 0.103504 0.087068 -0.175983 -0.063251 -0.419527 -0.017372 0.126933 -0.01869 -0.023067 0.100019 -0.291994 -0.097807 -0.177448 -0.095881 -0.02096 -0.028608 -0.105779 0.159508 -0.188445 -0.209283 0.083389 0.254297 0.371594 -0.032576 0.146741 0.050779 -0.407372 -0.291157 -0.25025 -0.088133 -0.27072 -0.389253 -0.380351 0.125561 0.168243 -0.342726 0.512369 -0.083573 0.065772 0.356804 -0.268996 0.244552 0.201965 -0.053014 0.077588 -0.011626 0.054504 -0.026151 0.00836 0.057207 -0.155561 0.179534 0.203476 0.117433 -0.168765 0.148844 -0.169989 -0.224017 0.250408 -0.072821 -0.313413 0.064762 0.038764 0.095206 -0.089563 -0.482597 -0.011816 0.021805 0.009032 -0.141724 -0.254077 0.117066 -0.031809 -0.181666 0.209208 0.04596 0.194296 -0.062102 0.138563 -0.045504 0.119467 -0.105168 -0.08639 -0.112999 0.147599 -0.206628 0.12829 -0.193717 -0.052287 -0.051304 0.365365 -0.01455 0.037022 0.08424 0.149047 0.40772 0.089619 -0.326429 -0.001468 0.165416 -0.110192 0.232713 -0.433116 -0.029066 -0.069282 -0.193663 -0.028989 -0.106228 -0.283513 -0.173924 -0.353239 -0.174994 0.116283 -0.174851 0.260598 0.05787 0.060299 0.149788 -0.133612 -0.177781 -0.096132 -0.180027 -0.059984 -0.314814 -0.05431 0.236587 0.084385 0.00433 -0.019531 -0.023235 -9.92E-4 0.133458 -0.134769 0.205342 0.139494 -0.324501 0.129301 -0.035327 0.001848 -0.004001 -0.021292 0.148567 0.196616 -0.019631 -0.271408 -0.048693 0.237135 -0.053305 0.236443 0.118193 -0.177661 -0.171455 0.029716 -0.07081 0.07507 -0.060619 0.102618 -0.105897 0.07709 0.135841 -0.015007 0.171139 0.014277 -0.195497 -0.100118 0.069183 0.211491 0.137025 -0.120471 -0.170341 -0.079833 0.234784 -0.11411 -0.294634 -0.15336 -0.01171 -0.310974 0.184499 0.110302 -0.067136 0.142262 0.041375 -0.183697 -0.434784 -0.197586 -0.023337 0.006905 0.050231 0.182672 -0.107427 -0.116189 0.034522 9.74E-4 -0.064086 -0.144429 0.085892 -0.06439 0.176793 0.061943 -0.029987 0.215826 -0.145371 0.125425 -0.035762 0.264879 -0.218563 -0.038675 -0.00923 0.014228 -0.024175 0.037889 0.033195 0.262739 -0.214292 -0.113263 0.256655 -0.002609 -0.108341 0.162149 0.171806 0.225099 0.126135 0.085903 0.074328 -0.286557 0.06035 0.141347 -0.024204 -0.008277 0.216459 -0.030791 0.15484 0.035341 0.128364 -0.150183 -0.046043 -0.087424 -0.331003 -0.593334 -0.043757 -0.057207 0.111318 0.127143 -0.010223 -0.151738 -0.006005 0.102843 0.107513 -0.17557 0.309734 0.153914 -0.176591 -0.116888 0.107604 -0.066155 0.07356 0.253594 0.201887 -0.146971 0.326807 -0.039383 -0.036602 0.119261 0.012324 -0.003064 0.086739 -0.226972 0.10168 0.081807 0.05511 -0.092443 0.131098 0.25833 -0.138679 0.039362 -0.213049 -0.229462 -0.08562 0.040564 -0.163341 -0.08104 -0.043481 0.199513 -0.017207 -0.15638 -0.0074 0.118675 -0.194619 0.04819 0.101474 -0.02659 0.102473 -0.207219 0.32912
asylum 0.204908 -0.314204 -0.594429 -0.274475 0.325692 0.671723 0.429508 -1.953661 -0.199877 -0.993101 -0.757077 0.260264 0.92074 -0.460303 -0.029129 0.509523 -0.047646 0.447575 -0.317516 -0.003924 -0.817131 0.156311 -0.245488 -0.457956 -0.133125 0.307412 0.582563 0.148036 1.14601 1.053206 -0.322276 -0.644838 0.869889 -0.125639 0.127672 0.416324 0.275694 -0.224732 -0.534853 1.5815 0.389853 -0.469548 -0.33266 -0.512399 0.34475 -0.323246 -0.518497 -0.074705 0.006009 -0.38223 0.992942 -0.104302 0.409052 0.577086 -0.466444 -0.352273 -0.445117 -0.725793 0.330728 0.868072 -0.192103 -0.501117 0.037725 -0.41513 0.683173 0.358297 -0.605483 0.006663 -0.106792 0.261044 -0.162654 -0.069293 -0.288661 0.173609 -0.969133 -0.011587 0.015846 0.895448 -0.217871 0.221917 0.279575 -0.136139 0.903956 0.205617 0.81154 -0.273137 -0.062643 0.832393 -0.262195 0.212002 0.136891 0.19464 -0.165562 -0.079256 -0.156717 0.428264 0.052306 0.556731 1.189259 -0.586951 -0.71426 0.611311 0.02984 -0.17583 0.397581 -0.641856 -0.367139 0.669101 0.489439 0.464222 0.546775 0.643428 0.641537 0.059177 -0.274424 -0.27984 0.078453 0.590849 0.592038 0.562483 -0.210988 -0.442186 -0.040801 -0.02884 -0.710527 0.164275 -0.011301 -0.66856 0.1626 0.086678 0.260732 0.200895 0.387211 -0.812282 -0.260028 0.238462 0.782058 0.029082 0.02541 -0.607998 -0.918539 0.194653 0.51265 1.258915 -0.471562 0.05069 -0.559433 -0.614426 -0.971363 -0.174692 0.842304 -0.43936 0.771522 -0.329275 0.304739 -0.465688 0.032802 -0.038632 -0.237572 -0.106802 -0.563385 0.441245 0.334503 -0.312366 -0.324085 0.371176 1.474142 -0.872856 -0.140756 -0.239185 0.09225 -0.247327 0.010825 -0.586724 -0.084919 -0.165559 0.18161 0.710774 0.170083 -0.78177 0.409845 -0.115372 -0.537305 -0.142805 -0.181597 0.078226 -0.811708 -0.523862 -0.466824 -0.805357 0.292422 0.914215 -0.886848 -0.815166 -0.124096 0.053203 0.524258 -0.162653 -0.549676 0.101336 0.50325 0.043021 0.520478 0.630678 -0.174125 -0.752484 0.390477 -0.019267 0.330076 -0.495485 -0.18567 -0.42471 -0.324561 0.603341 0.044395 0.221159 0.985674 0.473117 0.307216 -0.373345 -0.122997 -0.604837 -0.050962 0.033097 0.182594 -0.047699 0.018871 0.406797 0.258897 0.632159 -0.544386 -0.864832 0.63838 -0.12401 -0.109567 -0.625081 0.457029 -0.525483 -0.800434 -0.476646 -0.388962 -0.779609 0.096107 -0.271785 -0.940254 -0.656504 0.750891 0.281545 0.087078 -0.137815 0.188559 -0.797421 -0.515431 0.074365 0.157301 0.377751 0.857445 -0.829906 0.16195 -0.614574 -0.181644 -0.285227 0.063186 0.138555 -0.261683 0.103787 -0.40748 0.274544 0.122234 0.958723 -0.063813 0.207344 -0.663062 0.798112 0.214832 0.387025 1.112516 0.158249 -0.215134 0.13594 -0.40522 0.617492 -0.526444 -0.220733 -0.18933 0.644118 0.121143 -0.284521 -0.825753 -0.774049 0.27071 0.539245 0.270703 -0.234384 0.869775 -0.429635 -0.210629 -0.145822 -0.34261 0.146198 -0.160502 -0.073368 -0.777741 0.526718 -0.366508 -0.617496 -0.015996 -0.750737 -0.640786 0.429753 -0.797978 -0.303954 0.628059 -0.551988 0.596002 0.366097 0.552736 -0.557081 -0.210356 -0.050512 -0.160086 -0.060335 -0.36845 -0.898292 -0.122002 0.216166 0.506548 0.818556 -0.784889 0.239731 -0.005165 -0.55759 -0.771303 0.679749 0.623205 0.372406 -0.02891 0.425365 0.165928 0.327845 -0.268054 0.227518 -0.11294 0.42051 -0.841645 0.310203 0.588111 0.142214 -0.127228 -0.029851 -0.324678 -0.34953 0.317674 -0.424323 0.39747 -0.048682 -0.181097 -0.178618 1.105968 0.173973 -0.314152 -0.884752 -0.045685 -0.135401 0.500469 0.475798 -0.853059 0.549145 -0.323293 -0.437471 -0.457231 0.352226 -0.053558 -0.310184 0.109001 -0.384326 -0.49218 0.236506 -0.110503 0.393646 1.004842 0.093325 -0.077143 -0.051124 -0.202096 0.474053 -0.469038 0.11977 -0.452373 -0.237505 -0.26985 -0.490537 -0.779158 -0.152828 0.284259 0.711397 -0.398892 -0.163333 0.321291 0.151008
manslaughter -0.526691 -0.392874 1.25005 -0.004136 0.831702 1.333284 -0.486051 -1.154005 -0.032003 0.034971 0.728532 0.023705 -0.03264 -0.750594 0.092277 -0.030645 -0.999114 1.255898 0.154541 -0.299693 -0.270667 -0.09667 1.16026 -0.15107 -0.376536 0.537554 -0.099003 -1.196016 0.404345 -0.348708 -0.850026 0.425524 0.155281 -0.314985 -0.382718 0.650248 -0.460339 1.485092 -0.9958 -1.519946 0.255659 0.136475 0.030773 0.598649 0.809634 -1.24928 0.852563 -0.258775 -0.268031 0.056202 1.760919 -0.091108 0.828487 0.995547 0.410297 -1.253437 -0.014766 -0.93322 0.387203 0.281505 0.093487 0.149066 -0.354187 -0.187452 1.040808 0.185496 -0.884736 -0.539252 0.847279 -0.113987 0.608934 -0.496238 1.485574 -0.982191 -1.036212 -0.355497 -0.753491 -0.150636 -0.76191 -0.468448 -0.954792 -0.651687 1.307393 0.136785 -1.138906 0.740785 -0.230155 0.180287 -0.096334 0.298132 0.831668 -0.386941 0.016364 0.66557 -0.196419 0.474926 -0.606437 0.212427 1.414923 -0.392432 0.025431 -1.289702 -0.982823 0.743952 0.148325 -0.024145 1.730859 0.463299 -0.078426 0.504579 1.323399 -0.077734 -0.305672 1.026129 -0.669333 -0.753647 -0.766132 0.680893 0.478708 -0.190972 -0.281551 -0.35242 -0.409536 0.616339 -0.710995 -0.32546 -0.24031 -0.152036 0.03108 0.800587 0.407776 -0.739414 -1.770893 -0.735848 -0.955203 -1.056221 0.307669 -0.505148 0.468075 0.089775 0.539546 -0.147643 0.140008 -0.412148 -0.077048 1.626506 -0.110285 -0.061412 -0.486909 -0.600935 0.702571 0.15712 0.713636 0.246065 0.096094 0.010345 0.478384 0.547182 0.200612 0.044332 0.755992 0.757683 -0.019444 0.662963 -0.178302 -0.3309 -0.169705 0.070389 -0.762931 1.052377 0.775071 0.500806 0.300671 -0.951496 -0.455459 -0.921224 -0.011198 0.737163 0.034725 -1.530608 0.448338 -0.416995 0.615425 -0.766266 -0.687666 1.190407 -0.097129 -1.167636 -0.655022 -0.003303 1.185433 -0.178707 -1.029943 -0.60552 -0.587019 -0.202577 1.08204 0.766141 0.256031 0.324301 -0.47783 0.106687 0.819396 0.433855 0.037507 0.227344 0.09381 0.597638 1.225522 -0.396556 -0.052181 -1.134169 -0.080928 0.541008 1.178732 0.688678 0.397447 -0.649059 -0.565518 -0.45218 0.62016 -0.617859 -0.47298 1.21521 0.427461 -0.085531 0.676669 -0.774858 -0.502271 0.168948 0.437581 0.764797 0.064867 -1.143722 -0.25835 -1.068897 1.268489 -0.31978 -0.735876 0.35074 -0.447196 -1.033496 0.569087 0.011514 -0.48886 -0.456821 0.94541 -0.346239 0.279016 0.025397 -0.487134 -0.534914 0.686823 -0.917355 1.684442 0.820239 0.255116 0.16393 -0.478768 -0.276624 0.315799 -0.466418 0.259906 -0.193153 -0.658793 0.903298 0.422427 0.03896 0.433078 0.716414 0.357733 0.156309 -1.025908 1.026372 -0.874926 1.167163 -0.427157 0.420933 0.239064 0.079753 0.087008 -0.363095 -0.758136 0.578904 0.137838 0.26536 0.182335 0.264135 -0.026725 0.349946 1.099787 -0.939902 0.44272 0.534561 0.277964 0.113827 0.210835 -1.285951 -0.087133 -1.24596 -0.451604 -0.890049 -0.408774 0.470895 -0.786483 -0.445239 0.633335 -0.299877 0.485606 -0.040874 -0.16008 -1.204108 0.083667 0.732581 0.296107 -0.163044 -1.107802 -0.303369 -0.745859 -0.184383 0.088998 0.406081 -0.315043 -0.040384 -0.081259 1.326478 -0.038435 0.257761 -0.708331 0.910781 -1.041005 0.527908 0.082863 -0.379754 -0.707145 -0.345072 0.736929 -0.095088 0.912453 0.904471 0.302076 -1.260016 -0.378385 -0.845039 -1.890768 0.999685 -0.63199 -0.198547 0.220812 -0.179545 -0.407362 -0.195083 0.073678 0.554068 -0.290762 0.516595 0.39665 -1.498869 -0.168563 0.641718 0.745672 -0.689984 0.208836 0.091325 -0.903821 0.968089 0.206596 0.060278 -0.539057 -0.565961 -0.932941 0.592906 -1.22894 -0.269007 -0.548444 0.281189 -0.535257 0.404525 0.120265 -0.840075 -0.4116 -0.30255 -0.073512 -0.352403 0.640047 -0.452318 0.519882 0.506627 0.243724 -0.609016 -0.853581 0.331306 -0.93803 -0.179008 -1.04003 0.267241 -0.429631 0.272001 0.075748 0.859558
music 0.747129 0.862427 -2.81681 0.374867 -0.046652 -1.741669 1.701809 1.120165 -1.577628 -1.104884 0.260398 -0.386203 -2.22772 2.803659 0.123636 0.47248 0.208829 -1.55361 -0.734734 -0.415702 0.733855 0.532954 0.975542 0.651064 2.083555 0.070497 -1.329251 1.049606 -0.891804 -0.414571 -2.213753 1.439384 -1.945734 -0.021137 1.155603 -0.344109 -0.828378 1.433997 1.151602 0.116548 -0.494613 -0.532441 1.060603 1.705947 -1.627069 2.937101 -0.244481 -1.106632 -0.228232 0.798256 -0.464894 0.581432 -0.377484 -0.227961 -1.644859 -2.313844 -1.633415 -1.155705 0.970317 3.405307 -0.178169 -1.147659 0.209281 0.787178 2.142688 -0.720941 1.772193 1.517931 0.697545 -0.930594 -0.07107 -1.916152 1.723631 2.237973 1.904046 -2.848713 -0.931825 -0.669936 2.173285 2.001198 -0.21614 -1.933455 0.972431 0.173433 0.703599 0.338387 -0.074185 -2.339001 0.18815 -3.56179 -1.440245 -1.997161 -2.767738 1.868125 0.78167 1.849632 -0.674889 -0.800315 -1.116923 -0.84054 -1.092905 1.609528 -0.449606 1.099727 1.91324 -1.280863 -0.197628 -1.599906 -1.082993 2.277573 -2.509933 0.844909 1.302806 -0.54344 1.725039 -1.746508 -3.056654 -0.111899 -0.738368 -0.011608 0.896898 -0.337035 -0.00479 -0.094549 0.188723 -0.704062 0.384668 -0.02756 1.888494 0.24927 -0.570584 -1.304007 2.013515 -0.392759 0.391039 0.498975 2.242421 2.396427 -0.149645 -1.494918 0.392475 -0.446715 -1.369227 -0.063035 -0.567421 0.226735 0.766878 -0.053691 -0.950451 0.516944 -1.706876 0.520179 0.0284 -2.666328 -0.145268 -0.634358 -1.449836 1.138325 0.665466 0.819485 -0.140182 -0.16729 -1.498257 -1.342748 -0.99252 2.884971 -0.47158 0.676704 -1.397274 -0.268521 -0.890543 -1.860631 -2.00288 0.217208 0.837536 -1.791257 0.42786 -0.056508 2.454966 1.156962 -1.496865 -0.237125 -0.992347 -2.869022 1.632847 1.796214 1.899832 -1.488937 2.137458 -1.487079 -1.285658 0.745686 0.423578 1.785332 0.463742 2.271836 -0.92865 -0.872624 0.504665 -0.798134 -0.486315 2.006984 -1.156464 -0.823122 -0.029667 -0.508379 0.759561 1.828387 -0.501247 -0.536578 3.262304 1.548069 0.927647 1.378908 -1.532278 -0.354682 -0.410962 -1.41776 0.20073 2.30837 0.754325 1.883286 -0.397367 -0.894353 0.408106 2.879969 1.585903 -0.216145 -0.392838 -0.712912 1.421346 0.221238 -0.17825 -1.007252 -0.678987 1.064994 0.217295 0.660353 -0.718906 -0.006418 -0.544129 1.654488 1.068387 1.293762 0.41802 1.332221 -0.01471 1.833182 -0.939483 -1.927501 1.178059 1.195331 1.672835 -0.77068 -0.844229 -0.516846 0.20028 0.415559 -1.225605 0.293435 0.321206 -0.073288 -0.874425 -1.096254 -1.131168 1.036334 0.179664 0.558874 0.380452 -0.182949 -0.27443 1.437434 1.545025 -0.723331 0.620194 1.398872 0.330306 -0.473644 0.86103 2.150576 1.18013 -2.57951 -0.524753 1.542654 1.682921 -1.517268 -1.210029 -0.626056 -0.575638 1.2085 0.042125 -1.260635 0.70622 -3.193588 1.655003 0.229846 -0.845111 -1.274559 0.354386 -0.557284 0.573637 1.640691 -1.300198 0.75139 -1.514439 -1.249344 0.07738 0.624359 -0.023657 -0.36131 -0.032356 -0.367793 1.083186 0.248157 -3.151621 -0.795234 1.883561 1.692649 -1.021592 0.661493 -1.053602 -1.613254 -1.852584 -0.910366 -0.2568 -3.016268 -0.09965 0.573704 -0.472569 0.692758 -0.461375 -2.665094 -1.758474 -0.138225 -0.320328 -1.101287 -0.836515 -1.837133 0.923726 -0.480843 0.241965 0.826525 1.505577 0.014566 -1.261898 0.06993 0.629809 -0.478755 0.315309 -1.787916 1.582775 -0.288932 -0.799015 0.167925 2.295657 0.132518 -1.952992 0.373989 -1.592855 -2.101132 0.402292 -0.258481 -1.929694 -0.816884 -2.052857 -2.826221 0.650099 0.362854 0.827383 1.620225 -0.984931 0.708115 -2.522394 0.568961 1.677832 -0.760022 0.414913 1.089894 -0.42427 1.324551 -0.332262 -0.924659 -0.08274 0.373058 1.713944 -0.301509 1.420437 1.280354 -0.737759 -0.083907 3.06126 -0.905644 0.476572 -2.173803 1.510232 -2.005823 0.590962 -0.156603 0.209791 0.345216
record -1.421117 -1.846576 -3.084916 2.087297 -0.410637 -1.118863 0.437302 -0.279648 -0.664769 -1.38251 0.782909 -0.066579 -2.00269 -0.713811 -0.823707 -1.348795 -0.843612 -0.201865 1.589291 0.650683 -0.239059 -2.526068 0.173199 -0.153712 -0.482378 1.109282 -1.657536 -2.02476 -1.354436 -3.008525 -0.565278 0.242163 0.715262 1.774512 1.594119 -0.359301 -1.276688 2.079163 -2.320779 0.611023 0.455344 1.981979 0.542353 -0.006996 -0.514639 1.890685 -0.325486 -2.422594 0.182996 0.551285 1.287874 0.709996 2.339458 0.215562 0.645055 1.160833 0.210986 2.055668 0.827987 -0.259442 0.25536 -2.829364 0.947717 -0.365158 -1.054878 -0.627056 1.502948 -0.391455 0.686513 -1.318751 0.266442 -0.970791 -0.312117 -1.440997 1.408137 0.334445 -0.98246 -0.610217 -0.207078 3.620229 -1.107753 -3.604455 0.269704 0.601135 0.327204 1.64117 0.22943 -1.643877 -1.005567 2.306405 -0.137078 -2.784383 -0.18034 -1.128766 1.857878 0.313183 -0.617176 -0.939201 0.646014 1.497948 1.546321 2.607617 2.55399 2.285933 1.79679 1.111982 1.363067 0.477178 0.929808 0.986197 -0.389776 -1.194821 0.241383 0.595543 -0.29952 -1.171552 0.910543 0.586349 0.191507 0.174493 -2.65305 0.67769 -0.849243 0.602294 0.842744 1.966878 0.762554 0.857136 1.841477 -1.148081 -1.495214 -2.596356 0.183951 2.139548 0.764533 0.506008 0.407081 0.65907 -0.785978 -0.505273 -0.242292 -0.774191 -0.374068 -0.385112 -1.707941 -0.69146 2.254894 -1.409399 -1.061429 -1.161875 -0.655176 0.599602 -0.908818 1.206988 1.956926 -0.28476 0.17426 2.337621 -1.125641 -0.297315 -1.29215 -1.932819 -2.54358 0.26039 -0.524609 0.389392 -0.909258 0.284207 -0.322129 -1.311382 -3.063488 1.669122 1.200722 1.482957 1.482071 -3.756303 0.112474 0.989469 0.055553 1.107585 0.140598 2.37229 -1.403568 -0.372565 -0.725816 -0.619902 0.757665 -0.487256 -0.408412 -0.706155 0.841638 1.027974 0.654799 1.722881 -0.333472 1.880734 -2.029721 1.219999 1.240147 -0.423849 0.073916 -0.805792 3.030067 0.560581 0.95903 -0.289437 0.869526 0.518572 2.354453 -0.638147 0.386507 1.021715 -1.301429 1.68303 1.663138 0.850448 0.758372 0.880927 0.287532 0.231941 -0.309405 0.411755 -2.479075 -0.272998 -0.661958 -2.901853 -1.564398 0.123791 -1.36133 0.374487 2.024755 0.765257 1.114914 1.105562 1.000775 -0.019691 2.112302 -1.935122 1.034722 -0.57581 1.152048 -1.699931 1.414062 -0.97401 -0.39827 0.381596 2.642183 -0.625702 -1.213291 0.705706 1.352349 0.235476 0.291434 1.259489 0.147525 2.234712 -0.02543 0.258658 -0.965176 -0.349152 0.761619 -1.756506 1.106482 -0.932343 2.069688 -1.328056 0.187883 -1.685888 -1.622572 0.212986 -1.093156 1.922646 2.78244 -0.653088 1.018268 0.930927 1.453385 1.116949 1.535128 0.542842 2.131577 -0.529127 0.71534 -1.851857 -2.138038 -0.599348 1.470081 0.81669 -2.50391 0.72172 0.142679 -1.435332 -1.836228 -0.35078 -0.267834 1.287128 -0.564611 -0.237688 -1.679155 0.777509 1.810673 -0.216916 -0.182297 -1.874415 -0.322829 -0.943173 -1.008469 -1.611536 1.500013 -1.448426 -2.068455 2.526799 0.23174 1.88326 0.270998 -2.767844 -0.421068 2.704799 -0.865443 -1.688285 0.698611 -1.284923 0.330222 -3.042335 -0.391737 0.810452 -2.090068 1.712179 0.423398 1.869203 1.873794 -1.634702 1.307212 0.484555 -1.573058 1.162857 -0.62977 -0.708775 0.83846 0.908892 -1.360726 -1.086801 -1.467775 1.535982 0.47024 -1.444609 1.455438 0.299695 0.117252 0.386921 0.799541 0.377351 -0.006021 -0.269324 -0.455824 1.556235 -1.047117 -0.419805 -0.133786 -0.551337 -2.586417 -0.386929 1.379303 2.109509 -2.091239 -0.629785 -0.698406 -0.945288 0.216973 0.384019 -0.216801 0.564192 0.856964 -0.399303 1.125923 -1.093829 1.682931 1.499036 -2.496762 -1.753134 0.27139 1.123646 -0.674656 1.929512 0.923238 -0.561511 -2.094507 0.857982 0.938717 1.338232 0.617435 -0.501357 -1.913354 0.06268 1.433824 -1.312132 2.862581 -0.473403 1.70931 -3.489511
energy 2.669525 -1.436677 0.795805 -0.345821 -1.655301 0.041819 0.621741 -1.492709 -0.751496 0.04465 0.79553 0.332688 -3.333464 -0.959759 0.720649 0.426784 -0.790954 0.91785 -0.603316 1.332686 -1.588063 -0.396146 0.476561 0.189045 -0.317078 -2.392997 0.672285 2.839694 0.406419 0.408651 1.705955 0.863892 1.364658 2.108002 2.306828 -1.48166 -0.36765 1.946234 -0.073119 1.107354 1.198103 0.236113 0.347459 2.161968 0.535238 1.239439 -0.606004 0.208491 -1.509647 1.344659 -1.276918 1.233082 0.400993 1.018317 -2.194074 0.777214 -1.76271 -0.146824 -1.100387 0.490162 -0.386279 0.040387 0.325611 0.153542 0.356715 1.510735 1.631059 -0.82277 -1.072759 0.052293 1.95793 -0.608302 -1.082466 1.003816 -0.153218 -2.503348 -0.690929 -2.315852 2.542665 -1.916758 -1.84311 0.543901 -0.824081 1.599768 -1.463815 0.917235 -0.422726 -3.084902 -0.579575 0.797796 -0.553885 -0.556963 -1.437443 -1.74293 -0.718445 1.933272 0.575021 0.437067 -0.072602 2.639064 -0.27751 3.034648 1.352216 0.528207 -1.000615 1.077648 1.973369 -0.948676 0.027498 -0.628758 1.333869 -0.193156 0.659598 -0.611927 -0.652432 -2.191293 -1.070845 2.698222 -0.88839 0.695578 -0.837524 1.326416 -0.737161 -0.050322 -0.722358 -1.653662 -0.008991 0.134027 1.850497 0.318826 -0.784266 -2.594503 2.055876 0.090964 0.407453 0.393053 -0.142344 -0.414816 1.102701 2.035882 -0.144911 -1.134013 1.067678 -0.19618 -1.843756 -0.665007 -0.4643 0.536635 1.626112 -0.792985 0.203957 1.027041 -1.911877 -0.055657 -1.609928 -1.960959 -2.535708 1.214428 -0.971675 -0.111018 -1.844756 -0.178513 -1.168784 2.958303 0.269814 0.636612 2.091617 -0.800986 2.060063 -0.137193 -0.38668 -3.443141 0.901454 2.144699 -1.19756 2.130295 -0.88229 -1.961579 -2.099185 -0.825538 -2.203778 2.167248 1.593275 -0.56573 -1.400565 0.134851 1.130942 0.644465 0.450712 0.050545 0.854329 -1.34426 2.530549 -3.246096 -1.452301 0.844094 -1.162072 -3.05707 -0.202334 1.304179 -1.180172 -1.583513 1.883923 -0.438839 2.524036 -0.4048 -0.231111 -2.625753 0.774127 0.269157 -0.545643 -0.309864 0.771083 1.100116 -2.333074 -0.013878 -0.876925 -0.071622 1.981646 1.121385 0.300977 0.548572 -0.13922 -2.297713 0.905219 1.878829 -1.251937 0.224308 0.233892 -3.186812 -0.026687 -2.685726 -0.08343 -1.398464 1.108343 -1.402905 1.099779 -0.288719 0.942211 -0.135335 1.529338 -0.673062 1.62799 -0.733909 0.738628 1.226576 1.778214 -1.942573 3.123475 1.669018 -1.127035 1.798928 -0.307892 -0.107389 -1.653091 -1.803266 -1.070085 0.470637 -0.73485 0.475959 -1.138242 -1.217339 0.271306 0.148036 0.224647 -0.507695 -2.757048 1.005576 -1.042405 -1.69146 0.616548 0.592836 1.2156 -1.519347 -2.806401 -1.276089 0.708326 1.033056 -0.595149 -0.633014 -0.505042 -0.693686 -1.143713 -0.016815 0.813638 2.503894 1.106311 -1.995171 0.684584 -1.748967 0.009596 -0.322766 1.855241 0.536909 -0.74589 -1.4318 0.158536 0.322004 -1.170863 0.542129 -1.048298 0.141953 1.429183 2.559848 1.582069 1.658924 0.202273 0.006397 0.988577 -0.15447 0.690194 1.251938 0.932075 -0.746625 0.423643 -0.873653 0.975033 -2.471268 -0.721689 -0.949967 -0.080856 0.792256 -1.371223 0.384024 -0.847682 -1.754874 -0.056352 0.417643 2.581186 -1.680238 -0.04826 -0.63982 -0.628674 0.657444 0.614348 0.871959 0.278456 -2.229289 -0.851628 -0.119897 0.638054 -1.013418 1.112558 0.575984 3.143759 -0.243046 1.150603 1.279256 -0.839529 1.712235 0.336271 -0.132425 1.163789 0.890368 -0.088276 0.142316 -1.436018 -0.8924 1.561983 -0.781537 -0.510561 -0.992328 -0.082294 -2.298063 2.487793 -4.75081 0.413304 0.140523 -1.824112 -0.6922 1.698768 -1.222044 -0.318443 -0.642876 0.347444 -0.923674 3.397219 0.822767 -0.940508 1.381481 0.574881 -1.049363 1.659495 -1.855473 0.555556 1.250111 0.329265 0.397906 2.29804 0.332989 0.719761 -2.184516 0.192309 -0.050455 1.320013 1.031209 2.536326 0.065154 0.72048 0.719383
announcement 0.959726 -2.055073 0.039274 -0.180009 0.879537 -0.843894 -0.396693 0.57532 -1.565482 -0.806669 0.585404 2.165787 0.669835 0.218262 0.112219 -0.428772 -1.816992 -0.327655 0.674798 0.571233 1.129323 -0.868928 0.799047 -1.265494 -2.059901 -0.863856 0.971679 -1.583062 0.784876 2.096048 -1.179858 -0.120696 -1.453545 1.363901 -1.143575 0.368623 -0.435606 -0.797084 1.204381 -0.091188 0.916734 0.827658 1.671511 -1.080472 -0.194653 -0.51574 0.652062 0.528731 1.201916 -1.015504 1.549014 1.90383 0.493858 0.284915 0.454303 0.538448 -1.179941 3.908778 -0.508703 0.0328 -0.138621 -2.85831 -0.96271 0.613728 -1.010813 -0.22045 -1.13846 -1.2163 -1.295535 0.717531 -1.515184 1.150829 0.258633 0.76618 -1.274473 -0.837067 -0.859721 -0.396854 0.407486 -0.1351 0.134363 -1.001915 0.19968 1.29619 0.712192 0.2945 -0.966139 0.573988 1.068191 1.803567 1.129535 1.013631 -0.059687 0.449565 -0.909747 0.737033 -2.082321 -1.943744 0.497842 1.207314 0.738106 -0.393517 -0.574828 -0.551123 -0.878863 0.627167 2.373816 1.043109 0.916794 0.291238 3.288183 0.320436 -0.26555 -0.261283 0.772574 1.725791 0.901543 0.3213 0.35393 -1.720715 1.14387 2.105381 0.044025 0.350387 1.519604 0.990328 0.485545 0.691729 2.131167 0.833979 -0.977807 0.011508 -1.052658 -3.374631 0.484791 -1.016277 0.35755 -0.239025 0.272906 -0.728432 -1.761513 -0.402336 -0.427925 -0.421635 0.13991 -0.558435 1.390172 -2.216223 -0.086585 -1.457057 1.029646 0.335085 0.120425 -1.81098 0.718562 -0.22747 -1.86715 0.139732 -1.465178 0.03563 -0.52836 -0.495721 -2.244934 -0.931384 1.778558 -0.028637 -0.72978 0.148309 0.069045 0.085467 -1.010764 -1.344739 0.849117 -2.082275 -0.389911 -0.906686 1.181639 0.090673 0.141835 0.126805 -0.554645 -0.634554 -0.775421 0.396339 -0.161253 0.869072 0.226102 -0.967198 0.32915 0.450089 1.320971 -0.785677 -0.910087 0.119279 0.271873 0.255774 -0.974676 -0.861364 1.426763 0.375082 3.03717 0.647128 -1.185314 0.376767 0.698876 0.845941 0.223458 -1.149716 0.315665 -0.778753 0.234978 2.80702 1.56389 -2.990308 1.4208 0.170942 1.273167 1.535525 1.112999 -1.204219 0.265093 1.926601 -2.10152 -1.924958 -1.083003 -0.788817 1.289371 0.563143 1.496066 -0.661566 0.157338 -0.972314 -0.162873 -1.186238 -0.260942 -0.890655 0.637057 1.060938 0.56801 -2.036299 1.265865 -0.171733 -1.621958 -0.325047 0.916107 -2.184772 -0.46924 0.448685 0.891638 0.948957 0.781872 1.363731 -0.644267 -2.521092 1.25394 0.314322 1.180641 1.730827 0.34414 0.477247 2.255739 0.65578 0.86122 1.142016 0.729845 -2.89294 -1.124146 0.327429 0.507329 -1.0353 -0.572291 -1.872779 -0.331971 -1.478801 0.480294 -0.57571 2.192653 1.018145 0.642752 -1.52813 1.094578 -1.204974 -0.244825 -0.596024 1.28777 1.615223 -2.083587 -0.216699 -0.898136 0.227948 -0.096486 -0.354109 -0.405264 1.104469 -1.241619 -1.82503 0.687206 -1.165427 -0.54671 -2.022178 0.081042 -0.329034 -1.424971 0.453269 0.251519 1.021099 0.557427 0.357971 2.47872 -0.714208 -2.197233 1.164845 -0.152487 -0.416243 0.079067 0.087586 0.862276 0.146403 -1.910557 0.11405 1.553278 -1.250941 -0.184048 0.370389 2.188901 1.762206 1.032921 0.817465 -0.072206 -0.399728 0.296392 1.29705 0.317406 0.472384 1.103787 0.234417 0.474117 0.880636 -1.288699 1.331781 0.96119 0.236905 1.195836 -0.675987 3.50504 -0.412348 0.231872 1.038664 1.284442 -0.180338 2.955364 0.068989 -0.431037 0.273614 0.707263 -0.382591 -1.60683 1.459697 -0.44915 -2.075405 0.880335 0.525823 -0.753965 0.107668 -1.99222 -1.084429 0.569339 0.15255 1.894761 -1.112314 -0.251242 -2.492378 -0.117824 1.812472 -1.090366 -1.476178 -0.114468 -0.959912 1.087024 -0.633166 -2.324544 0.704023 -1.270254 0.802492 1.597568 -0.965211 -1.628177 1.244846 -1.167808 1.679519 -1.31935 -1.128443 1.021293 -0.960358 -0.361215 0.57145 1.27122 0.928378 0.33031 -1.029365
mile -0.684048 0.274715 -0.671792 -0.09857 -1.518847 0.540532 1.394817 0.78382 0.123443 0.290281 0.454573 -0.569391 -1.157095 -0.063217 -0.003395 -1.467645 -0.384262 0.724364 -0.786035 -0.096553 -0.177115 -0.021896 0.164703 0.590646 -0.069126 -0.498973 -1.086484 0.387835 0.581269 -0.410559 -0.323653 1.584831 -1.527471 0.39862 -1.047141 -0.976551 -0.92473 0.237699 0.996223 -1.199363 0.154576 -0.684044 0.144438 -0.566184 0.450816 -0.207119 0.897498 -1.353556 -0.656135 -1.049131 1.420422 1.135873 -0.721765 0.916797 -1.098761 1.015973 -0.360107 -1.525061 0.622755 -0.327528 2.035873 1.017732 -1.131327 -1.878081 1.104066 2.569975 1.634127 0.440175 -0.880215 0.059396 1.505483 0.946783 -1.42799 -0.99002 -0.421305 0.980269 0.89855 0.840881 -0.770431 0.550321 -0.887156 0.383734 -1.610665 -0.328234 -0.266043 -0.862308 0.357365 -0.191149 0.769371 0.168412 0.398973 -1.362717 -0.846057 0.67722 0.785402 0.530406 -0.600945 -0.51779 -1.033756 0.933083 -0.554609 0.664785 0.459551 0.356835 0.5424 -1.388899 0.514962 -0.458597 -1.505322 0.397402 -1.103454 -0.625655 -0.982327 0.431024 0.527104 -0.365315 -0.29661 0.362506 -1.670042 0.905042 -0.416431 -0.842917 0.551108 0.906702 1.099453 0.948326 1.576901 0.557914 -0.857521 0.929661 0.590709 -0.986524 0.373124 0.332557 0.516933 -0.235799 0.270241 0.899863 0.599262 0.512821 0.145498 -0.6982 0.708887 0.056452 2.019148 -1.625996 1.078126 0.385459 0.32102 0.235174 -0.255124 -0.469065 -0.805181 1.45351 0.638696 -1.984667 0.481282 0.209873 -1.097517 -0.053247 1.127641 -1.070661 -0.120554 -1.863863 0.467199 -1.469907 -3.845592 1.617119 -0.911951 -0.946772 1.28106 0.08997 -0.098985 0.913917 -0.603812 -1.111794 -1.318141 0.300929 0.424812 -1.415954 1.247321 1.93735 1.018471 0.549918 -0.157082 -1.278958 -0.096893 1.515638 0.368881 0.102769 -0.97028 0.347219 -0.231909 -0.200189 -0.209407 0.110532 -0.504185 -1.411989 0.261218 0.800728 0.720103 0.188566 -0.373514 -0.443166 -0.673253 0.478683 -0.481946 0.154994 -0.074091 0.49612 -1.690123 -1.198015 0.872064 -0.200428 0.375636 -0.669335 0.844979 0.344643 0.366113 0.298344 -1.31198 -0.322091 -0.16946 -0.667872 -0.311856 0.062897 0.450351 -0.544403 1.526746 2.223413 1.478887 -1.006612 -1.119115 -0.058017 -1.254445 -0.264019 -0.014255 0.24772 1.194618 0.816109 -1.170099 0.547244 -1.147514 0.094233 0.565492 -0.242228 0.699705 -0.379787 0.684163 0.42636 0.296355 -0.623304 0.158444 -0.664664 -0.341312 0.076355 -1.31586 -0.308701 0.701748 -0.108313 1.328154 0.007872 -0.248043 -1.30491 0.086159 -0.721969 0.136136 -0.330118 0.380679 1.297242 0.222525 0.134963 1.457078 -1.292368 1.12634 -0.880858 0.273359 -0.639775 -0.708317 0.563815 1.076183 -0.317349 -0.480543 -1.102538 0.172266 0.166953 -0.119164 -0.138117 0.038837 0.620026 -0.099982 0.15501 -1.04896 0.459495 -0.531015 -0.854459 -0.29257 0.245688 -0.244135 0.323756 0.259469 0.200479 -0.048638 -0.905569 0.385428 0.294578 -0.32898 -0.93089 -0.079891 -1.179741 0.488087 0.965041 0.07347 0.812312 -0.192651 0.644309 -1.196694 -0.007343 0.939138 -2.059768 0.451298 -0.231272 0.732137 -0.729198 -0.659319 1.073352 -1.647819 0.616723 -0.248465 -0.802421 0.43552 -1.309173 -0.462142 -0.418447 -0.46645 -0.837894 -0.501399 0.460007 -1.002277 -0.836934 -1.095207 -0.604203 -0.425844 -0.475174 0.122316 0.471273 1.129261 0.276822 0.725168 0.168413 0.352797 0.800217 -0.180434 -1.313636 -0.592902 0.598479 0.692421 -1.345044 -0.285142 -1.195022 -0.623011 -0.620902 0.820967 -0.114481 -0.107558 0.179402 -0.265768 -1.428344 -0.700867 -0.405784 -1.254736 0.141305 -0.316279 1.136932 1.204747 -0.524052 1.372882 -1.530355 -0.711395 -0.782525 2.184601 0.424386 0.256284 -0.186502 -0.382045 1.599674 1.680246 0.847192 1.539508 -0.420754 1.022579 -0.957627 -1.694684 -0.236577 -0.69009 -0.042865 0.68937 -0.038681 0.639826 1.349409
airport 0.072851 -1.462202 -1.579438 -0.095201 0.537199 3.551453 0.761629 0.391744 0.117838 -0.996995 -0.704462 1.446197 0.831943 0.772772 -1.316023 -2.456929 -1.610899 1.415168 0.149764 -0.118096 -0.373492 1.880219 0.458043 0.582176 -0.860106 0.499161 -0.787778 1.864432 -0.295973 2.105615 0.741473 -0.591101 0.245564 1.053402 -2.035176 -2.640249 -0.699375 -0.26768 1.482399 2.047667 0.245978 -1.655676 0.164405 0.365135 -1.004217 -5.063458 0.844745 0.537266 0.536985 -1.186952 1.016534 -1.210231 -1.232693 1.617257 0.437548 0.377314 -0.240629 -0.900941 0.686143 0.203917 -1.125643 -1.472535 0.543412 -0.137943 -1.059492 0.328872 -2.657693 -0.080186 -0.614433 0.011682 -0.317954 0.493882 -0.887582 -0.759972 -0.772852 0.721321 0.557435 2.318594 0.35086 1.055671 1.370575 1.104758 -0.604149 -0.354788 0.195736 1.520086 1.461603 2.087975 -1.458865 0.535025 0.810237 -1.050991 -0.200489 1.997615 -0.426876 1.458121 0.31363 -0.859283 1.918704 0.824728 -1.753991 -0.923213 -0.555118 -0.662162 -2.183082 -1.264405 1.19102 0.561514 -0.837029 1.479081 1.208777 0.749495 -0.190849 0.560962 0.092556 -1.041693 -1.304432 0.060707 -0.572499 0.899489 0.624367 -1.816389 0.243443 0.287926 1.360882 1.744837 0.627129 1.583509 -0.25027 0.00445 1.65113 0.396665 -0.991778 -0.364784 -0.337927 -0.763916 -0.387275 1.169638 0.963366 0.312364 -0.066613 1.600775 -0.130421 0.719589 3.311073 1.601409 0.370733 0.004707 0.068819 -0.692226 1.480777 -0.97495 0.186514 -1.597576 1.772117 -4.093197 -0.488148 0.40462 -2.531305 -1.141915 0.131132 -0.222549 -0.523755 -1.669254 2.34676 -0.615032 -1.390523 -0.811097 -1.491188 1.151976 -0.128563 -0.244629 -0.218564 0.34418 0.231421 -1.503769 -0.00516 0.623574 -0.808894 -3.78873 0.529733 2.015237 0.775814 -2.270001 -1.061473 0.688147 -1.825382 0.472967 1.018667 0.435884 -2.069143 0.148213 -1.596226 0.190631 -1.753316 1.617966 -0.88152 0.53257 -2.089143 1.743273 -0.409377 1.291071 1.09472 -0.099504 -0.694622 -0.701599 -0.608192 0.059821 0.589881 -1.869942 -1.280756 -1.730284 -1.153679 1.27933 0.676614 0.704474 2.577021 0.98268 0.252127 1.356847 0.660426 -0.169768 0.447403 -1.316887 0.765735 0.758556 0.617357 -1.702726 1.312224 0.586301 0.486752 -1.260682 -0.603994 0.594378 -1.674661 0.227252 -0.054495 0.959656 -0.291475 0.63118 -2.148972 -0.311043 -2.103716 0.366212 0.652788 -0.236053 2.060583 -1.125391 2.567613 1.440939 1.702755 -0.29005 -0.300346 -0.691281 0.218638 -0.07217 0.078748 -0.720997 -1.092417 1.324519 -1.532698 -0.694446 0.236289 -2.418885 1.559656 -1.750854 0.154928 2.112468 -0.519888 0.622506 -0.205281 -0.383057 -1.250124 -1.364845 2.595088 -0.200654 0.808707 -0.298605 0.009268 -0.29307 -0.056022 -0.791697 -1.760939 -1.474759 -0.978738 0.897343 -2.269045 -0.565527 -0.636997 0.150726 -0.898172 0.208926 1.121391 0.744283 -1.349335 -3.950825 0.584092 0.559308 1.002078 0.551584 0.441019 1.662065 0.808006 0.737589 -0.952944 -0.054001 1.421289 -1.386219 0.731028 -0.977924 0.286812 1.130997 -1.549347 0.389343 -0.336729 0.601945 -1.229253 1.2204 0.594278 -0.997397 0.376878 -0.458556 -0.683351 0.4682 0.208339 -0.698326 -0.245728 0.629798 -0.02153 -2.044142 0.772003 -0.8557 1.242471 1.487671 1.323366 0.208406 -0.55444 2.234474 0.974127 1.442828 -0.545797 1.185284 -0.113722 -1.473104 2.392971 0.66174 -0.378958 0.282664 -0.403455 -1.390654 0.048128 0.566401 -2.046983 1.099959 0.663256 -1.331119 1.255001 -2.061122 -0.475071 -0.036877 -1.023401 -0.105938 0.595678 0.659148 -0.850782 1.611715 -1.55026 0.930134 1.088753 0.248317 -0.906578 -0.958384 1.913799 -0.803144 0.401161 -1.731826 1.190289 0.013651 -0.069556 0.101393 0.061674 1.853806 -0.549478 0.226975 -0.150326 1.39855 1.377675 0.800122 -0.356584 0.707635 0.633159 -1.538949 0.844339 -0.476043 -0.628772 -0.489012 2.809051 -0.080609 0.989093 1.619344
population 0.541218 1.049 -1.920801 -0.521892 -1.074699 0.447803 2.167572 0.804268 -1.159034 1.121059 -0.437127 -2.104074 -2.649417 -1.330581 0.737923 0.08518 0.70027 0.262627 -1.743353 1.285547 -1.875247 1.367593 -3.342374 0.560126 1.568432 -1.014443 1.406761 1.492227 1.676717 0.107818 -1.954546 1.068939 -3.125192 -0.703352 1.411959 -1.294698 -1.925382 0.884174 0.221949 1.210076 1.962314 0.39834 1.19396 -0.217518 -1.226856 -0.343574 1.220636 -2.399093 -1.650232 0.797359 0.518577 3.743956 -0.853858 0.610797 -1.016592 -0.619919 -0.567313 -1.898291 2.548516 1.270243 -1.079008 2.034979 -1.50747 -3.255476 1.696443 1.839171 -0.865109 1.262378 -2.54629 2.744785 0.545678 1.348139 -0.634258 1.742109 -0.90928 1.672109 0.718219 0.608639 -0.920553 0.226299 2.247053 -1.237795 -0.604396 2.707638 0.881642 -2.62702 -1.009081 1.638101 -0.754055 1.117509 1.427579 -1.274938 -1.755603 1.754602 0.813618 2.015138 -0.172158 -0.122155 1.151816 0.861445 0.914628 0.306185 -0.028066 0.213958 -1.329662 -2.174506 1.21159 -2.932374 0.930878 0.341719 -0.164194 -0.474546 -2.327515 1.538676 -0.430659 0.131602 -0.290135 -2.495989 -2.078339 3.797256 -3.329333 -0.190429 0.631549 0.412697 -0.077671 0.388595 -1.528343 -3.197212 1.020701 1.701049 -1.187958 -1.873908 -0.503291 -0.517421 -1.03397 -0.461273 -2.175502 0.512929 -3.03024 -0.90157 0.751015 -0.712007 -0.671906 -0.871891 -1.732952 -0.210313 1.37333 3.441877 -0.456596 0.589578 -0.11862 0.277621 1.532267 3.452956 -0.17062 -0.32237 -0.433158 0.998337 -0.366625 2.782327 -1.606334 1.451757 0.702486 -0.977105 -1.018901 0.053954 -2.060251 0.934734 1.998801 1.819456 1.417681 -2.478483 -0.562865 -0.46622 -0.064517 -1.001709 -0.30653 -0.044027 0.199947 -0.261288 4.414357 1.851901 -1.416036 -0.942258 2.388515 -1.367678 -0.547115 0.250473 -0.406099 -1.397468 0.295888 -0.035452 -0.1735 -1.295391 -2.100166 -0.317839 1.353729 1.481446 -0.959936 -0.267612 1.592219 0.440823 2.756691 -1.633446 0.709206 0.772275 0.82843 1.250182 1.699922 0.123317 -1.29709 -1.704714 0.41092 2.373324 -0.877744 -1.884786 -1.468345 -0.125662 -0.272717 -0.534871 1.22333 -3.353743 1.009697 0.437019 1.293328 0.920597 1.182894 1.346622 1.814353 0.568374 0.795014 -2.234338 -0.14423 -1.04038 0.267607 1.065103 0.458184 1.841923 0.378074 0.16935 -0.219929 -0.152862 1.689407 -2.407535 -0.165942 -0.19211 0.921843 0.988017 -0.06712 0.351189 -0.545711 -2.394141 0.425512 -0.713046 -0.508136 1.157774 0.2714 -1.42411 -0.170292 -1.963838 -0.339915 -2.640578 1.753258 0.498946 -1.110682 -0.748368 0.47251 1.111219 -0.867318 0.860444 -1.753711 1.471842 1.445494 0.089098 2.329469 -1.674227 1.590653 -0.628408 -1.054456 0.15378 1.788921 0.468259 -1.61473 -1.313975 -1.505323 0.379351 2.516241 -0.049635 -1.162572 -0.133082 -0.360758 -0.230683 -0.197679 -0.109093 1.734282 -0.285026 1.896003 -2.004266 -0.823403 -1.29681 0.178115 -1.410231 0.99539 1.208109 0.435571 1.085704 1.595194 -1.439124 -2.790675 -1.445532 -0.611851 3.312619 0.414637 0.285656 -1.531104 0.232084 1.224961 -2.906418 0.771822 -1.724883 -0.258078 -0.203775 -0.589942 0.226935 -1.107035 -1.523638 -1.243945 1.281468 1.108362 -1.26586 0.131921 -0.573477 -1.102498 -0.716152 0.195478 1.639361 0.32245 2.520654 2.750558 -3.907069 -0.455717 1.092322 0.583531 -0.540866 3.552286 0.37116 0.34786 1.903738 -1.049855 0.11531 -0.193292 1.606122 0.021293 -2.056036 0.040929 1.185296 0.107868 -3.075905 1.285134 0.782593 -1.211874 -1.659836 -0.692496 -2.724934 2.29694 -2.546287 0.913719 -0.319482 0.465392 -0.956328 -0.25233 -0.74321 1.184906 -0.968967 0.079626 -1.319214 1.237996 -0.552617 -2.657411 0.931653 1.893852 0.620943 1.774393 -0.945058 1.452682 -1.656195 -1.624351 -0.415871 -0.812524 0.488331 0.167615 -3.038257 0.384364 -1.372605 -1.305117 0.956623 0.289236 -0.510294 -1.222965 -1.000947
planning -0.452905 -1.361649 0.68401 0.801286 -0.806003 1.859321 -0.866689 -0.593971 -0.543539 0.115051 0.388304 0.953765 1.427362 -0.796355 -0.27108 0.413319 0.953881 -0.053206 -0.235253 -0.319504 -0.649981 -0.77395 1.31595 -2.095073 0.608135 1.371213 0.474169 0.315162 0.944299 0.96158 -0.467961 0.644904 -0.267123 0.409378 0.291261 0.012976 -0.089187 0.971559 0.184626 0.834808 0.158954 0.200442 -0.132214 -1.144279 1.409485 -1.629544 0.64997 1.098016 0.024805 -0.121441 -1.199773 -1.753893 1.217984 1.347095 1.700909 -0.133 0.901982 0.902208 0.171083 -1.296843 -1.093737 -1.647584 -1.434774 1.115195 -0.098452 0.282811 -1.017801 -0.961834 -0.456901 0.215681 1.304363 -1.129357 -0.695977 0.218216 1.528484 -0.204969 0.157265 1.535104 1.412076 0.130529 0.622539 1.207402 -1.898286 -1.069531 1.006261 0.711856 0.329007 -0.030942 -1.149685 1.164849 0.260522 0.466179 0.911202 -0.602129 0.126527 -0.294386 1.959132 0.404677 -0.580603 -1.756321 0.657682 -0.537864 1.232333 -0.061917 -0.305957 -1.59367 -0.801847 0.794549 -0.758495 -0.618149 0.043671 1.253993 -0.530245 -0.177796 -1.07535 0.137571 -0.119367 1.396436 0.35806 0.860916 -0.2367 -0.035252 0.071592 0.375313 -0.368089 0.541062 -2.01409 -1.247508 -0.456224 1.19106 -0.397366 -0.028165 -1.385873 0.775541 -0.894027 -0.431164 0.243021 -1.921829 0.054317 0.432422 0.122794 0.348768 1.596925 1.016035 0.117639 0.868548 -0.206621 -0.181931 -0.594603 -1.984536 0.530982 -0.107726 -1.56287 0.952614 -1.091599 0.646955 -0.301969 -0.353546 0.091999 -1.119368 1.37453 -0.182308 -0.591504 0.691908 0.227301 1.279106 2.620211 1.011264 -1.440594 1.132869 -0.224023 -0.727655 0.161343 0.263795 -1.012642 -0.215252 0.957115 0.7126 -2.109019 -1.004494 -0.358978 -0.393371 0.173015 -0.513873 -0.196928 0.09066 1.273877 -0.022453 1.081085 2.117027 0.009684 -0.332133 -1.681617 1.440738 0.470709 -1.056402 -0.406111 0.01172 -0.974985 0.588804 -0.252357 -1.618428 -1.533585 0.029506 0.96374 -0.456666 -1.192434 -0.623011 1.510764 -1.212547 0.019074 -0.991573 -0.047919 -1.609277 -1.750935 0.130371 1.804634 -1.525443 0.433281 -0.447498 0.644074 -0.186076 0.366174 0.756205 0.3175 1.667394 -0.84113 0.362812 -0.034302 1.851663 0.638198 -0.636968 -2.224028 0.091944 0.046918 0.391064 0.217341 0.030344 -0.220974 1.492699 -0.545281 -0.027696 0.874578 -0.830295 0.600046 -1.574588 -0.195426 -1.943717 0.27222 0.263944 -0.221537 0.066077 -0.152898 -0.957686 -0.962598 -2.181234 2.051638 0.930644 -1.866207 0.530336 -0.087476 0.294424 -1.609083 0.592698 1.487541 -1.170922 -0.635659 0.092731 1.559469 0.680257 -1.321388 -0.717413 -1.381296 0.310638 -0.621921 -0.754377 0.961979 0.496185 -1.025141 1.094873 0.810945 -1.22336 -1.12923 0.332694 1.30103 0.190644 0.055265 -0.3792 -0.993107 0.164516 -0.790717 0.600304 0.895738 -0.658074 1.539562 0.385536 0.35484 -0.559059 1.070908 -0.237811 -0.540853 0.556461 -1.490796 0.725963 -0.935971 -0.682643 -0.057141 0.657941 -0.180032 0.862825 0.716759 -0.05436 1.31304 -1.414551 0.318253 -0.773136 0.954174 -1.84566 -0.603721 1.494255 -0.771517 0.152381 -1.340462 2.289404 1.162605 -1.000802 -0.422051 0.132274 1.204 0.517 -2.025332 -1.752178 0.1274 0.034911 1.64868 -0.772179 -0.844838 -1.829774 0.475286 -0.593006 0.85118 0.605255 1.374285 0.680658 2.263184 -0.272702 -0.019901 -0.823286 0.778913 0.091686 -0.723802 -0.308145 0.823522 -0.477358 1.300939 -1.768556 -0.177905 -0.875295 -2.153001 -0.479818 -0.60007 -0.152095 0.037942 0.689702 0.351542 -0.135382 -0.621616 0.257848 -0.039529 0.946332 -0.273831 -1.071871 0.432001 -0.990906 0.360277 0.388608 -0.725954 0.328203 -1.017298 -0.387288 1.001769 1.16426 -0.023299 -0.417754 -0.59649 -0.939982 1.798967 0.845583 0.694502 0.077252 -0.647121 -0.388628 -1.624875 0.535511 1.26296 -0.576566 0.21611 0.647817 0.535872 0.285312
canyon 0.092681 0.402711 -0.290418 -0.071408 -0.062294 0.106893 0.306435 -0.027331 -0.167287 0.311782 -0.007937 -0.309142 -0.176838 -0.020272 0.020185 -0.084886 -0.040457 -0.18507 -0.057048 -0.052438 -0.090526 -0.010429 0.390214 0.129751 0.13818 -0.251422 -0.388955 -0.068117 -0.029508 0.049779 -0.259858 0.331453 -0.124315 0.033131 -0.185431 -0.16482 -0.034334 0.124199 0.174885 -0.131963 0.085508 0.045628 0.077171 -0.042483 -0.115233 -0.106424 -0.066573 0.156887 0.005711 0.009259 0.234278 0.049256 -0.203074 -0.21725 0.04958 0.114021 0.174158 -0.259017 -0.082556 0.223371 0.216888 0.244599 0.106554 -0.212673 0.038749 -0.009912 0.102511 -0.145253 0.057205 -0.058433 -0.064378 0.105229 -0.211694 -0.005091 0.181954 0.119345 0.103015 -0.117854 0.146091 0.115424 -0.132961 -0.127364 -0.169169 -0.028291 0.280421 0.160265 0.196012 -0.052574 -0.080275 0.099264 0.145747 -0.333667 -0.134674 0.258244 0.232095 -0.096424 0.079697 -0.195543 -0.082661 0.190199 -0.417661 0.079392 0.029141 -0.13051 0.047009 -0.180774 -0.189947 0.16048 -0.169364 0.192389 -0.316803 -0.214829 -0.301657 -0.018152 0.018039 -0.310104 -0.150195 0.074179 -0.057114 -0.153191 -0.035643 -0.285419 0.149439 0.101964 -0.008324 -0.224443 0.282848 0.184379 -0.127508 0.091186 0.212174 -0.217918 0.040456 0.069554 -0.083617 -0.225522 0.18135 0.379344 0.080269 -0.016943 0.104282 -0.002476 0.073036 -0.055723 0.337508 -0.15856 -0.029976 0.013713 0.191875 0.10652 -0.125604 -0.257117 0.026243 0.282733 0.005863 0.109124 -0.044396 -0.030036 -0.099049 0.106146 0.117646 -0.029116 -0.045134 -0.125911 0.089917 0.130235 -0.348671 0.03979 -0.169671 -0.030426 0.046352 -0.036717 0.198304 0.149641 -0.016159 -0.026146 0.08156 0.106985 -0.019361 -0.302959 0.110066 0.350111 -0.057334 0.20993 -0.044493 -0.330155 -0.048323 0.041483 -0.105984 0.187633 0.009508 0.044239 -0.00274 0.059912 -0.01944 0.213784 0.00369 -0.049125 -0.051628 0.103346 0.053941 0.295582 0.008462 -0.114918 -0.117884 0.113657 0.041261 0.246539 0.024662 -0.118163 -0.163803 -0.013553 0.068241 0.021968 0.144572 0.142721 -8.27E-4 -0.006993 0.028205 0.139335 0.046908 -0.061045 -0.13597 -0.071502 -0.047876 -0.080288 -0.212692 -0.045831 -0.154728 -0.130089 -0.302291 0.200538 -0.032861 0.194762 -0.330135 0.03937 -0.001418 0.002279 0.006904 0.064302 0.087597 0.018472 -0.169717 0.037345 0.041747 -0.069426 0.024682 -0.16384 0.436992 0.187042 -0.006847 -0.045994 0.182858 -0.057931 -0.080332 -0.059771 -0.210436 -0.354992 0.247925 -0.089231 0.221229 0.026502 -0.145108 -0.107474 -0.001576 -0.057673 -0.132952 0.125399 -0.058581 -0.061791 -0.042974 0.066909 0.140727 -0.264792 0.312253 -0.188157 -0.088416 -0.129683 -0.140602 0.06591 0.055604 -0.096317 0.064045 -0.034307 -0.078241 -0.148802 0.067853 -0.103623 0.09993 0.147611 0.121047 -0.112728 -0.06147 0.21126 -0.210972 -0.043343 -0.20528 0.060748 0.190754 0.352882 0.266411 -0.015197 0.150292 -0.025937 -0.120033 -0.106468 0.111198 -0.054871 0.164149 -0.130052 0.062179 -0.101455 -0.021284 0.317291 -0.009681 0.224678 -0.311731 0.193538 0.123981 -0.23743 0.001204 0.018304 0.203771 0.045253 -0.111149 0.216168 0.060838 -0.012056 0.275508 -0.201698 -0.075255 -0.031906 -0.068444 0.018707 -0.079287 -0.014453 0.094512 0.453196 -0.186614 0.062055 -0.207695 -0.146711 -0.153926 0.131187 0.023771 0.037001 0.151345 -0.034455 0.065167 0.044252 0.225659 0.264267 0.026889 -0.178512 -0.272762 0.330296 0.100812 -0.125148 0.293656 0.224578 -0.144032 0.235583 -0.019991 -0.176769 0.295612 0.020113 -0.133646 0.028512 -0.113694 -0.044584 -0.14478 0.239441 0.10051 0.168177 0.198926 -0.242428 0.111319 -0.18701 0.040344 -0.079371 0.205163 0.116893 0.002234 0.054734 -0.033553 0.038058 0.227487 -0.073581 -0.147979 0.079564 0.202299 -0.107769 -0.078967 -0.022028 -0.117817 -0.086064 0.119138 0.20494 0.102703 0.126513
delay 1.060146 0.378921 0.824774 1.086144 3.5E-5 -1.103851 0.261276 0.659564 -0.607702 0.224883 0.810401 0.869114 1.218889 0.246151 -0.664541 -0.639221 -1.285042 0.654206 0.630346 0.123297 0.683651 -0.616433 0.9156 -1.486298 -0.617734 1.17925 0.722926 -0.115634 1.977316 0.320206 -0.281661 -1.220386 -0.291419 0.212193 -0.463433 0.258678 0.921988 0.441493 -0.746323 -0.341242 0.168564 1.682078 -0.535585 -0.599785 0.532098 -0.964335 0.133936 -0.193376 0.172898 -0.383836 0.677308 0.633059 1.495521 0.841029 1.259964 -0.359252 -0.009313 -0.515922 0.025008 0.172416 0.418024 -1.188727 -1.135774 0.206362 1.045507 -0.041966 0.712483 0.341347 -0.219719 0.906709 -0.141797 0.964643 0.191332 -1.22333 -0.654431 1.05047 -2.173423 0.543121 0.369225 1.109523 -0.127052 -0.747788 -0.190762 -0.887078 0.935211 0.056975 0.509191 0.621561 -0.832798 0.692361 0.318621 -0.105295 1.236924 -0.609409 0.430888 1.457514 0.062493 -0.872076 0.97382 -0.258851 -0.261389 -0.498361 -0.078407 -1.317248 0.104513 -1.930717 0.074728 0.551615 0.418772 1.114393 1.246968 -0.360094 -0.610872 0.94356 -1.497361 0.005022 0.897805 0.337987 0.281798 -0.030386 0.730674 0.73022 0.059232 -0.637891 0.622943 1.340733 -0.652535 -0.33486 -0.553536 -1.151215 -0.297363 -0.557573 0.03191 -1.552085 0.942292 -2.554615 -0.022051 -0.073123 -0.330705 -0.624206 0.092093 0.125342 0.212171 0.535811 -0.786267 -0.784884 0.988084 -2.671391 0.555631 -0.678798 1.169662 0.033549 -0.415532 -1.984526 1.116296 0.917245 -0.192557 0.437155 0.221307 1.246435 0.53131 -1.114641 0.052659 1.835996 -0.165855 -0.553999 1.23604 -1.193154 -0.674051 -0.93549 0.036188 -0.287361 0.277913 -0.449063 -1.005565 -0.520111 -0.152797 0.69762 -0.060621 0.212168 -0.160952 -0.320076 -0.065841 -0.611628 -1.452164 1.16345 -0.799413 0.663434 -0.213137 0.09965 0.115001 0.200709 -1.058216 -1.34125 0.124754 -0.602432 0.761337 -1.124123 -0.78116 1.660889 -1.196329 -0.199844 0.076783 -0.621239 0.288392 -0.589892 -0.201028 -0.099918 1.146107 -0.867261 -0.051374 2.20663 -0.874961 -1.501265 0.8339 -0.764875 1.642694 0.243655 -0.228164 -0.297075 0.33241 1.487355 -0.428619 0.826855 -1.62998 -0.246417 1.275569 0.245947 1.617362 -0.919953 0.904183 -1.829067 0.091955 0.092579 -0.613319 0.212046 0.321377 -0.397982 -0.149057 -1.358702 -0.388331 -2.512213 -0.854624 -0.792082 -1.21767 -1.201334 -0.537761 -1.085667 1.32069 0.95795 0.942871 0.683119 0.494009 -0.950056 0.97963 0.913545 -0.393554 -0.149113 0.710285 -0.486316 0.17275 0.733104 0.311997 0.31427 0.907626 0.133891 -1.393152 -0.799036 0.762673 0.419315 0.48731 0.35582 -0.414489 -0.958182 1.223947 0.170155 -0.019885 -0.228405 -0.494842 -1.073893 1.117424 -0.265456 -0.353077 0.458056 0.410592 0.921372 -0.504022 -0.652279 0.782877 -1.284056 -0.052802 -0.375281 -0.270713 -0.087792 -0.37115 -0.515174 1.091779 -0.521442 0.21093 -0.536395 0.017918 -0.365412 -0.332891 1.443557 -0.293564 0.171815 -0.294909 -0.915805 1.129777 -0.426722 -1.032146 1.740433 0.394077 -1.220228 -0.175949 1.80574 -0.784171 0.269013 -0.872714 0.005736 0.031915 0.871372 1.217322 1.251071 1.019061 0.628328 1.084846 1.343559 -1.073112 1.215284 -1.291833 -0.29872 -1.594579 0.538835 0.307439 0.523712 1.474469 0.315007 -0.574464 0.406839 0.367382 -0.316485 0.032451 0.50189 0.694346 -0.63485 -1.054762 1.037671 -1.233014 -0.468186 0.450254 1.121943 0.186598 1.394688 0.409552 -0.938699 -0.565187 -1.683241 -1.216068 0.012718 0.63754 -1.838925 1.198422 -0.992525 0.78234 -0.363544 -0.517253 -0.746115 0.675112 -0.257243 -1.66899 -0.826869 -0.832994 -0.554047 0.341552 -0.617776 -0.896624 0.428151 -0.416916 -1.395334 1.128408 0.879143 0.204306 0.846718 -0.166479 -0.027734 -0.432132 0.989752 -0.669413 -0.016202 -1.524836 0.353446 0.308083 -0.30106 -1.404386 0.819108 0.439766 -0.764107 1.087852 1.383056
size 0.951051 1.432223 -0.520161 -0.359804 -0.850812 0.20837 0.290162 1.922017 -0.607629 0.897538 1.505088 -0.715332 -1.31666 -0.248919 0.286988 0.327034 0.537815 -0.054868 0.619089 0.45666 -0.772946 -0.738882 -0.586691 -1.700254 0.524527 -0.416546 -0.14939 -1.343468 0.993587 -1.021271 2.709671 0.818504 -1.049753 0.629263 0.667384 -1.658514 -2.321396 -0.043319 -0.411653 -2.391089 0.305605 0.395912 0.697481 0.496131 -1.109916 0.684923 0.22102 -0.996921 -0.839303 0.653684 -1.200495 2.110409 0.001109 -0.704491 -0.023158 -1.682935 -0.371082 0.441785 0.43683 1.027638 -0.736131 0.78023 0.349964 -1.610993 0.85801 1.245687 -0.832332 0.637482 -0.542871 -0.055797 1.799028 -0.066809 -0.58787 0.208694 0.061545 0.038367 -0.289428 -0.425476 -0.332202 0.849471 -0.107574 0.877504 0.275006 -0.041567 -0.51892 -1.701787 -0.502307 -1.865569 -1.442651 1.332847 1.775061 -0.975798 0.508153 2.832347 0.853641 -0.123616 -1.344718 -0.616417 -0.101019 3.39336 2.197989 -0.128176 -0.62561 -0.300773 -1.119012 -0.496104 -0.076451 -2.070435 -1.091496 0.74104 -1.245798 -1.307307 -2.513112 0.118037 1.419402 -1.166772 1.009713 -0.104367 -1.659265 1.780555 -2.015001 -0.843391 1.099722 -0.06542 -0.120292 1.332109 -0.089414 -0.185873 -0.17475 -0.37353 -0.5187 -0.218465 0.052632 -0.675107 -1.148852 -1.664898 -0.662436 -0.833799 -0.64821 0.850877 0.988461 0.613414 -0.927569 -0.998159 2.199864 -0.783386 0.374398 1.898509 1.291991 -0.14806 0.586394 -0.585744 -1.651681 2.080861 1.25463 0.03758 -0.91154 -0.22098 -0.234722 1.029012 -0.646994 0.836876 -0.758358 -0.27218 0.351382 -0.576226 -0.758632 2.000267 -0.203666 0.36103 0.487545 -1.555149 -0.06886 0.988458 -0.821575 -0.559024 0.22074 -0.568549 1.209419 1.539844 2.365954 0.440704 -1.318873 1.226636 -1.928623 0.098948 1.568876 -0.015741 0.927046 1.079254 0.034429 0.669642 1.238557 -0.537885 -2.625823 -0.592211 0.272061 -1.241136 0.660209 -0.313604 0.49573 -1.018638 0.349392 -1.352255 0.102702 0.114474 0.887159 0.70271 2.21236 -0.790304 0.445982 -0.207916 -0.709969 0.34855 0.006386 -1.368225 -1.455609 -0.857295 -0.4689 -2.347936 0.042233 0.791141 0.735069 0.180389 1.220279 1.721515 -0.508367 -1.589487 1.081912 0.706084 1.723536 -1.360127 -1.31446 -0.271582 -1.50483 -0.574718 -0.489734 1.066722 1.095919 -0.744833 -1.095674 -1.227108 -0.751218 -1.137869 1.11365 1.619639 1.092691 -0.208133 1.566464 0.603612 -0.427298 1.023513 0.196271 -0.79941 1.004489 0.725876 1.081691 -0.151112 0.628291 -1.559163 0.416187 0.599841 1.486063 -0.391602 -0.878558 -0.486076 -1.266783 0.164489 0.179326 0.291748 0.531613 1.025548 2.085373 -1.988192 1.495666 -2.756409 0.214471 -0.077858 -2.400298 0.443229 0.795845 -0.746289 -0.169734 -0.330365 0.237443 0.58998 0.531615 0.626548 -0.605291 0.262208 0.698011 -1.225976 1.054326 0.855051 -0.011597 -0.04726 0.651519 0.218983 0.180618 -0.162465 -0.772127 -1.473254 1.283105 1.070637 -0.606023 0.604655 1.213148 0.88545 -1.112626 -1.199952 -0.237253 2.296823 1.67417 0.623787 -1.142149 -0.434222 0.732686 -0.932758 0.191238 -0.014249 -0.546848 -1.651142 0.46514 1.324733 -0.56369 -1.740895 -0.445355 0.484606 -0.912813 -0.127773 1.192104 -2.999714 -1.041002 -1.495252 0.298296 0.949402 0.17147 1.193763 1.219763 -0.602769 0.983441 -0.052708 0.755995 -2.44312 1.352021 0.663593 0.080242 0.980757 -1.151219 -0.514289 -0.160356 2.055703 -0.537299 -0.578072 0.167869 0.193166 0.979417 -1.749604 -0.897973 -0.661186 -0.326223 -0.667221 0.655074 -0.549504 0.730585 -2.020478 0.975439 1.748559 -0.623409 -0.339295 0.02984 -0.488254 0.665048 -0.771609 0.710227 0.777591 -0.105578 0.320159 -1.506809 -0.790395 0.32694 -0.731016 0.191089 -0.078929 -0.208886 -1.252423 -0.144291 -0.914028 0.888991 -0.849309 -0.048188 -0.852746 0.918842 -0.386234 0.550319 0.054234 0.106442 0.219965 -0.80779 -0.090966
peace 0.656338 1.667213 0.66884 -1.743029 -0.01777 -1.781901 -0.790409 -1.274016 -3.615215 -1.421086 -1.953417 -0.398928 1.098206 -0.196758 1.393218 1.500759 -1.200682 1.300832 -0.980114 1.45112 -1.403687 0.220657 -1.259935 -0.85625 -0.774629 1.352207 -1.451282 0.100108 2.089411 0.345444 -0.056049 1.538758 -1.603382 -2.323555 0.493021 0.607208 -1.765424 0.40587 1.514918 1.822733 0.364447 0.0096 0.277498 1.123455 1.086914 1.844325 0.831879 0.425929 -0.4483 -1.421366 3.117896 -1.398861 1.431015 0.376571 1.076282 1.230006 -0.943438 -1.526581 0.237949 0.883141 -0.369373 -2.590879 -1.148439 -0.78868 0.039949 -0.474138 0.901093 0.278395 0.186373 0.067199 1.093597 2.931907 -0.65124 0.94669 -0.872756 1.374557 -0.932229 1.367739 -0.976183 0.281286 0.029956 -0.479483 -2.597449 2.431143 0.029513 2.174592 0.912802 0.883171 1.545465 -1.948445 -0.783356 2.049012 -1.044355 -0.356828 -0.452471 1.530305 0.482188 -1.04702 0.253069 -2.202618 -1.486136 1.096885 1.250883 0.310356 1.736575 1.858236 1.613654 0.087388 2.227637 0.301367 1.250925 -0.803904 -1.647994 4.577443 -4.063381 -0.279602 1.612101 0.381617 -0.669111 0.337452 -0.101267 -1.489481 0.080636 0.393169 1.127032 -1.266361 -0.717607 0.11131 0.838634 -0.764959 -1.140729 -1.847853 -1.16573 0.954088 0.513301 3.041027 0.732901 1.400618 -0.278305 -2.162452 -0.944804 0.335493 0.275759 3.623163 -3.053248 -1.101185 1.049649 -1.532326 -2.568018 0.426251 -3.533777 -2.862473 1.201016 -1.787757 -0.491178 -0.56963 -1.23123 0.259028 -1.815664 -0.900146 -3.203794 -0.273097 1.131787 -0.395018 0.775098 3.408705 1.016593 -0.978214 0.248436 0.59131 -1.091347 -0.890823 0.243055 -0.465521 -1.118217 -1.026255 -1.80562 -0.270034 -1.364893 -1.531422 0.180535 -0.663063 0.571556 -0.144376 0.132978 -1.059099 -0.884983 -0.019636 -0.432171 0.490536 2.109563 0.351306 0.59428 -0.548781 -0.81695 0.349635 1.829891 -0.097261 -2.053066 0.29451 0.105325 0.160704 0.942361 -0.625661 0.793805 0.998451 1.127218 0.441264 -0.216301 -0.996131 3.255352 1.885593 3.062468 0.596257 -0.677976 -1.258001 -0.036414 0.929052 -2.237797 0.737211 2.060698 1.029117 -1.096226 0.133057 -0.81235 1.982711 1.580919 2.385926 -0.82037 -0.48851 -1.066851 -4.156783 -0.435472 -1.149191 -1.167342 0.445812 2.511619 0.095128 1.090881 -0.449381 0.41507 1.232626 0.362969 -1.393487 -0.325211 -3.458152 -0.221214 -0.652579 -1.902514 0.810444 1.281978 -0.230278 -1.76318 -0.582734 -0.572011 0.099158 -1.00817 2.080694 0.06803 0.931491 0.686252 -2.335924 -0.660273 0.1791 0.558151 -0.818982 -1.269368 -1.791579 -2.576595 0.956736 0.412342 -0.183513 -0.851212 -1.36046 -2.156836 -0.321616 0.537574 0.554916 -0.403049 -0.401926 -0.030196 1.446985 -1.069041 0.719703 0.322793 -2.159792 -2.057198 0.426712 -0.102457 1.95305 -2.196494 0.445986 0.311788 0.316378 -0.18085 -1.981449 2.441999 -3.463173 0.972973 -1.016138 1.280565 -0.932959 -0.754571 1.352737 -0.519553 -3.397664 -1.652259 1.962143 -0.024481 0.200636 0.854072 -1.330349 0.090304 -0.334541 -1.239083 -0.453149 1.978708 -2.082601 0.008868 3.223745 -0.006387 0.25351 -0.763665 2.442888 -1.049753 -0.372493 -0.127127 -0.045312 -0.679636 -1.548862 -1.585092 -0.801406 -2.208219 -0.605185 -0.849158 -0.100263 -0.882571 0.758672 -1.170029 2.636887 0.898259 1.475545 -0.879222 0.47817 0.680182 1.421962 -0.473053 -0.875882 -0.238837 -0.146559 1.543921 3.096658 0.618762 0.540606 -0.333283 0.155777 0.958827 -0.762271 3.744453 1.729765 -0.206083 -0.948043 0.012212 0.424724 2.133198 -2.745492 1.570419 -1.117922 1.158448 -1.70456 -1.398654 -0.208321 -1.783245 -1.662084 -0.677049 -3.24779 1.124461 -0.170428 0.209675 -1.253122 0.105007 -0.236896 -1.094984 1.12249 -1.363181 2.292476 1.769374 -1.550775 1.003153 1.426099 -2.282736 -0.91684 0.12187 -0.697917 -0.492067 0.456878 0.842253 -4.051162 -1.906189 -0.248877
science 1.122915 -0.699142 -0.100024 0.523281 -1.17163 -1.093186 1.463462 -1.129737 -0.201867 -0.084795 -0.786514 -0.064535 -2.302375 -0.382061 0.181391 0.568246 -0.178544 -0.70362 0.702004 1.18357 -0.12899 -2.29223 1.450819 -1.956736 1.138955 -0.510429 1.079445 0.681273 -0.312602 -1.961749 0.219446 1.378848 0.768028 -0.156353 -0.419107 1.301654 -0.09298 1.289475 0.392256 0.072155 -1.774236 -0.264776 -2.197539 0.766019 -0.654962 -0.014201 0.33911 1.419845 -0.359733 -0.294753 -0.223115 -0.051441 -0.826643 -1.969771 -1.534925 -0.907828 -0.910294 -0.489741 0.496452 0.140691 -0.373357 0.544529 1.277369 -1.052393 0.496426 0.534347 0.451397 -2.240763 1.311614 0.885161 -0.533685 -0.729192 -0.822905 1.513485 -0.751779 -0.376601 -0.736534 0.17438 0.914348 1.514718 -0.903658 -1.566824 -0.359278 0.890624 -1.517423 0.531822 0.166617 -3.765762 1.055927 -2.480734 -2.035703 -0.542761 -0.565207 0.713355 -0.11963 -0.629299 2.132365 -0.189417 -0.750271 -1.698254 -2.173012 0.918133 0.482191 -0.752258 1.56916 -2.424927 0.621716 -1.102908 -1.164264 -0.01239 -2.141221 0.04318 -0.180753 -0.121747 -0.999165 0.162566 -0.735189 0.433706 -0.084111 -0.438469 -1.686622 0.901053 -0.998574 -0.317437 -1.550493 -1.531389 -0.128487 -0.014097 -0.218246 0.498933 0.339246 0.284949 0.393401 -0.331945 0.301957 0.266279 1.181368 -0.816768 -1.238354 -0.819734 0.337414 0.230206 1.539993 -0.347584 -1.473814 0.966109 -0.967539 1.812987 0.511113 0.63396 0.213347 -1.138436 -0.561492 -2.907641 0.249541 -0.008207 -1.591431 0.519939 0.403549 0.395653 1.026023 -0.242744 0.50258 -0.684465 -0.953511 0.57168 -0.634813 -1.072559 -1.045421 0.222547 0.161687 -1.66319 -0.90988 -0.470248 0.697116 0.413187 -0.903848 1.31113 -0.240859 0.856646 -0.710506 -0.145323 -0.031809 -0.656101 2.34911 0.41592 0.824515 -0.404785 1.95938 1.302552 0.958798 -0.007625 0.947692 -1.590625 -1.909717 0.134616 0.43321 -0.085415 -0.175273 0.185294 0.473211 0.309173 -0.134204 -0.586117 2.516404 0.618555 0.343474 -0.029797 1.273798 0.514997 0.97424 -1.173146 -0.380799 0.194322 -2.800749 -0.370345 -0.836416 -0.544444 0.366891 -1.326886 1.274392 0.788113 0.51158 -0.601376 -1.097546 2.100504 -1.122294 -0.652756 -0.22474 0.142455 -0.959734 -0.660167 1.118498 0.592839 0.347037 -0.315714 0.743646 0.980638 0.243517 1.186543 1.602762 0.017459 0.82248 1.112055 -0.760589 -0.917808 0.547158 1.071171 0.29414 -0.170691 -0.146829 1.069351 -0.176496 -0.61105 -0.156975 1.43787 -0.658945 -1.006377 -0.29482 -1.955057 1.326411 0.597164 -0.674899 -0.765548 -0.951751 0.204862 -0.387699 -0.265436 0.01299 -0.974184 0.223356 0.865404 1.186386 0.128447 1.357151 -0.423809 -1.033449 2.286234 -0.420087 0.674228 -0.009993 -1.449387 -1.478035 0.793356 1.346117 0.475064 2.362805 -0.814267 0.281314 -0.887974 -0.291839 0.321745 0.405153 -0.376519 0.590009 -0.724117 4.3E-4 -1.4546 -1.200772 0.372168 -0.351223 1.245591 0.525212 1.292264 -0.728533 -0.223096 0.312433 0.403967 -1.142406 -0.880311 2.033277 -0.071192 -0.090224 -0.643767 -1.430109 0.009055 2.71455 -1.290166 0.21113 -0.184646 0.593778 0.462958 -0.858609 0.87069 0.127701 -2.155743 0.476011 -0.699924 0.710469 0.982536 -0.382039 -1.467983 -0.764646 -0.713328 0.726769 0.571828 -0.366428 -1.154288 0.361918 0.448645 0.053397 0.398873 0.132213 -1.008694 -0.543006 -0.855005 0.472568 0.579399 1.057444 0.992461 -2.497875 0.778394 0.830884 -0.880247 1.317524 0.308104 0.188144 -1.266459 -0.277112 0.415126 -0.581235 -0.222999 0.319333 -1.305644 1.368819 -1.378213 -0.006435 0.957362 0.304692 0.031507 0.646074 -0.306438 -0.998253 0.102237 2.221891 -1.376551 0.141528 0.462238 0.013679 0.528527 1.188989 -0.693036 0.399309 -0.656212 -0.473001 -1.129413 -1.52128 -0.253518 0.603406 1.035627 0.400808 0.335923 1.308036 -1.774725 2.139713 1.131073 -0.519326 -0.494356 -1.505168 0.212928
dawn 0.813422 -0.451752 -0.95526 -0.703266 0.466546 -0.404381 1.039821 0.810209 -1.159428 -0.061323 0.346663 -0.136576 -0.401756 0.255589 0.583986 -0.284534 -0.76436 0.930147 -0.379556 -0.482256 -0.827056 -0.0195 1.271688 0.038422 -0.548361 -0.752086 -1.227557 -0.573165 0.391356 0.439309 -0.729761 1.29702 -1.077147 0.091302 -0.567321 -0.326846 -1.095441 0.189762 0.848206 0.154545 0.724558 -0.51935 0.295402 -0.509305 0.347863 -0.398338 -0.159541 -0.436365 0.112481 -0.92348 0.578796 0.310217 -0.092122 -0.963513 -0.537942 0.670186 0.423612 -1.236004 0.415655 0.089096 0.426486 -0.859834 -0.999277 -0.518195 -0.553395 -0.734905 -0.107144 -0.171759 -0.061023 0.300288 0.12933 0.785466 0.778578 0.675856 0.285816 0.444067 0.341544 0.249418 0.303867 -0.225012 0.254989 0.385481 -0.05299 0.138006 0.350316 0.791019 0.915286 0.358688 0.501182 0.282722 0.654166 0.233205 -0.531873 -1.120945 -0.31687 -0.324377 0.278928 -0.201454 -0.335058 -0.789389 -0.742996 -0.22622 -0.291251 -0.36378 -0.080801 -0.235819 0.27712 -0.080998 -0.103669 -0.362323 0.309198 0.166069 -0.164615 0.131231 0.489388 -0.073433 -0.422482 0.158703 0.627965 0.155575 -0.003931 -0.366067 0.399781 0.429755 0.53958 0.156334 0.21232 1.181139 -0.292714 0.028055 0.123025 0.169073 -0.38031 -0.891445 0.800627 0.382718 -0.543549 -0.204183 -0.793415 0.139629 -0.834121 0.152414 -0.275022 0.393773 1.499552 -0.041592 0.449912 -0.761077 0.284461 0.016643 0.344602 -0.049196 -0.147832 -0.561608 0.732714 -1.911378 0.263885 0.811929 -0.823799 -0.330216 0.224803 -0.470658 1.231484 -0.370512 0.524006 -0.742813 -0.924242 -0.610334 -0.717827 -0.215 0.061994 0.230491 -0.302141 0.12391 0.470409 -0.17728 0.121387 -0.231796 -0.458991 -1.371383 0.691608 0.240581 0.475238 0.95732 0.208048 -0.684878 -0.020371 0.208947 -0.404484 -0.495454 -0.427682 0.160489 -0.382918 0.433977 -0.392264 0.694097 -0.498334 -0.004579 -0.144608 0.361933 0.95869 0.583997 0.682752 0.390867 0.423937 -0.070964 0.752984 0.028579 0.794443 -1.295406 -0.042304 0.468289 0.286969 -0.557176 0.202615 -0.205199 0.400502 -0.440299 0.071252 0.649959 -0.244176 0.487289 0.263064 -0.88215 -0.080326 0.978942 -0.056189 -0.263679 0.136104 1.034068 0.747894 -0.576116 -1.117466 0.819164 -0.945475 0.041809 -0.338554 0.823025 0.84973 0.138501 -0.75998 0.605301 -0.091793 0.952935 0.955345 -0.281321 0.069121 0.590595 0.14398 0.137016 0.459066 4.42E-4 0.704118 -0.516188 -0.026948 -0.155724 -0.268908 -1.167338 -0.108721 0.345273 -0.696783 -0.333718 0.018888 0.043469 0.217405 -0.103505 -0.306238 0.710837 -0.428274 -0.242283 -0.206078 -0.497607 -0.746177 -1.437818 0.781656 0.271684 0.192382 0.527982 -0.303425 1.189682 0.508141 0.584077 0.165235 0.173092 0.392901 0.007509 -0.521459 -0.295596 -0.413536 1.476691 -1.154941 -0.634083 -0.379596 0.40302 -1.213224 -0.555974 0.301323 -0.928897 0.440727 0.124818 -0.24133 0.473128 -0.371713 -1.157513 0.362238 -0.732103 0.898359 0.057183 0.485748 -1.367631 -0.480294 -0.199304 -0.964979 0.927358 -0.235094 0.645958 -0.866672 1.197809 -0.09132 -0.186572 -0.114862 -0.872586 0.708996 0.282355 0.451519 0.520719 -0.201392 0.807907 0.079239 -0.462401 0.133234 0.752023 0.749166 0.121821 0.273976 -0.520737 1.19319 1.117654 -0.424786 -0.126625 -0.203205 0.826976 0.759144 0.304218 1.145985 -0.303963 0.658704 -0.674321 0.101152 -0.623353 1.237476 0.604161 0.105071 -0.274765 -0.566369 0.08116 0.665204 -0.238645 -0.398631 -0.043826 -0.554605 0.876652 0.465924 -0.173897 -0.424569 0.256538 -0.164097 -1.785705 0.272692 0.291286 -0.754443 0.030769 0.263649 0.68363 0.201091 -1.397713 0.317054 -2.372497 -0.289972 0.5494 -0.537904 -0.313711 -0.52659 0.616772 0.807901 0.857602 0.104211 0.069001 0.087641 0.610324 -0.018267 -0.082352 -0.416364 -0.502847 -0.587461 -0.496658 0.449634 0.46413 0.033036 1.625919
brother -2.157957 -2.081553 0.516151 -1.803553 0.137941 0.318788 -1.125157 -0.40811 2.151417 -1.567627 -0.615153 -1.173012 -0.706503 -0.544638 0.043402 -1.100642 0.24431 1.257665 -1.551931 -0.268 0.149765 1.150614 0.139317 0.197544 1.02E-4 -0.619162 0.838712 -0.454672 -1.588467 2.14343 -0.119967 -0.720108 -1.437639 0.041315 -1.218022 -0.248583 -1.482763 -0.154943 0.234601 -1.089031 0.855431 -0.594671 -0.122931 0.614525 1.688958 -0.024184 0.695864 -0.580631 -0.761643 -0.519894 1.351066 0.658462 1.309142 1.226306 -1.70396 -0.276847 -0.490155 -1.136634 1.221441 1.07883 -0.791333 -0.150596 1.228303 -1.197464 0.742237 1.314177 -0.954621 0.865652 1.284505 -0.325105 0.494132 -0.626453 2.89327 -0.183192 -0.260846 -0.364708 1.401248 1.383157 -0.565454 -1.397135 -0.465852 1.246802 1.609569 0.163708 0.084403 0.108776 -0.454626 0.622621 1.807788 1.661336 0.721452 0.084084 -3.995048 0.490561 1.346528 -0.019897 -1.676039 1.721832 1.068727 0.775496 -1.458376 -1.360979 0.841231 1.461162 0.336423 -1.184218 2.592591 -1.496888 -0.225468 -0.50406 -0.954166 0.128022 0.013207 0.501654 0.545691 -1.321331 -1.324709 -1.484726 0.793583 1.850337 -1.57686 -2.637784 -0.471529 0.568988 -1.74141 -0.584754 0.704147 0.929859 0.601044 0.215531 -0.758674 -0.675716 -2.468599 0.137313 -1.23487 -0.657761 1.124952 1.297507 -0.433683 -0.516954 -1.519232 -0.353391 -0.356845 -1.831354 1.285901 0.261119 1.519403 -1.72642 -1.070418 -0.373264 -0.258844 -0.584526 0.260126 1.353666 -1.558289 -1.579916 0.342015 -0.293867 -0.164803 -0.463748 0.946934 2.665746 -1.066299 0.35945 -0.323722 -0.288308 -0.254062 -0.584665 0.412855 1.316531 1.348266 1.573322 0.949229 -1.108774 0.759953 -3.222098 0.594272 -1.281158 0.892166 -0.012953 -0.49583 -1.676058 -0.670678 -1.555801 0.151798 1.219374 -0.107732 -1.853055 -1.024373 -0.705756 0.007408 -0.83548 -1.446718 -1.684441 0.085771 -1.772438 1.32063 0.771186 -0.819322 1.114342 -0.267105 -0.041014 0.303373 0.961758 0.52644 2.299844 -0.636118 0.52335 0.002853 1.409472 -0.860899 -1.822163 0.327164 0.95323 0.754748 0.372344 -2.780134 -0.358476 1.143694 -1.217487 -0.143781 -0.020758 0.002929 1.516425 -0.112207 -0.152756 -1.008156 0.766677 -0.183975 -1.23706 0.217335 0.068131 -1.34159 -2.742147 0.938198 -1.890917 -1.319079 0.015448 -1.306121 -0.099068 1.812641 -1.325314 0.87504 0.970897 2.014076 -1.648885 -0.606424 -0.181104 -0.148505 -0.328904 -0.794824 -0.94702 1.711352 0.414085 1.543993 0.180826 -0.398987 0.661041 -0.836103 -0.625646 0.383776 -1.264898 -1.842346 -1.456538 0.31968 -0.205644 0.699989 1.330065 1.765352 -0.067507 -0.739926 1.285714 -1.780234 0.272139 -2.498621 0.853931 -1.451333 -0.186074 2.407821 -0.023599 -1.131051 1.937275 -0.961551 0.828094 -0.626311 -1.358943 -1.674639 0.737845 -1.71351 -0.297824 -0.608332 0.416462 1.090848 0.96891 -0.197361 -2.412715 -2.90233 -0.62654 9.7E-5 -0.14616 0.928429 -2.032504 -0.61496 -2.043154 -1.666401 -0.098699 0.646638 -0.491549 -0.446657 0.860202 0.706089 -1.013981 -0.110556 0.65182 -0.318512 0.774236 -0.526856 1.489926 0.1335 -0.33501 -0.878079 -1.521727 -0.905831 -1.54776 0.692908 1.026386 -0.436389 -0.54632 -1.008243 0.718651 -1.671975 0.836114 -2.003443 -1.681826 0.554911 0.009811 0.756118 -0.316493 3.24082 -0.794548 -0.944974 1.112664 -0.724747 1.72132 -1.884353 -0.23984 0.826254 -0.829152 1.507448 -0.861974 0.345709 0.642317 -1.502734 -2.720535 0.347545 1.67048 -1.487132 -2.093258 0.4774 -0.629989 -1.177667 -1.481219 -0.579514 -0.494018 -2.154231 1.079052 -1.570634 1.010964 -0.197637 0.482065 -0.715274 1.595483 -0.95315 0.736591 -1.128874 1.599528 0.346519 -0.171311 2.444722 -0.736324 2.557934 0.650051 -2.256231 1.916939 0.221632 1.616066 2.42372 2.194 -1.127074 0.574178 0.191374 -1.955157 2.024649 -0.75493 -0.466267 -0.562497 3.568027 0.191101 0.22474 0.250137
wine 0.349309 2.750472 -0.597518 0.758099 1.118965 -0.012435 1.802009 0.025814 -0.482466 0.410768 1.162643 -2.171085 -2.782375 2.124114 1.068802 -0.285705 -0.184987 0.143367 -0.624657 -1.087256 -0.601349 0.425407 -1.062504 0.132729 2.176057 0.317734 0.373474 -0.287508 -0.145967 0.920736 -2.25605 0.877279 -1.582665 1.037049 0.731288 0.989969 0.462174 1.440764 1.09791 -0.080655 -0.671761 -0.494333 0.545297 1.152974 -0.571496 0.782442 0.5941 -0.635398 0.446163 1.326106 -1.18646 -0.672899 0.929672 0.466521 -1.072028 -1.713575 0.143185 0.239698 0.223994 1.426863 0.10022 0.132765 -0.206683 -0.325846 0.626045 0.630269 -0.731845 -0.046205 0.755075 -1.006035 -1.14578 -0.169315 0.334399 1.432148 -0.307867 -2.231759 1.746694 -0.570743 0.754539 -0.307216 0.444841 -0.790836 0.38495 -1.272984 -1.171033 -0.287275 0.629037 -1.211173 -1.41841 -0.818018 -1.256933 -0.363114 -1.184637 0.97019 0.023966 0.356028 -0.452919 -1.713205 1.338837 1.446647 0.707615 -0.037272 0.349646 0.826207 -0.921643 0.316927 0.712266 -1.480249 -1.668512 -0.011121 -1.071788 -0.314997 -0.222861 0.640961 1.922092 -1.848135 0.600865 -0.601431 -0.171571 -0.47068 0.380299 -1.598603 -0.703366 -1.721918 0.61191 -0.521221 -0.332585 -0.441389 -0.192582 -0.462884 -0.037544 0.255973 0.344197 -0.867456 1.651428 0.139087 -0.43821 -0.058541 1.344362 1.114614 0.926023 -0.340947 -0.265876 0.382226 0.405208 -0.027137 -0.268189 1.139034 0.621113 0.321576 -0.370037 0.039767 0.091876 -1.463583 -3.13E-4 -2.085504 -0.211295 0.195552 -0.665324 0.394235 -0.64706 -0.476945 -1.198241 0.374418 0.808767 -0.109286 -1.972605 1.011972 0.772357 2.083144 -0.54639 -0.805963 -0.723748 1.25835 0.068414 0.144505 0.645529 -1.544118 1.585977 -1.55606 0.45887 0.625772 0.207497 1.871433 -0.195568 0.457771 0.944788 -0.734925 -0.221906 0.12247 -0.751046 0.260642 1.268686 -0.41373 -1.477848 -1.506817 0.408232 -1.187592 0.660847 -0.481526 0.490794 1.581342 -0.101392 -0.457532 -0.150723 -0.871589 0.679463 1.081557 -0.714849 0.314898 -0.39003 -0.677258 0.445643 2.409218 -0.580865 -1.058583 -1.367941 -0.349505 0.407906 0.611817 -0.5042 0.857608 0.804413 -0.763854 0.15311 1.974702 1.227139 -1.676827 -0.622354 -0.087444 1.766343 -0.334962 -0.028483 -0.040557 -0.054997 -0.44804 0.191965 0.20758 0.886073 -0.630349 -1.23321 -0.095454 0.458031 -0.426185 1.822699 0.883293 0.768433 0.641118 -0.583818 -0.99397 -0.953507 -0.34949 1.342808 -1.065889 0.133031 0.656078 -0.86488 0.506116 1.163418 -0.067764 -0.674839 -0.046521 0.563739 -0.773551 -2.297805 0.50493 -0.386047 0.559543 -0.109872 0.620067 -1.696115 0.290538 1.756376 -0.673635 -0.305207 -0.388298 0.178149 -0.834966 -0.086733 1.897878 0.662967 -0.479889 0.9581 0.823402 0.221045 0.973311 0.472376 -0.945924 1.306087 1.333268 -0.940271 -1.213139 0.603191 -0.289133 0.974659 -0.346113 -2.779542 0.350999 0.119908 0.358847 1.088904 -0.581883 1.034614 0.272114 -0.452008 -0.343247 1.316333 -0.015475 -1.422353 0.286164 -1.315616 -0.357889 0.52135 0.069014 -2.361228 -0.400247 -1.594214 0.85918 -0.81814 -0.445687 -0.623245 -0.654811 1.008624 0.458446 -2.067529 -1.340326 -1.726369 1.241111 0.642248 -1.390001 -0.457994 -0.759677 -0.514668 -0.629661 -1.128255 -1.094439 1.237955 -0.321865 -1.059702 -1.307779 0.558559 0.536377 2.305205 0.207015 -0.097639 -0.197793 0.804553 -0.145002 -1.007786 0.12099 -0.09671 -0.896011 0.418317 0.423463 0.71507 0.92172 0.652984 -1.404959 -0.601315 0.113176 -0.620726 1.137804 0.58284 0.294217 -0.613526 -2.890482 -0.532904 0.117668 -0.965053 1.474294 1.086037 -0.435278 -0.210636 -0.003241 1.184044 -0.697482 -0.125727 -1.517798 0.12879 -0.413757 -0.207758 1.543238 -0.205826 0.891167 0.610222 1.039293 1.311522 -0.60821 1.64703 -0.336341 2.072296 0.615809 -0.624356 -0.724011 1.29487 0.644057 1.741716 0.150835 1.62979 0.686882
object -0.336582 0.545215 -0.129462 -0.376888 0.36628 -0.019938 -0.501416 -0.143829 -0.30956 1.080716 -0.137309 -0.565802 -0.82151 0.217462 -0.275358 -0.991311 0.315875 0.150242 -0.1476 0.677736 -0.003332 0.088294 -0.079887 -0.865474 0.269195 -0.167544 0.380695 0.035915 0.294921 0.276437 0.597456 -0.681735 0.159303 0.880726 -0.346669 0.356543 -0.461116 0.157153 0.250583 0.329967 -0.058203 0.50645 0.372745 -0.09954 0.207743 -0.349929 0.335372 0.690021 0.068694 -0.724024 0.217526 0.126187 -0.050291 -0.966495 -0.410405 -0.281401 -0.01256 0.030283 0.214586 1.074865 -0.163287 -1.034754 -0.090611 -0.865989 -0.0149 0.444806 0.021193 -0.565189 -0.680909 0.334981 0.146406 -0.417701 0.635014 0.749869 -0.215174 0.068206 -0.486921 -0.421148 0.113092 -0.158091 0.508887 -0.23208 -0.733726 0.311944 0.304629 0.735134 0.191727 0.135905 -0.123814 -1.131327 0.740251 0.068559 -0.004349 1.095505 1.07045 0.633931 -0.103935 -0.824835 -0.336623 0.559632 -0.08339 -0.165315 -0.212435 -0.082808 -0.03274 -0.137239 0.731801 0.049436 -0.981877 1.115591 -0.589262 -0.362819 -1.463233 0.677895 0.277603 0.259624 0.026308 -1.253021 0.601558 0.120574 0.606219 0.067327 0.359826 0.187298 -0.114244 0.322272 -0.131629 0.657912 -0.05324 -0.119599 0.052577 0.237283 0.192498 -0.270418 0.570642 -0.641225 1.163719 0.535472 -0.075617 0.001815 0.151984 0.309584 -0.787081 -0.509913 0.153825 -0.817132 0.380298 -0.950683 -0.382766 0.152582 0.390432 -1.018097 -0.213396 0.232335 0.5473 0.553507 -0.412552 -0.565966 0.637068 -0.367258 -0.035121 -0.227793 -1.069302 -0.573844 0.293949 0.457045 -0.652229 -0.039257 -0.389751 0.051566 0.082647 -0.008151 -0.038257 0.045401 -0.177531 0.370557 0.019174 0.301119 0.387715 -0.138886 0.222466 -0.309297 -0.146134 0.997096 0.721454 -0.391609 0.60451 -0.697235 0.409189 0.164874 0.009388 -0.0045 -0.005759 -0.925415 0.040245 -0.204405 0.563572 0.172685 0.059689 -0.312039 0.262152 0.160876 0.282329 -0.2633 0.635191 0.35895 0.214118 0.524154 -0.713006 -0.320876 0.182635 -0.355795 -0.496757 0.502469 -0.171611 -0.213487 -1.001067 -0.039484 0.877149 -0.565256 -0.282744 0.884305 -0.18204 -0.097396 -0.173077 0.975617 0.045743 0.012997 -0.166085 -0.483249 -0.157523 0.164273 -0.862548 -0.050827 -0.411113 -0.372043 0.143226 1.316233 0.566608 -0.399116 -0.185603 0.203219 0.208621 0.002262 0.016687 -0.209243 0.041567 0.394478 0.257829 0.210203 0.507037 0.142644 0.631943 -1.355128 0.111713 0.021176 0.133567 -0.027509 0.02617 -0.368692 0.849587 -0.047121 0.207211 -0.25817 0.183742 -0.064784 -0.485487 -0.56102 0.352525 -0.283071 0.651723 -0.078062 -0.091044 -0.907044 0.828321 -0.094147 -0.103676 0.218269 -1.095708 0.410759 -0.518299 -0.25809 -1.194548 -0.491323 0.841406 0.394021 -0.075337 0.073874 0.450914 -0.17777 -0.085734 0.156955 0.692847 -0.440891 0.342091 -0.860422 0.215137 -0.745915 -0.409533 0.0052 -0.251407 -0.319485 -0.002605 0.040918 -0.280129 0.284071 0.291249 0.014915 0.974468 -0.009671 0.717819 0.470621 -0.283402 0.074858 -0.386004 0.866563 0.381963 0.151371 0.451584 -0.227982 -0.102809 -0.092045 0.353823 0.046406 -0.603275 0.056656 0.09017 0.264373 0.022915 -0.122186 0.170894 -0.596246 -0.242716 -0.114139 1.16931 0.692343 0.607014 0.372338 -0.404124 0.265224 -0.123347 -0.603595 3.05E-4 -0.76326 -0.09819 -0.937229 0.704756 0.030268 0.536936 0.122029 0.796345 0.607894 -0.512878 -0.148626 0.055826 0.474717 -0.214696 -1.494259 0.033139 0.336152 -0.423831 -0.477992 -0.411805 -0.586838 0.005757 -0.124663 -0.3933 0.825553 -0.01692 0.378437 -0.100029 0.164915 0.335932 -0.724016 -0.18241 -0.455499 -0.201793 -0.473188 0.721095 0.02692 0.437736 -0.572153 -0.300539 0.323507 0.287994 -0.748579 -0.428635 0.159805 0.367299 0.355209 0.179103 -0.548729 0.641541 -1.500534 -0.274827 -0.041877 0.776665 0.169159 -0.282822 1.408384
attitude -0.801614 -0.551917 -0.808486 0.327564 -0.648584 -0.753718 -1.103133 0.069234 0.089594 0.116553 -0.372179 -1.22424 -0.412567 -0.262165 -0.031761 0.094676 -0.153584 0.530115 0.180988 -0.110397 -1.123895 -0.485257 -0.473363 -1.127274 0.296809 -0.144474 -0.25621 0.15184 0.652995 0.061311 -0.575134 -0.347166 -0.506598 1.00541 0.031381 0.562243 -1.3319 -0.11642 -0.772676 -0.73835 0.225212 -0.055895 -0.242638 -0.066153 0.838777 0.405582 1.280867 -0.022434 0.598275 -1.105242 0.202176 1.431694 -0.460184 -0.1292 -1.032585 -0.103936 -0.180859 1.03731 1.080433 1.246328 -0.479794 0.363001 0.932873 -0.030705 -0.416471 -0.163906 -0.219499 0.008817 -0.851375 -0.923179 0.038077 -0.81174 0.307326 1.076306 -0.824623 -0.212625 0.028551 -0.090334 0.250723 0.235033 0.941649 0.684892 -0.8133 0.615659 0.471619 -0.184286 -0.618342 -0.002975 -0.870213 -0.835892 -0.346498 0.369607 -0.524127 0.432467 -0.192084 0.62049 0.824882 -0.921347 -0.354635 0.897682 0.265064 0.336667 0.223461 -1.041486 -0.394019 0.218811 0.314218 -0.783372 0.119676 0.772064 -0.375485 0.210713 -0.759933 -0.137748 0.275423 1.32678 -0.651257 0.00126 1.464977 1.166699 0.79032 0.350565 0.177242 1.056164 1.093096 0.25515 -0.163976 -0.164893 1.488224 0.005912 -0.567412 -0.845441 0.994666 -0.394802 0.005202 0.399885 0.790843 1.234965 -0.08181 0.950555 0.268389 0.437724 -0.817807 -0.183707 -0.235641 -0.475557 0.021862 -0.566157 -0.05682 0.127483 -0.137581 0.041453 -0.033478 -1.508052 0.485546 -1.47739 -0.979285 1.00307 -0.050033 -0.776248 -0.787465 0.037253 -0.143396 0.105063 -0.135007 1.324495 -1.104489 -1.221943 -0.245056 0.544843 0.254611 0.042119 -0.568613 -0.549662 -0.017675 -0.759384 0.088247 -0.987262 -0.280039 1.268822 -0.194011 -0.80151 -0.324842 -0.526137 0.414034 0.221828 0.831192 -1.034644 -0.198633 -0.161189 0.243142 -0.079297 -0.423128 -0.304934 -1.188742 -0.085736 0.561881 0.158226 -0.298866 0.509853 0.215821 -0.09577 -0.989742 -0.548298 0.568717 0.601007 0.870539 -0.317747 -0.800755 -0.44368 0.486699 0.348872 0.32973 -0.564788 -0.93364 -1.132923 -1.095975 0.267965 1.020746 0.064887 0.04684 0.827838 -0.640238 -0.592764 -0.709692 0.159465 0.182305 1.534483 -0.082248 -1.152213 -0.217598 -0.581968 -0.835977 -0.72225 -0.012637 -0.228878 0.322575 1.474131 0.622198 0.064258 1.390794 -0.667338 1.436173 -0.384602 0.809229 -0.173426 -0.070084 0.384445 0.161925 0.045969 -0.555699 0.67628 0.301696 -0.589675 -0.051247 0.536301 0.873855 1.14362 0.709438 -0.476184 1.488513 -1.335012 -0.231886 0.418276 -0.152194 0.428502 -0.115776 -0.660215 -0.724217 -1.263875 -0.042853 0.421703 0.904228 0.56239 0.306523 -0.357282 0.642026 0.525782 -0.25544 0.141665 -0.6212 -0.225003 -1.531559 1.300179 0.335151 -0.322714 0.815419 -0.696444 0.46176 -0.357302 -0.603104 1.165189 0.020667 -0.603027 1.370031 -0.124576 -0.437008 -0.860748 -0.356931 0.521764 -0.003017 -0.160484 -0.628652 0.10496 -0.730579 0.419698 -0.109839 0.48122 0.38388 0.192458 1.268367 0.327824 0.353703 0.574232 -1.553925 0.43679 1.384897 -0.938043 -0.327742 0.285494 -0.196157 -1.274654 -0.898832 0.871735 0.090761 -0.490898 -0.396514 0.062556 -0.128776 0.688222 -0.880141 -1.834626 -0.611565 0.165734 0.444805 0.685292 0.447164 0.48517 0.017658 0.326092 -0.143787 -0.284192 0.085201 0.28515 -0.565961 -0.325868 -0.120368 1.064856 0.160915 0.235856 1.103016 1.345139 -0.500012 -0.737619 -0.310563 1.234797 -0.967145 0.511867 1.099258 -0.735639 -0.355895 -0.049199 -0.823897 -1.112925 0.382803 -0.081658 -2.05E-4 0.070088 -0.413766 -0.72892 0.469849 -0.594922 -0.123803 0.25154 0.088583 0.966985 0.257553 -0.376859 1.859384 0.621702 1.721555 -0.33374 0.125069 0.852988 -0.142171 -0.437569 -0.490548 -0.085616 0.765979 0.370895 -1.158251 -0.864511 1.770547 -0.297341 0.157415 -0.133176 1.860901 0.292383 -0.750039 0.094386
treatment -0.486008 0.138972 0.041294 -0.020991 -1.665994 0.268986 -1.081967 -1.127712 0.04937 0.135294 -0.209394 -1.372509 0.241902 -2.527894 -0.860457 1.601708 0.096772 2.603257 -0.901508 -1.418944 0.15424 0.058232 1.273383 -2.230481 0.06811 -0.371576 0.51987 -1.935042 1.364747 -1.034179 -2.262627 0.928271 1.54936 -0.412989 0.712028 1.801913 -0.916365 -2.391727 1.079915 3.424937 1.973421 -0.315382 -0.591931 -0.448972 1.32132 -0.359174 -0.409917 -0.452906 -0.580418 -0.905983 0.219396 3.408669 0.426645 0.522551 -0.070643 0.010674 -1.235695 1.182823 1.24223 0.43096 0.21068 -0.156163 1.425505 -1.657958 0.830674 -0.377383 -0.267 -0.234775 -0.314426 1.977104 0.504193 -2.397159 0.093108 0.608325 -1.657063 -0.148814 -0.561649 1.683264 -1.481467 0.567025 -0.149325 0.415766 0.734663 -1.913789 -0.090931 0.862413 -0.605489 2.461219 0.637032 1.847949 -0.225298 -0.407656 -1.574473 0.55871 -0.239952 0.767495 1.205425 -1.523193 0.156254 0.723212 -0.278157 -0.313553 0.714274 0.489549 0.278511 -0.109521 2.102549 0.021269 0.100992 3.899162 -0.847799 -0.516159 -0.193842 2.638322 0.667631 1.171654 0.984319 -0.022204 -0.691726 0.274262 -1.302215 0.804857 0.217788 2.244052 -1.020893 -0.861759 -1.506295 -0.919048 0.792574 -0.712884 0.220418 -1.585594 -2.749506 -1.515288 -0.813118 0.908715 -8.68E-4 1.046304 0.275219 1.649868 0.814098 -0.86415 2.743725 2.160139 -1.568055 1.315456 -1.360829 0.895668 -1.090751 0.810226 0.292673 -1.248638 0.562517 -3.609366 2.154692 -1.937309 0.891843 0.283995 0.67423 0.486347 2.504104 0.41191 -0.217027 0.225915 0.118118 2.026413 0.738411 -0.237615 -0.788281 1.241767 0.385535 0.070815 -0.7125 -1.135575 0.030373 -0.625921 -1.798273 1.940065 1.174997 0.053611 0.63645 -1.187409 -0.769405 -1.294114 -0.299244 -1.204002 -2.05301 -1.165046 0.027107 -0.619971 0.737314 -1.389811 -0.559939 -3.134412 -1.522221 0.452448 0.883741 -0.193137 -0.509325 1.919313 1.035568 0.716083 -0.355364 -0.934413 1.092529 0.345721 0.102141 0.796775 0.759768 -0.165959 -0.599022 -0.369024 0.28205 0.546251 -0.849986 -1.818021 -0.686173 -0.422163 -0.430289 -1.697512 0.651185 -0.937206 0.604549 1.074342 -0.908652 -0.09481 1.613963 -1.318668 -0.427203 0.18524 0.835614 -2.424575 -0.159421 -1.597431 -1.903538 0.308902 0.36391 -0.006038 -0.59204 -0.135354 -0.636761 -2.99498 0.433107 -1.099852 -2.241843 0.075485 1.947001 -1.368786 1.829314 0.638745 -0.533937 1.160046 1.211245 -1.028253 2.407879 1.309807 1.814743 -0.733249 0.689578 0.635805 -1.331497 0.089669 1.825205 0.455084 -0.739759 2.549151 -0.057721 0.767109 0.587971 0.279226 -2.070513 0.356712 -1.222537 0.233911 1.349929 1.124582 0.36924 -0.458493 0.173371 0.099533 0.582111 -1.50729 -2.746233 0.814239 -0.091671 0.990397 -0.380158 0.752805 0.617308 -2.234689 0.083649 0.984773 -1.384203 -0.991587 2.563026 -1.22348 0.236193 -1.031525 0.163203 -1.664305 -0.999967 -0.03391 -1.112014 0.45405 -1.254955 -0.189529 2.094551 -0.490549 0.175671 -0.969199 0.013673 -0.28524 1.105601 -2.240042 -0.577418 -0.931673 -1.379777 -1.679806 -0.695671 -0.57935 0.892677 1.838393 -0.949776 0.768636 -0.142548 -0.125746 1.157245 1.27518 0.198214 1.640695 -4.380418 -1.089199 -1.750149 -0.296517 -1.22553 -0.2455 0.481293 0.783562 1.113291 0.370349 1.43226 -0.165029 0.34804 0.826455 -0.525685 -0.224322 0.002243 3.214468 -2.376606 1.368397 -0.863766 -2.71444 0.872387 1.701053 -1.465887 0.751313 0.621016 -0.698722 0.783463 -1.801782 -0.424859 -0.948012 -0.217855 -1.250773 0.636836 -0.017147 -0.384904 0.179061 -0.543754 -1.188302 -0.921163 -1.383736 0.287428 0.021142 -0.188806 0.307131 -1.088816 -0.056903 -0.429593 0.434936 1.897007 0.372861 0.465196 -1.033116 2.268916 0.055922 -0.654551 -0.570504 1.207312 -0.131731 -2.325228 0.276487 0.43306 0.136635 -0.842025 0.456893 -1.969055 -0.49877 1.626136 1.45102
